{"learner":{"attributes":{"best_iteration":"3","best_score":"0.790625"},"feature_names":["log-sigma-3-0-mm-3D_glszm_LowGrayLevelZoneEmphasis","wavelet-LLH_firstorder_Skewness","wavelet-HLH_firstorder_Mean","wavelet-HLH_firstorder_Median","wavelet-HLH_glcm_ClusterShade","wavelet-HLH_gldm_GrayLevelVariance","wavelet-HLH_glrlm_LowGrayLevelRunEmphasis","wavelet-HHL_firstorder_Skewness","wavelet-HHH_gldm_GrayLevelVariance","wavelet-HHH_glrlm_GrayLevelVariance","wavelet-LLL_glszm_ZoneEntropy"],"feature_types":["float","float","float","float","float","float","float","float","float","float","float"],"gradient_booster":{"model":{"gbtree_model_param":{"num_parallel_tree":"1","num_trees":"504"},"iteration_indptr":[0,1,2,3,4,5,6,7,8,9,10,11,12,13,14,15,16,17,18,19,20,21,22,23,24,25,26,27,28,29,30,31,32,33,34,35,36,37,38,39,40,41,42,43,44,45,46,47,48,49,50,51,52,53,54,55,56,57,58,59,60,61,62,63,64,65,66,67,68,69,70,71,72,73,74,75,76,77,78,79,80,81,82,83,84,85,86,87,88,89,90,91,92,93,94,95,96,97,98,99,100,101,102,103,104,105,106,107,108,109,110,111,112,113,114,115,116,117,118,119,120,121,122,123,124,125,126,127,128,129,130,131,132,133,134,135,136,137,138,139,140,141,142,143,144,145,146,147,148,149,150,151,152,153,154,155,156,157,158,159,160,161,162,163,164,165,166,167,168,169,170,171,172,173,174,175,176,177,178,179,180,181,182,183,184,185,186,187,188,189,190,191,192,193,194,195,196,197,198,199,200,201,202,203,204,205,206,207,208,209,210,211,212,213,214,215,216,217,218,219,220,221,222,223,224,225,226,227,228,229,230,231,232,233,234,235,236,237,238,239,240,241,242,243,244,245,246,247,248,249,250,251,252,253,254,255,256,257,258,259,260,261,262,263,264,265,266,267,268,269,270,271,272,273,274,275,276,277,278,279,280,281,282,283,284,285,286,287,288,289,290,291,292,293,294,295,296,297,298,299,300,301,302,303,304,305,306,307,308,309,310,311,312,313,314,315,316,317,318,319,320,321,322,323,324,325,326,327,328,329,330,331,332,333,334,335,336,337,338,339,340,341,342,343,344,345,346,347,348,349,350,351,352,353,354,355,356,357,358,359,360,361,362,363,364,365,366,367,368,369,370,371,372,373,374,375,376,377,378,379,380,381,382,383,384,385,386,387,388,389,390,391,392,393,394,395,396,397,398,399,400,401,402,403,404,405,406,407,408,409,410,411,412,413,414,415,416,417,418,419,420,421,422,423,424,425,426,427,428,429,430,431,432,433,434,435,436,437,438,439,440,441,442,443,444,445,446,447,448,449,450,451,452,453,454,455,456,457,458,459,460,461,462,463,464,465,466,467,468,469,470,471,472,473,474,475,476,477,478,479,480,481,482,483,484,485,486,487,488,489,490,491,492,493,494,495,496,497,498,499,500,501,502,503,504],"tree_info":[0,0,0,0,0,0,0,0,0,0,0,0,0,0,0,0,0,0,0,0,0,0,0,0,0,0,0,0,0,0,0,0,0,0,0,0,0,0,0,0,0,0,0,0,0,0,0,0,0,0,0,0,0,0,0,0,0,0,0,0,0,0,0,0,0,0,0,0,0,0,0,0,0,0,0,0,0,0,0,0,0,0,0,0,0,0,0,0,0,0,0,0,0,0,0,0,0,0,0,0,0,0,0,0,0,0,0,0,0,0,0,0,0,0,0,0,0,0,0,0,0,0,0,0,0,0,0,0,0,0,0,0,0,0,0,0,0,0,0,0,0,0,0,0,0,0,0,0,0,0,0,0,0,0,0,0,0,0,0,0,0,0,0,0,0,0,0,0,0,0,0,0,0,0,0,0,0,0,0,0,0,0,0,0,0,0,0,0,0,0,0,0,0,0,0,0,0,0,0,0,0,0,0,0,0,0,0,0,0,0,0,0,0,0,0,0,0,0,0,0,0,0,0,0,0,0,0,0,0,0,0,0,0,0,0,0,0,0,0,0,0,0,0,0,0,0,0,0,0,0,0,0,0,0,0,0,0,0,0,0,0,0,0,0,0,0,0,0,0,0,0,0,0,0,0,0,0,0,0,0,0,0,0,0,0,0,0,0,0,0,0,0,0,0,0,0,0,0,0,0,0,0,0,0,0,0,0,0,0,0,0,0,0,0,0,0,0,0,0,0,0,0,0,0,0,0,0,0,0,0,0,0,0,0,0,0,0,0,0,0,0,0,0,0,0,0,0,0,0,0,0,0,0,0,0,0,0,0,0,0,0,0,0,0,0,0,0,0,0,0,0,0,0,0,0,0,0,0,0,0,0,0,0,0,0,0,0,0,0,0,0,0,0,0,0,0,0,0,0,0,0,0,0,0,0,0,0,0,0,0,0,0,0,0,0,0,0,0,0,0,0,0,0,0,0,0,0,0,0,0,0,0,0,0,0,0,0,0,0,0,0,0,0,0,0,0,0,0,0,0,0,0,0,0,0,0,0,0,0,0,0,0,0,0,0,0,0,0,0,0,0,0,0,0,0,0,0,0,0,0,0,0,0,0,0,0,0,0,0,0,0,0,0,0,0,0,0,0,0,0,0,0,0,0],"trees":[{"base_weights":[1.12288654E-1,-6.6107553E-1,5.822265E-1,-1.9412527E-2,8.6697406E-4,9.124238E-1,-3.0203348E-1,-1.4079305E-4,2.4113454E-2,-1.05202645E-2,8.6697406E-4],"categories":[],"categories_nodes":[],"categories_segments":[],"categories_sizes":[],"default_left":[0,0,0,0,0,0,0,0,0,0,0],"id":0,"left_children":[1,3,5,-1,-1,7,9,-1,-1,-1,-1],"loss_changes":[9.130707E0,1.4905791E0,5.6639214E0,0E0,0E0,1.7192144E0,5.048652E-1,0E0,0E0,0E0,0E0],"parents":[2147483647,0,0,1,1,2,2,5,5,6,6],"right_children":[2,4,6,-1,-1,8,10,-1,-1,-1,-1],"split_conditions":[-3.0682755E-1,4.8167834E-1,2.029609E-1,-1.9412527E-2,8.6697406E-4,-1.3605766E-1,-3.3256117E-1,-1.4079305E-4,2.4113454E-2,-1.05202645E-2,8.6697406E-4],"split_indices":[3,8,7,0,0,1,2,0,0,0,0],"split_type":[0,0,0,0,0,0,0,0,0,0,0],"sum_hessian":[1.646264E1,5.4875474E0,1.0975095E1,3.7415094E0,1.7460377E0,7.981887E0,2.9932075E0,1.4966037E0,6.485283E0,1.2471699E0,1.7460377E0],"tree_param":{"num_deleted":"0","num_feature":"11","num_nodes":"11","size_leaf_vector":"1"}},{"base_weights":[-1.21238284E-1,-5.3842103E-1,4.542048E-1,-7.5989664E-1,6.9480557E-3,-2.1755707E-3,6.663824E-1,-2.233492E-2,5.2591707E-3,1.6737273E-2,1.1430309E-3],"categories":[],"categories_nodes":[],"categories_segments":[],"categories_sizes":[],"default_left":[0,0,0,0,0,0,0,0,0,0,0],"id":1,"left_children":[1,3,5,7,-1,-1,9,-1,-1,-1,-1],"loss_changes":[5.7650795E0,3.5293448E0,1.5464594E0,3.5775561E0,0E0,0E0,8.9545965E-2,0E0,0E0,0E0,0E0],"parents":[2147483647,0,0,1,1,2,2,3,3,6,6],"right_children":[2,4,6,8,-1,-1,10,-1,-1,-1,-1],"split_conditions":[4.923516E-1,8.1863445E-1,-2.7434665E-1,1.2216688E0,6.9480557E-3,-2.1755707E-3,3.0532032E-1,-2.233492E-2,5.2591707E-3,1.6737273E-2,1.1430309E-3],"split_indices":[8,10,2,0,0,0,4,0,0,0,0],"split_type":[0,0,0,0,0,0,0,0,0,0,0],"sum_hessian":[1.5462945E1,9.229856E0,6.233089E0,7.7341094E0,1.4957466E0,2.2444577E0,3.9886312E0,6.4879146E0,1.2461947E0,2.7414892E0,1.2471421E0],"tree_param":{"num_deleted":"0","num_feature":"11","num_nodes":"11","size_leaf_vector":"1"}},{"base_weights":[1.313566E-1,-6.41687E-1,5.963434E-1,-2.1151556E-2,5.3183488E-3,-3.3667315E-2,2.0012636E-2,-7.680864E-3,6.2660472E-3],"categories":[],"categories_nodes":[],"categories_segments":[],"categories_sizes":[],"default_left":[0,0,0,0,0,0,0,0,0],"id":2,"left_children":[1,3,5,-1,-1,7,-1,-1,-1],"loss_changes":[8.323398E0,3.190362E0,2.6543102E0,0E0,0E0,1.1555884E0,0E0,0E0,0E0],"parents":[2147483647,0,0,1,1,2,2,5,5],"right_children":[2,4,6,-1,-1,8,-1,-1,-1],"split_conditions":[-3.0682755E-1,7.2620904E-1,-1.16723515E-1,-2.1151556E-2,5.3183488E-3,2.2797264E-1,2.0012636E-2,-7.680864E-3,6.2660472E-3],"split_indices":[3,8,1,0,0,0,0,0,0],"split_type":[0,0,0,0,0,0,0,0,0],"sum_hessian":[1.4461719E1,4.742742E0,9.718976E0,3.4957783E0,1.2469639E0,3.990534E0,5.728442E0,1.9952279E0,1.9953061E0],"tree_param":{"num_deleted":"0","num_feature":"11","num_nodes":"9","size_leaf_vector":"1"}},{"base_weights":[2.9549802E-2,7.3060226E-1,-5.839261E-1,1.94254E-2,2.0994797E-2,-7.492954E-1,5.3006345E-3,-6.123308E-3,6.8336306E-3,-2.1188252E-2,-8.783271E-2,-9.62829E-3,6.995398E-3],"categories":[],"categories_nodes":[],"categories_segments":[],"categories_sizes":[],"default_left":[0,0,0,0,0,0,0,0,0,0,0,0,0],"id":3,"left_children":[1,3,5,7,-1,9,-1,-1,-1,-1,11,-1,-1],"loss_changes":[1.1241191E1,1.4401994E0,2.668788E0,8.974206E-1,0E0,1.029345E0,0E0,0E0,0E0,0E0,1.5312127E0,0E0,0E0],"parents":[2147483647,0,0,1,1,2,2,3,3,5,5,10,10],"right_children":[2,4,6,8,-1,10,-1,-1,-1,-1,12,-1,-1],"split_conditions":[4.9808115E-2,1.0726008E-1,7.34653E-1,-7.111363E-2,2.0994797E-2,-7.957986E-2,5.3006345E-3,-6.123308E-3,6.8336306E-3,-2.1188252E-2,-2.1186012E-1,-9.62829E-3,6.995398E-3],"split_indices":[7,9,8,0,0,2,0,0,0,0,0,0,0],"split_type":[0,0,0,0,0,0,0,0,0,0,0,0,0],"sum_hessian":[1.769964E1,7.9662952E0,9.733345E0,2.7425756E0,5.2237196E0,8.486581E0,1.2467645E0,1.2486854E0,1.4938903E0,5.2428117E0,3.243769E0,1.7476739E0,1.4960952E0],"tree_param":{"num_deleted":"0","num_feature":"11","num_nodes":"13","size_leaf_vector":"1"}},{"base_weights":[-4.8594773E-2,-6.0664684E-1,4.4743496E-1,-8.064753E-1,2.6612806E-3,8.072567E-1,-1.4685938E-1,-2.1247506E-2,-1.5437783E-4,1.1294751E-3,2.0238206E-2,1.451747E-1,-1.0341564E-2,-3.907008E-3,9.43159E-3],"categories":[],"categories_nodes":[],"categories_segments":[],"categories_sizes":[],"default_left":[0,0,0,0,0,0,0,0,0,0,0,0,0,0,0],"id":4,"left_children":[1,3,5,7,-1,9,11,-1,-1,-1,-1,13,-1,-1,-1],"loss_changes":[7.228526E0,2.232862E0,3.5494378E0,8.665743E-1,0E0,2.6498842E-1,1.0849559E0,0E0,0E0,0E0,0E0,9.511782E-1,0E0,0E0,0E0],"parents":[2147483647,0,0,1,1,2,2,3,3,5,5,6,6,11,11],"right_children":[2,4,6,8,-1,10,12,-1,-1,-1,-1,14,-1,-1,-1],"split_conditions":[3.1235802E-1,2.2797264E-1,3.3826035E-2,6.680059E-1,2.6612806E-3,-1.4877121E-1,8.0434054E-1,-2.1247506E-2,-1.5437783E-4,1.1294751E-3,2.0238206E-2,6.9954133E-1,-1.0341564E-2,-3.907008E-3,9.43159E-3],"split_indices":[5,0,7,8,0,1,5,0,0,0,0,5,0,0,0],"split_type":[0,0,0,0,0,0,0,0,0,0,0,0,0,0,0],"sum_hessian":[1.7698526E1,7.988058E0,9.710468E0,5.9927564E0,1.9953021E0,5.2198057E0,4.4906626E0,4.4967556E0,1.4960006E0,1.2465956E0,3.9732103E0,3.2418978E0,1.2487646E0,1.9959097E0,1.245988E0],"tree_param":{"num_deleted":"0","num_feature":"11","num_nodes":"15","size_leaf_vector":"1"}},{"base_weights":[2.7952308E-3,-7.6616174E-1,3.9832905E-1,-0E0,-2.0732528E-2,-4.1049245E-1,7.1636534E-1,-1.4712246E-2,2.8958013E-3,-2.238587E-4,8.4250647E-1,2.1625137E-2,9.5264945E-4],"categories":[],"categories_nodes":[],"categories_segments":[],"categories_sizes":[],"default_left":[0,0,0,0,0,0,0,0,0,0,0,0,0],"id":5,"left_children":[1,3,5,-1,-1,7,9,-1,-1,-1,11,-1,-1],"loss_changes":[8.289244E0,9.204197E-1,5.94337E0,0E0,0E0,1.3596685E0,1.467463E0,0E0,0E0,0E0,7.6437664E-1,0E0,0E0],"parents":[2147483647,0,0,1,1,2,2,5,5,6,6,10,10],"right_children":[2,4,6,-1,-1,8,10,-1,-1,-1,12,-1,-1],"split_conditions":[-4.9223667E-1,-1.1500181E0,-3.3256117E-1,-0E0,-2.0732528E-2,-1.3320614E-1,-6.544547E-1,-1.4712246E-2,2.8958013E-3,-2.238587E-4,2.029609E-1,2.1625137E-2,9.5264945E-4],"split_indices":[5,5,2,0,0,1,1,0,0,0,7,0,0],"split_type":[0,0,0,0,0,0,0,0,0,0,0,0,0],"sum_hessian":[1.893459E1,4.9966216E0,1.3937968E1,1.49772E0,3.4989018E0,3.49222E0,1.0445748E1,1.9984584E0,1.4937614E0,1.995573E0,8.450175E0,6.7037864E0,1.7463892E0],"tree_param":{"num_deleted":"0","num_feature":"11","num_nodes":"13","size_leaf_vector":"1"}},{"base_weights":[-7.24689E-2,-6.124967E-1,6.0786223E-1,-2.098347E-2,1.078838E-2,1.87041E-2,-4.027201E-3],"categories":[],"categories_nodes":[],"categories_segments":[],"categories_sizes":[],"default_left":[0,0,0,0,0,0,0],"id":6,"left_children":[1,3,5,-1,-1,-1,-1],"loss_changes":[9.15848E0,6.3861213E0,2.5062456E0,0E0,0E0,0E0,0E0],"parents":[2147483647,0,0,1,1,2,2],"right_children":[2,4,6,-1,-1,-1,-1],"split_conditions":[1.6119838E-1,7.3374736E-1,2.029609E-1,-2.098347E-2,1.078838E-2,1.87041E-2,-4.027201E-3],"split_indices":[3,8,7,0,0,0,0],"split_type":[0,0,0,0,0,0,0],"sum_hessian":[1.6435064E1,9.484904E0,6.9501605E0,7.9919615E0,1.4929429E0,5.453035E0,1.4971255E0],"tree_param":{"num_deleted":"0","num_feature":"11","num_nodes":"7","size_leaf_vector":"1"}},{"base_weights":[-9.251232E-2,-4.9433324E-1,6.234628E-1,-7.036962E-1,6.167226E-3,-8.715294E-5,1.7540066E-2,-8.467262E-1,-1.7157111E-2,-2.070366E-2,-1.6930655E-3,5.2403044E-3,-6.1708633E-3],"categories":[],"categories_nodes":[],"categories_segments":[],"categories_sizes":[],"default_left":[0,0,0,0,0,0,0,0,0,0,0,0,0],"id":7,"left_children":[1,3,5,7,-1,-1,-1,9,11,-1,-1,-1,-1],"loss_changes":[7.0112476E0,3.2760205E0,8.932483E-1,1.1423855E0,0E0,0E0,0E0,8.996725E-2,6.814444E-1,0E0,0E0,0E0,0E0],"parents":[2147483647,0,0,1,1,2,2,3,3,7,7,8,8],"right_children":[2,4,6,8,-1,-1,-1,10,12,-1,-1,-1,-1],"split_conditions":[1.8838522E-1,3.7537828E-1,2.5461072E-1,6.9954133E-1,6.167226E-3,-8.715294E-5,1.7540066E-2,9.478139E-1,8.053661E-1,-2.070366E-2,-1.6930655E-3,5.2403044E-3,-6.1708633E-3],"split_indices":[1,2,5,5,0,0,0,6,5,0,0,0,0],"split_type":[0,0,0,0,0,0,0,0,0,0,0,0,0],"sum_hessian":[1.5683109E1,1.097795E1,4.705159E0,8.986838E0,1.9911116E0,1.4934407E0,3.2117186E0,6.493265E0,2.4935732E0,5.2442417E0,1.2490236E0,1.2455306E0,1.2480426E0],"tree_param":{"num_deleted":"0","num_feature":"11","num_nodes":"13","size_leaf_vector":"1"}},{"base_weights":[-1.6731752E-1,-7.187807E-1,5.3584987E-1,-1.0384527E0,1.0613511E-2,1.7295536E-2,-6.087109E-3,-2.693153E-2,-6.8277172E-6],"categories":[],"categories_nodes":[],"categories_segments":[],"categories_sizes":[],"default_left":[0,0,0,0,0,0,0,0,0],"id":8,"left_children":[1,3,5,7,-1,-1,-1,-1,-1],"loss_changes":[9.644946E0,7.1766644E0,2.9076743E0,1.5855608E0,0E0,0E0,0E0,0E0,0E0],"parents":[2147483647,0,0,1,1,2,2,3,3],"right_children":[2,4,6,8,-1,-1,-1,-1,-1],"split_conditions":[1.6119838E-1,7.34653E-1,3.3852312E-1,3.7537828E-1,1.0613511E-2,1.7295536E-2,-6.087109E-3,-2.693153E-2,-6.8277172E-6],"split_indices":[3,8,7,2,0,0,0,0,0],"split_type":[0,0,0,0,0,0,0,0,0],"sum_hessian":[1.6415327E1,9.233378E0,7.1819487E0,7.744181E0,1.489197E0,5.933621E0,1.248328E0,6.2481604E0,1.496021E0],"tree_param":{"num_deleted":"0","num_feature":"11","num_nodes":"9","size_leaf_vector":"1"}},{"base_weights":[5.1325105E-2,-5.9993523E-1,4.368953E-1,-1.7841278E-2,1.0547896E-3,8.171054E-1,-1.840911E-1,7.1218744E-4,2.0450456E-2,-1.0852678E-2,1.4725403E-1,-4.1273064E-3,8.581718E-3],"categories":[],"categories_nodes":[],"categories_segments":[],"categories_sizes":[],"default_left":[0,0,0,0,0,0,0,0,0,0,0,0,0],"id":9,"left_children":[1,3,5,-1,-1,7,9,-1,-1,-1,11,-1,-1],"loss_changes":[6.514082E0,1.3557606E0,4.507921E0,0E0,0E0,4.3519306E-1,1.238108E0,0E0,0E0,0E0,8.620169E-1,0E0,0E0],"parents":[2147483647,0,0,1,1,2,2,5,5,6,6,10,10],"right_children":[2,4,6,-1,-1,8,10,-1,-1,-1,12,-1,-1],"split_conditions":[-3.0682755E-1,4.8167834E-1,3.3826035E-2,-1.7841278E-2,1.0547896E-3,-5.5315924E-1,-3.3256117E-1,7.1218744E-4,2.0450456E-2,-1.0852678E-2,-2.7625756E-2,-4.1273064E-3,8.581718E-3],"split_indices":[3,8,7,0,0,10,2,0,0,0,6,0,0],"split_type":[0,0,0,0,0,0,0,0,0,0,0,0,0],"sum_hessian":[1.7391459E1,5.491664E0,1.1899795E1,3.7469609E0,1.7447032E0,6.6621017E0,5.2376924E0,1.2388738E0,5.423228E0,1.9974976E0,3.240195E0,1.4942129E0,1.745982E0],"tree_param":{"num_deleted":"0","num_feature":"11","num_nodes":"13","size_leaf_vector":"1"}},{"base_weights":[2.5711676E-2,-7.2637063E-1,4.136643E-1,-0E0,-1.9826228E-2,5.987609E-1,-7.3826336E-3,8.262543E-1,-1.4199868E-1,4.0666142E-4,2.1421986E-2,-1.0090229E-2,4.902833E-3],"categories":[],"categories_nodes":[],"categories_segments":[],"categories_sizes":[],"default_left":[0,0,0,0,0,0,0,0,0,0,0,0,0],"id":10,"left_children":[1,3,5,-1,-1,7,-1,9,11,-1,-1,-1,-1],"loss_changes":[7.8977156E0,9.269843E-1,3.276274E0,0E0,0E0,3.240518E0,0E0,9.6603966E-1,1.1901207E0,0E0,0E0,0E0,0E0],"parents":[2147483647,0,0,1,1,2,2,5,5,7,7,8,8],"right_children":[2,4,6,-1,-1,8,-1,10,12,-1,-1,-1,-1],"split_conditions":[-4.9223667E-1,-1.1500181E0,9.7529304E-1,-0E0,-1.9826228E-2,2.029609E-1,-7.3826336E-3,-3.0000597E-1,-2.028977E-1,4.0666142E-4,2.1421986E-2,-1.0090229E-2,4.902833E-3],"split_indices":[5,5,6,0,0,7,0,2,6,0,0,0,0],"split_type":[0,0,0,0,0,0,0,0,0,0,0,0,0],"sum_hessian":[1.862251E1,4.9908547E0,1.3631656E1,1.4952207E0,3.495634E0,1.1638639E1,1.9930165E0,8.642844E0,2.995795E0,1.7331195E0,6.9097247E0,1.2486608E0,1.7471342E0],"tree_param":{"num_deleted":"0","num_feature":"11","num_nodes":"13","size_leaf_vector":"1"}},{"base_weights":[-1.3569337E-1,4.7498465E-1,-6.4749336E-1,7.6699066E-1,-9.742698E-3,-1.7133784E-2,-2.8230355E-4,1.9809928E-2,2.154697E-3],"categories":[],"categories_nodes":[],"categories_segments":[],"categories_sizes":[],"default_left":[0,0,0,0,0,0,0,0,0],"id":11,"left_children":[1,3,5,7,-1,-1,-1,-1,-1],"loss_changes":[7.675817E0,4.468011E0,7.097535E-1,2.3937893E-1,0E0,0E0,0E0,0E0,0E0],"parents":[2147483647,0,0,1,1,2,2,3,3],"right_children":[2,4,6,8,-1,-1,-1,-1,-1],"split_conditions":[3.3826035E-2,7.356626E-1,6.9954133E-1,-1.905082E-1,-9.742698E-3,-1.7133784E-2,-2.8230355E-4,1.9809928E-2,2.154697E-3],"split_indices":[7,6,5,6,0,0,0,0,0],"split_type":[0,0,0,0,0,0,0,0,0],"sum_hessian":[1.6131977E1,7.3979278E0,8.73405E0,6.149178E0,1.2487497E0,6.7408643E0,1.9931849E0,4.172715E0,1.9764627E0],"tree_param":{"num_deleted":"0","num_feature":"11","num_nodes":"9","size_leaf_vector":"1"}},{"base_weights":[6.383308E-2,-3.9855164E-1,4.9774918E-1,-1.7178014E-2,3.06107E-1,6.806889E-1,-2.411201E-3,-1.7257131E-3,1.0625099E-2,7.416226E-1,7.480572E-4,1.3254114E-3,1.8430632E-2],"categories":[],"categories_nodes":[],"categories_segments":[],"categories_sizes":[],"default_left":[0,0,0,0,0,0,0,0,0,0,0,0,0],"id":12,"left_children":[1,3,5,-1,7,9,-1,-1,-1,11,-1,-1,-1],"loss_changes":[4.976821E0,4.0378237E0,1.7558751E0,0E0,6.085105E-1,2.2432137E-1,0E0,0E0,0E0,1.0731506E-1,0E0,0E0,0E0],"parents":[2147483647,0,0,1,1,2,2,4,4,5,5,9,9],"right_children":[2,4,6,-1,8,10,-1,-1,-1,12,-1,-1,-1],"split_conditions":[3.7917262E-1,4.8167834E-1,8.0434054E-1,-1.7178014E-2,2.949748E-1,6.622191E-1,-2.411201E-3,-1.7257131E-3,1.0625099E-2,-2.3424073E-1,7.480572E-4,1.3254114E-3,1.8430632E-2],"split_indices":[5,8,5,0,2,6,0,0,0,1,0,0,0],"split_type":[0,0,0,0,0,0,0,0,0,0,0,0,0],"sum_hessian":[1.6364336E1,7.9686356E0,8.3957E0,5.23421E0,2.7344253E0,6.162122E0,2.2335787E0,1.2475376E0,1.4868877E0,4.9238076E0,1.2383142E0,1.2474586E0,3.676349E0],"tree_param":{"num_deleted":"0","num_feature":"11","num_nodes":"13","size_leaf_vector":"1"}},{"base_weights":[1.9447634E-2,-3.3174515E-1,6.2561655E-1,-6.1620736E-1,1.8303174E-1,-1.9554128E-3,1.8238466E-2,-1.7476184E-2,-4.8531312E-2,1.2291977E-2,-6.9937417E-3,-7.2994074E-3,5.7654646E-3],"categories":[],"categories_nodes":[],"categories_segments":[],"categories_sizes":[],"default_left":[0,0,0,0,0,0,0,0,0,0,0,0,0],"id":13,"left_children":[1,3,5,7,9,-1,-1,-1,11,-1,-1,-1,-1],"loss_changes":[5.287233E0,2.8171787E0,1.4732699E0,6.9182825E-1,2.2201388E0,0E0,0E0,0E0,9.1103244E-1,0E0,0E0,0E0,0E0],"parents":[2147483647,0,0,1,1,2,2,3,3,4,4,8,8],"right_children":[2,4,6,8,10,-1,-1,-1,12,-1,-1,-1,-1],"split_conditions":[1.8838522E-1,2.2797264E-1,-6.1144393E-2,2.8898025E-1,4.9311277E-1,-1.9554128E-3,1.8238466E-2,-1.7476184E-2,-4.5716223E-1,1.2291977E-2,-6.9937417E-3,-7.2994074E-3,5.7654646E-3],"split_indices":[1,0,3,7,7,0,0,0,1,0,0,0,0],"split_type":[0,0,0,0,0,0,0,0,0,0,0,0,0],"sum_hessian":[1.6358505E1,1.1454197E1,4.904308E0,6.976852E0,4.4773455E0,1.2388614E0,3.6654463E0,4.234914E0,2.7419376E0,2.4817724E0,1.9955729E0,1.4951777E0,1.2467599E0],"tree_param":{"num_deleted":"0","num_feature":"11","num_nodes":"13","size_leaf_vector":"1"}},{"base_weights":[7.387529E-2,-6.360592E-1,4.190234E-1,-1.3273772E-3,-1.6716553E-2,-3.446026E-1,7.053536E-1,-1.4102492E-2,4.8472085E-3,8.0813944E-1,-5.5835355E-4,5.8547482E-2,2.2926643E-2,-5.61145E-3,8.374973E-3],"categories":[],"categories_nodes":[],"categories_segments":[],"categories_sizes":[],"default_left":[0,0,0,0,0,0,0,0,0,0,0,0,0,0,0],"id":14,"left_children":[1,3,5,-1,-1,7,9,-1,-1,11,-1,13,-1,-1,-1],"loss_changes":[6.4395285E0,2.1023893E-1,4.847726E0,0E0,0E0,1.7186946E0,1.2230201E0,0E0,0E0,1.4631996E0,0E0,1.06075E0,0E0,0E0,0E0],"parents":[2147483647,0,0,1,1,2,2,5,5,6,6,9,9,11,11],"right_children":[2,4,6,-1,-1,8,10,-1,-1,12,-1,14,-1,-1,-1],"split_conditions":[-4.9223667E-1,-1.1500181E0,-3.3256117E-1,-1.3273772E-3,-1.6716553E-2,-1.3320614E-1,8.000561E-1,-1.4102492E-2,4.8472085E-3,-6.5169287E-1,-5.5835355E-4,3.1235802E-1,2.2926643E-2,-5.61145E-3,8.374973E-3],"split_indices":[5,5,2,0,0,1,5,0,0,0,0,5,0,0,0],"split_type":[0,0,0,0,0,0,0,0,0,0,0,0,0,0,0],"sum_hessian":[1.7570578E1,4.482977E0,1.3087601E1,1.7426424E0,2.7403345E0,3.2325182E0,9.8550825E0,1.9983876E0,1.2341306E0,8.370459E0,1.4846238E0,2.9573069E0,5.4131517E0,1.740475E0,1.2168319E0],"tree_param":{"num_deleted":"0","num_feature":"11","num_nodes":"15","size_leaf_vector":"1"}},{"base_weights":[7.056272E-2,-1.4018061E-2,3.5572198E-1,-2.3405866E-1,6.364816E-1,-1.294867E-2,6.108752E-3,8.9930826E-1,-4.8850635E-3,2.2253767E-2,2.0873572E-3],"categories":[],"categories_nodes":[],"categories_segments":[],"categories_sizes":[],"default_left":[0,0,0,0,0,0,0,0,0,0,0],"id":15,"left_children":[1,-1,3,5,7,-1,-1,9,-1,-1,-1],"loss_changes":[5.0325446E0,0E0,3.6159494E0,2.1128416E0,3.85494E0,0E0,0E0,1.6286755E-1,0E0,0E0,0E0],"parents":[2147483647,0,0,2,2,3,3,4,4,7,7],"right_children":[2,-1,4,6,8,-1,-1,10,-1,-1,-1],"split_conditions":[-6.544547E-1,-1.4018061E-2,-2.7434665E-1,-1.7006023E-1,6.297049E-1,-1.294867E-2,6.108752E-3,7.9306906E-1,-4.8850635E-3,2.2253767E-2,2.0873572E-3],"split_indices":[1,0,2,10,4,0,0,5,0,0,0],"split_type":[0,0,0,0,0,0,0,0,0,0,0],"sum_hessian":[1.7049166E1,3.4854527E0,1.3563713E1,4.4771056E0,9.086607E0,2.4952035E0,1.9819022E0,6.8496375E0,2.2369697E0,5.376314E0,1.4733233E0],"tree_param":{"num_deleted":"0","num_feature":"11","num_nodes":"11","size_leaf_vector":"1"}},{"base_weights":[-2.0358957E-1,-5.2771854E-1,1.151012E-2,-6.9943184E-1,6.389218E-3,-8.668503E-1,5.1514017E-3,-2.2837117E-2,-1.8729654E-1,-1.0192921E-2,5.2981013E-3],"categories":[],"categories_nodes":[],"categories_segments":[],"categories_sizes":[],"default_left":[0,0,0,0,0,0,0,0,0,0,0],"id":16,"left_children":[1,3,-1,5,-1,7,-1,-1,9,-1,-1],"loss_changes":[5.7119007E0,3.0719595E0,0E0,3.1245613E0,0E0,2.556591E-1,0E0,0E0,1.2625852E0,0E0,0E0],"parents":[2147483647,0,0,1,1,3,3,5,5,8,8],"right_children":[2,4,-1,6,-1,8,-1,-1,10,-1,-1],"split_conditions":[1.8838522E-1,3.7537828E-1,1.151012E-2,7.34653E-1,6.389218E-3,2.2797264E-1,5.1514017E-3,-2.2837117E-2,-1.3702671E-1,-1.0192921E-2,5.2981013E-3],"split_indices":[1,2,0,8,0,0,0,0,2,0,0],"split_type":[0,0,0,0,0,0,0,0,0,0,0],"sum_hessian":[1.5830266E1,1.1686802E1,4.143464E0,1.0208809E1,1.4779928E0,8.964565E0,1.2442433E0,5.7299323E0,3.2346332E0,1.9952723E0,1.2393609E0],"tree_param":{"num_deleted":"0","num_feature":"11","num_nodes":"11","size_leaf_vector":"1"}},{"base_weights":[6.3913696E-2,4.5422193E-1,-1.619191E-2,-1.0165745E-1,7.46793E-1,1.677027E-1,-8.7975925E-3,-5.336612E-4,2.0218002E-2,-3.5010886E-3,8.568092E-3],"categories":[],"categories_nodes":[],"categories_segments":[],"categories_sizes":[],"default_left":[0,0,0,0,0,0,0,0,0,0,0],"id":17,"left_children":[1,3,-1,5,7,9,-1,-1,-1,-1,-1],"loss_changes":[7.495002E0,3.0347567E0,0E0,9.9509096E-1,1.3650026E0,7.5863034E-1,0E0,0E0,0E0,0E0,0E0],"parents":[2147483647,0,0,1,1,3,3,4,4,5,5],"right_children":[2,4,-1,6,8,10,-1,-1,-1,-1,-1],"split_conditions":[8.104928E-1,-1.3320614E-1,-1.619191E-2,-2.7275577E-1,-6.906944E-1,-8.8716656E-1,-8.7975925E-3,-5.336612E-4,2.0218002E-2,-3.5010886E-3,8.568092E-3],"split_indices":[4,1,0,1,8,1,0,0,0,0,0],"split_type":[0,0,0,0,0,0,0,0,0,0,0],"sum_hessian":[1.6270548E1,1.2046865E1,4.2236824E0,4.9763045E0,7.0705614E0,3.2313352E0,1.7449695E0,1.4712267E0,5.5993347E0,1.4911119E0,1.7402233E0],"tree_param":{"num_deleted":"0","num_feature":"11","num_nodes":"11","size_leaf_vector":"1"}},{"base_weights":[-5.3060677E-2,5.2436095E-1,-5.5972445E-1,-7.147946E-3,1.8097773E-2,-7.333371E-1,5.125822E-3,-1.95472E-2,1.015488E-3],"categories":[],"categories_nodes":[],"categories_segments":[],"categories_sizes":[],"default_left":[0,0,0,0,0,0,0,0,0],"id":18,"left_children":[1,3,5,-1,-1,7,-1,-1,-1],"loss_changes":[7.161547E0,3.6615896E0,2.5047054E0,0E0,0E0,1.3411832E0,0E0,0E0,0E0],"parents":[2147483647,0,0,1,1,2,2,5,5],"right_children":[2,4,6,-1,-1,8,-1,-1,-1],"split_conditions":[4.9808115E-2,-9.435866E-1,7.34653E-1,-7.147946E-3,1.8097773E-2,-1.8864272E-3,5.125822E-3,-1.95472E-2,1.015488E-3],"split_indices":[7,3,8,0,0,1,0,0,0],"split_type":[0,0,0,0,0,0,0,0,0],"sum_hessian":[1.6017355E1,7.317845E0,8.69951E0,1.4927868E0,5.8250585E0,7.4557343E0,1.2437756E0,6.2172685E0,1.2384659E0],"tree_param":{"num_deleted":"0","num_feature":"11","num_nodes":"9","size_leaf_vector":"1"}},{"base_weights":[-1.8974584E-1,-6.3476014E-1,3.7326673E-1,-8.5047734E-1,3.5953414E-2,-5.8671664E-3,1.41425375E-2,-2.1039307E-2,-1.5619055E-3,-7.1734255E-3,9.012662E-3],"categories":[],"categories_nodes":[],"categories_segments":[],"categories_sizes":[],"default_left":[0,0,0,0,0,0,0,0,0,0,0],"id":19,"left_children":[1,3,5,7,9,-1,-1,-1,-1,-1,-1],"loss_changes":[5.846593E0,2.0123606E0,2.406286E0,1.4880371E-1,1.3969004E0,0E0,0E0,0E0,0E0,0E0,0E0],"parents":[2147483647,0,0,1,1,2,2,3,3,4,4],"right_children":[2,4,6,8,10,-1,-1,-1,-1,-1,-1],"split_conditions":[1.6119838E-1,2.2797264E-1,-3.0000597E-1,6.680059E-1,-7.957986E-2,-5.8671664E-3,1.41425375E-2,-2.1039307E-2,-1.5619055E-3,-7.1734255E-3,9.012662E-3],"split_indices":[3,0,2,8,2,0,0,0,0,0,0],"split_type":[0,0,0,0,0,0,0,0,0,0,0],"sum_hessian":[1.5016902E1,8.193939E0,6.822963E0,5.4659963E0,2.7279425E0,1.7287813E0,5.094182E0,4.2207594E0,1.245237E0,1.4928412E0,1.2351012E0],"tree_param":{"num_deleted":"0","num_feature":"11","num_nodes":"11","size_leaf_vector":"1"}},{"base_weights":[8.990036E-2,4.3984666E-1,-1.6591273E-2,6.9013286E-1,-1.660051E-1,8.6557E-1,-3.8897302E-3,-9.106669E-3,5.691467E-3,2.1544676E-2,6.073317E-4],"categories":[],"categories_nodes":[],"categories_segments":[],"categories_sizes":[],"default_left":[0,0,0,0,0,0,0,0,0,0,0],"id":20,"left_children":[1,3,-1,5,7,9,-1,-1,-1,-1,-1],"loss_changes":[7.4171457E0,3.2224517E0,0E0,2.726636E0,1.244976E0,5.5005264E-1,0E0,0E0,0E0,0E0,0E0],"parents":[2147483647,0,0,1,1,3,3,4,4,5,5],"right_children":[2,4,-1,6,8,10,-1,-1,-1,-1,-1],"split_conditions":[1.0066015E0,2.029609E-1,-1.6591273E-2,5.551895E-1,7.9928464E-1,8.0978334E-1,-3.8897302E-3,-9.106669E-3,5.691467E-3,2.1544676E-2,6.073317E-4],"split_indices":[4,7,0,6,6,5,0,0,0,0,0],"split_type":[0,0,0,0,0,0,0,0,0,0,0],"sum_hessian":[1.7191137E1,1.3475205E1,3.7159321E0,9.246317E0,4.228889E0,7.7611847E0,1.4851322E0,2.9886525E0,1.2402364E0,6.531495E0,1.2296897E0],"tree_param":{"num_deleted":"0","num_feature":"11","num_nodes":"11","size_leaf_vector":"1"}},{"base_weights":[-0E0,-5.2432716E-1,2.760623E-1,-9.52906E-4,-1.3966566E-2,-4.0173236E-1,5.751998E-1,-1.2330607E-2,8.9403783E-4,-2.2412378E-3,1.7523311E-2],"categories":[],"categories_nodes":[],"categories_segments":[],"categories_sizes":[],"default_left":[0,0,0,0,0,0,0,0,0,0,0],"id":21,"left_children":[1,3,5,-1,-1,7,9,-1,-1,-1,-1],"loss_changes":[3.4475708E0,1.6119099E-1,4.1868224E0,0E0,0E0,5.767323E-1,2.0237112E0,0E0,0E0,0E0,0E0],"parents":[2147483647,0,0,1,1,2,2,5,5,6,6],"right_children":[2,4,6,-1,-1,8,10,-1,-1,-1,-1],"split_conditions":[-5.206375E-1,-1.1500181E0,-3.3256117E-1,-9.52906E-4,-1.3966566E-2,-1.3605766E-1,-6.5169287E-1,-1.2330607E-2,8.9403783E-4,-2.2412378E-3,1.7523311E-2],"split_indices":[5,5,2,0,0,1,0,0,0,0,0],"split_type":[0,0,0,0,0,0,0,0,0,0,0],"sum_hessian":[1.5489869E1,3.956412E0,1.1533457E1,1.7314389E0,2.2249732E0,2.9784908E0,8.554966E0,1.7445138E0,1.2339771E0,2.211922E0,6.3430443E0],"tree_param":{"num_deleted":"0","num_feature":"11","num_nodes":"11","size_leaf_vector":"1"}},{"base_weights":[1.097115E-1,-4.2036653E-1,5.180518E-1,-6.6538405E-1,6.815328E-3,-5.4919836E-3,7.175836E-1,-1.0394782E-3,-1.7407823E-2,1.8246695E-2,1.1897743E-3],"categories":[],"categories_nodes":[],"categories_segments":[],"categories_sizes":[],"default_left":[0,0,0,0,0,0,0,0,0,0,0],"id":22,"left_children":[1,3,5,7,-1,-1,9,-1,-1,-1,-1],"loss_changes":[5.4967837E0,2.880137E0,2.8833287E0,3.5174084E-1,0E0,0E0,3.789506E-1,0E0,0E0,0E0,0E0],"parents":[2147483647,0,0,1,1,2,2,3,3,6,6],"right_children":[2,4,6,8,-1,-1,10,-1,-1,-1,-1],"split_conditions":[-1.1145929E-1,1.765623E-1,-3.3256117E-1,-9.782654E-1,6.815328E-3,-5.4919836E-3,2.029609E-1,-1.0394782E-3,-1.7407823E-2,1.8246695E-2,1.1897743E-3],"split_indices":[3,2,2,3,0,0,7,0,0,0,0],"split_type":[0,0,0,0,0,0,0,0,0,0,0],"sum_hessian":[1.6885519E1,7.1787925E0,9.706726E0,5.6949615E0,1.4838308E0,1.7325652E0,7.974161E0,1.7359238E0,3.9590378E0,6.234948E0,1.7392128E0],"tree_param":{"num_deleted":"0","num_feature":"11","num_nodes":"11","size_leaf_vector":"1"}},{"base_weights":[-1.9562779E-2,-7.6460505E-1,4.5764202E-1,-1.3724654E-3,-1.885988E-2,-5.2100797E-3,6.539628E-1,1.671123E-2,1.050414E-1,-1.9206997E-3,5.3195306E-3],"categories":[],"categories_nodes":[],"categories_segments":[],"categories_sizes":[],"default_left":[0,0,0,0,0,0,0,0,0,0,0],"id":23,"left_children":[1,3,5,-1,-1,-1,7,-1,9,-1,-1],"loss_changes":[9.007545E0,1.0999584E-1,2.7462273E0,0E0,0E0,0E0,1.3711071E-1,0E0,2.5946674E-1,0E0,0E0],"parents":[2147483647,0,0,1,1,2,2,6,6,8,8],"right_children":[2,4,6,-1,-1,-1,8,-1,10,-1,-1],"split_conditions":[-3.0682755E-1,-1.6876544E0,-3.3256117E-1,-1.3724654E-3,-1.885988E-2,-5.2100797E-3,2.029609E-1,1.671123E-2,5.88062E-2,-1.9206997E-3,5.3195306E-3],"split_indices":[3,3,2,0,0,0,7,0,0,0,0],"split_type":[0,0,0,0,0,0,0,0,0,0,0],"sum_hessian":[1.6873663E1,5.684343E0,1.1189321E1,1.2398952E0,4.4444475E0,2.220172E0,8.969149E0,6.483758E0,2.4853911E0,1.2395242E0,1.2458669E0],"tree_param":{"num_deleted":"0","num_feature":"11","num_nodes":"11","size_leaf_vector":"1"}},{"base_weights":[1.3530754E-1,4.0523764E-1,-1.2162287E-2,-4.2598634E-3,5.5843896E-1,-0E0,6.468738E-1,7.470593E-1,-7.7989345E-5,1.8955283E-2,4.632434E-5],"categories":[],"categories_nodes":[],"categories_segments":[],"categories_sizes":[],"default_left":[0,0,0,0,0,0,0,0,0,0,0],"id":24,"left_children":[1,3,-1,-1,5,-1,7,9,-1,-1,-1],"loss_changes":[4.464389E0,1.9848068E0,0E0,0E0,7.045026E-1,0E0,8.999033E-1,5.6259537E-1,0E0,0E0,0E0],"parents":[2147483647,0,0,1,1,4,4,6,6,7,7],"right_children":[2,4,-1,-1,6,-1,8,10,-1,-1,-1],"split_conditions":[5.121612E-1,-3.931537E-1,-1.2162287E-2,-4.2598634E-3,-5.758987E-1,-0E0,2.029609E-1,3.6207008E-1,-7.7989345E-5,1.8955283E-2,4.632434E-5],"split_indices":[7,2,0,0,3,0,7,6,0,0,0],"split_type":[0,0,0,0,0,0,0,0,0,0,0],"sum_hessian":[1.5622702E1,1.2411726E1,3.2109756E0,2.223175E0,1.0188551E1,1.9860845E0,8.202466E0,6.7069526E0,1.4955133E0,5.4955306E0,1.2114221E0],"tree_param":{"num_deleted":"0","num_feature":"11","num_nodes":"11","size_leaf_vector":"1"}},{"base_weights":[-1.21219E-3,-3.8727155E-1,5.1332015E-1,-6.044576E-1,7.548497E-3,-3.6669516E-3,1.7365154E-2,-8.2468414E-1,3.0823098E-3,-1.194123E-3,-2.0412559E-2],"categories":[],"categories_nodes":[],"categories_segments":[],"categories_sizes":[],"default_left":[0,0,0,0,0,0,0,0,0,0,0],"id":25,"left_children":[1,3,5,7,-1,-1,-1,9,-1,-1,-1],"loss_changes":[4.9119678E0,3.0937352E0,2.3135154E0,2.587442E0,0E0,0E0,0E0,2.3966455E-1,0E0,0E0,0E0],"parents":[2147483647,0,0,1,1,2,2,3,3,7,7],"right_children":[2,4,6,8,-1,-1,-1,10,-1,-1,-1],"split_conditions":[-1.5889727E-2,7.34653E-1,-6.5169287E-1,5.518282E-1,7.548497E-3,-3.6669516E-3,1.7365154E-2,-1.0063968E0,3.0823098E-3,-1.194123E-3,-2.0412559E-2],"split_indices":[2,8,0,3,0,0,0,0,0,0,0],"split_type":[0,0,0,0,0,0,0,0,0,0,0],"sum_hessian":[1.6357872E1,1.00611515E1,6.29672E0,8.345425E0,1.7157266E0,1.954133E0,4.342587E0,6.1655407E0,2.1798842E0,1.218849E0,4.946692E0],"tree_param":{"num_deleted":"0","num_feature":"11","num_nodes":"11","size_leaf_vector":"1"}},{"base_weights":[7.7164635E-2,4.479862E-1,-1.6391916E-2,-1.8210082E-1,8.1470484E-1,-1.1632666E-2,2.3101918E-1,4.2357287E-4,2.1471089E-2,-5.238724E-4,7.7414014E-3],"categories":[],"categories_nodes":[],"categories_segments":[],"categories_sizes":[],"default_left":[0,0,0,0,0,0,0,0,0,0,0],"id":26,"left_children":[1,3,-1,5,7,-1,9,-1,-1,-1,-1],"loss_changes":[7.2194977E0,4.4704857E0,0E0,1.7846558E0,9.2365646E-1,0E0,2.5371403E-1,0E0,0E0,0E0,0E0],"parents":[2147483647,0,0,1,1,3,3,4,4,6,6],"right_children":[2,4,-1,6,8,-1,10,-1,-1,-1,-1],"split_conditions":[5.121612E-1,1.07600205E-1,-1.6391916E-2,1.6119838E-1,-9.1559255E-1,-1.1632666E-2,1.8838522E-1,4.2357287E-4,2.1471089E-2,-5.238724E-4,7.7414014E-3],"split_indices":[7,8,0,3,0,0,1,0,0,0,0],"split_type":[0,0,0,0,0,0,0,0,0,0,0],"sum_hessian":[1.5825381E1,1.212723E1,3.6981516E0,5.1347146E0,6.9925156E0,2.4731371E0,2.6615775E0,1.7042389E0,5.2882767E0,1.4761496E0,1.1854279E0],"tree_param":{"num_deleted":"0","num_feature":"11","num_nodes":"11","size_leaf_vector":"1"}},{"base_weights":[1.15136966E-1,-1.9950435E-1,5.941117E-1,-1.3399329E-2,2.0200409E-1,1.5420224E-2,-0E0,-3.132879E-1,1.4176274E-2,-1.2353073E-2,3.124567E-3],"categories":[],"categories_nodes":[],"categories_segments":[],"categories_sizes":[],"default_left":[0,0,0,0,0,0,0,0,0,0,0],"id":27,"left_children":[1,3,5,-1,7,-1,-1,9,-1,-1,-1],"loss_changes":[3.6692097E0,2.9478223E0,4.082036E-1,0E0,3.1336775E0,0E0,0E0,1.1109126E0,0E0,0E0,0E0],"parents":[2147483647,0,0,1,1,2,2,4,4,7,7],"right_children":[2,4,6,-1,8,-1,-1,10,-1,-1,-1],"split_conditions":[1.4289829E-1,3.482717E-1,3.0458015E-1,-1.3399329E-2,-7.957986E-2,1.5420224E-2,-0E0,-3.7809503E-1,1.4176274E-2,-1.2353073E-2,3.124567E-3],"split_indices":[1,8,6,0,2,0,0,10,0,0,0],"split_type":[0,0,0,0,0,0,0,0,0,0,0],"sum_hessian":[1.6530554E1,1.1326378E1,5.204177E0,4.9280605E0,6.3983173E0,4.0113616E0,1.1928151E0,3.2176747E0,3.1806426E0,1.73927E0,1.4784046E0],"tree_param":{"num_deleted":"0","num_feature":"11","num_nodes":"11","size_leaf_vector":"1"}},{"base_weights":[-5.3861585E-2,-5.0288993E-1,3.4704056E-1,-1.7460655E-2,1.0670271E-1,5.516943E-1,-3.6209102E-3,-2.068737E-3,5.403086E-3,1.45244505E-2,-0E0,-9.032608E-3,7.2909417E-3],"categories":[],"categories_nodes":[],"categories_segments":[],"categories_sizes":[],"default_left":[0,0,0,0,0,0,0,0,0,0,0,0,0],"id":28,"left_children":[1,3,5,-1,7,9,11,-1,-1,-1,-1,-1,-1],"loss_changes":[4.2704983E0,2.166662E0,9.7826767E-1,0E0,2.81055E-1,3.2807136E-1,1.6304978E0,0E0,0E0,0E0,0E0,0E0,0E0],"parents":[2147483647,0,0,1,1,2,2,4,4,5,5,6,6],"right_children":[2,4,6,-1,8,10,12,-1,-1,-1,-1,-1,-1],"split_conditions":[2.632314E-1,1.6119838E-1,3.3826035E-2,-1.7460655E-2,-1.8864272E-3,2.5767267E-1,-2.7625756E-2,-2.068737E-3,5.403086E-3,1.45244505E-2,-0E0,-9.032608E-3,7.2909417E-3],"split_indices":[8,3,7,0,1,6,6,0,0,0,0,0,0],"split_type":[0,0,0,0,0,0,0,0,0,0,0,0,0],"sum_hessian":[1.5323249E1,6.8483124E0,8.4749365E0,4.1824865E0,2.6658256E0,4.0185676E0,4.456369E0,1.229873E0,1.4359527E0,2.8246608E0,1.1939067E0,1.7353987E0,2.7209702E0],"tree_param":{"num_deleted":"0","num_feature":"11","num_nodes":"13","size_leaf_vector":"1"}},{"base_weights":[6.497235E-2,-1.4284007E-2,3.802352E-1,-2.2791041E-1,6.525486E-1,-1.2034338E-2,7.4838856E-3,1.8415477E-2,-1.1901956E-3],"categories":[],"categories_nodes":[],"categories_segments":[],"categories_sizes":[],"default_left":[0,0,0,0,0,0,0,0,0],"id":29,"left_children":[1,-1,3,5,7,-1,-1,-1,-1],"loss_changes":[5.5753217E0,0E0,3.531398E0,2.124493E0,1.6631289E0,0E0,0E0,0E0,0E0],"parents":[2147483647,0,0,2,2,3,3,4,4],"right_children":[2,-1,4,6,8,-1,-1,-1,-1],"split_conditions":[-4.9223667E-1,-1.4284007E-2,1.6579641E-1,1.8838522E-1,7.8899944E-1,-1.2034338E-2,7.4838856E-3,1.8415477E-2,-1.1901956E-3],"split_indices":[5,0,8,1,5,0,0,0,0],"split_type":[0,0,0,0,0,0,0,0,0],"sum_hessian":[1.6965544E1,3.9225297E0,1.3043015E1,4.1245008E0,8.918513E0,2.954288E0,1.170213E0,6.9704194E0,1.9480941E0],"tree_param":{"num_deleted":"0","num_feature":"11","num_nodes":"9","size_leaf_vector":"1"}},{"base_weights":[-1.0139219E-1,3.8302603E-1,-5.040464E-1,-1.8636489E-1,6.3799804E-1,-1.5052404E-1,-1.51483845E-2,-5.834285E-3,1.7245367E-4,4.2065384E-4,1.6248869E-2,7.851149E-3,-1.1640829E-2],"categories":[],"categories_nodes":[],"categories_segments":[],"categories_sizes":[],"default_left":[0,0,0,0,0,0,0,0,0,0,0,0,0],"id":30,"left_children":[1,3,5,7,9,11,-1,-1,-1,-1,-1,-1,-1],"loss_changes":[4.7181406E0,2.1949012E0,2.0800376E-1,1.22866765E-1,2.6301384E-1,2.454406E0,0E0,0E0,0E0,0E0,0E0,0E0,0E0],"parents":[2147483647,0,0,1,1,2,2,3,3,4,4,5,5],"right_children":[2,4,6,8,10,12,-1,-1,-1,-1,-1,-1,-1],"split_conditions":[4.9808115E-2,2.0875145E-1,5.4584503E-1,-2.6667373E-2,4.541721E-1,5.118973E-1,-1.51483845E-2,-5.834285E-3,1.7245367E-4,4.2065384E-4,1.6248869E-2,7.851149E-3,-1.1640829E-2],"split_indices":[7,9,9,0,5,7,0,0,0,0,0,0,0],"split_type":[0,0,0,0,0,0,0,0,0,0,0,0,0],"sum_hessian":[1.5730165E1,7.112152E0,8.618012E0,2.4202304E0,4.6919217E0,5.4114866E0,3.2065253E0,1.2187027E0,1.2015276E0,1.1929235E0,3.498998E0,2.2231722E0,3.1883147E0],"tree_param":{"num_deleted":"0","num_feature":"11","num_nodes":"13","size_leaf_vector":"1"}},{"base_weights":[-2.0223243E-2,-4.8866576E-1,4.2729893E-1,-7.092265E-1,3.9384263E-3,-6.628278E-3,6.7382264E-1,-5.1233085E-4,-1.7844845E-2,1.7021455E-2,8.318698E-5],"categories":[],"categories_nodes":[],"categories_segments":[],"categories_sizes":[],"default_left":[0,0,0,0,0,0,0,0,0,0,0],"id":31,"left_children":[1,3,5,7,-1,-1,9,-1,-1,-1,-1],"loss_changes":[5.3683934E0,2.3981693E0,3.172932E0,3.392563E-1,0E0,0E0,4.269247E-1,0E0,0E0,0E0,0E0],"parents":[2147483647,0,0,1,1,2,2,3,3,6,6],"right_children":[2,4,6,8,-1,-1,10,-1,-1,-1,-1],"split_conditions":[3.1235802E-1,2.2797264E-1,-3.3256117E-1,-1.1500181E0,3.9384263E-3,-6.628278E-3,7.9306906E-1,-5.1233085E-4,-1.7844845E-2,1.7021455E-2,8.318698E-5],"split_indices":[5,0,2,5,0,0,5,0,0,0,0],"split_type":[0,0,0,0,0,0,0,0,0,0,0],"sum_hessian":[1.7157993E1,8.311087E0,8.846906E0,6.120923E0,2.190164E0,1.9638752E0,6.8830304E0,1.2265737E0,4.894349E0,5.67083E0,1.2122006E0],"tree_param":{"num_deleted":"0","num_feature":"11","num_nodes":"11","size_leaf_vector":"1"}},{"base_weights":[-1.7112507E-1,-4.234744E-1,1.2490251E-2,-1.8751286E-2,1.7672367E-1,-3.25582E-1,1.1808601E-2,-9.461869E-3,-0E0],"categories":[],"categories_nodes":[],"categories_segments":[],"categories_sizes":[],"default_left":[0,0,0,0,0,0,0,0,0],"id":32,"left_children":[1,3,-1,-1,5,7,-1,-1,-1],"loss_changes":[4.6986003E0,4.8988323E0,0E0,0E0,2.5037313E0,2.2647846E-1,0E0,0E0,0E0],"parents":[2147483647,0,0,1,1,4,4,5,5],"right_children":[2,4,-1,-1,6,8,-1,-1,-1],"split_conditions":[7.34653E-1,1.6119838E-1,1.2490251E-2,-1.8751286E-2,-3.090946E-1,-3.0000597E-1,1.1808601E-2,-9.461869E-3,-0E0],"split_indices":[8,3,0,0,10,2,0,0,0],"split_type":[0,0,0,0,0,0,0,0,0],"sum_hessian":[1.6445385E1,1.3550362E1,2.8950229E0,7.3478208E0,6.2025404E0,2.439702E0,3.7628386E0,1.2389858E0,1.2007161E0],"tree_param":{"num_deleted":"0","num_feature":"11","num_nodes":"9","size_leaf_vector":"1"}},{"base_weights":[1.4978366E-2,-1.370726E-2,3.0689853E-1,5.276924E-1,-1.7416202E-1,7.160582E-1,-6.1149807E-3,-9.784119E-3,1.0547373E-1,2.6248291E-2,1.9910935E-2,-3.2382729E-3,6.7059677E-3,-2.786777E-3,3.990098E-3],"categories":[],"categories_nodes":[],"categories_segments":[],"categories_sizes":[],"default_left":[0,0,0,0,0,0,0,0,0,0,0,0,0,0,0],"id":33,"left_children":[1,-1,3,5,7,9,-1,-1,11,13,-1,-1,-1,-1,-1],"loss_changes":[4.521381E0,0E0,2.25214E0,2.799272E0,8.2154155E-1,1.0535479E0,0E0,0E0,5.236992E-1,2.4014358E-1,0E0,0E0,0E0,0E0,0E0],"parents":[2147483647,0,0,2,2,3,3,4,4,5,5,8,8,9,9],"right_children":[2,-1,4,6,8,10,-1,-1,12,14,-1,-1,-1,-1,-1],"split_conditions":[-4.9223667E-1,-1.370726E-2,2.029609E-1,5.551895E-1,-4.1532448E-1,-5.5315924E-1,-6.1149807E-3,-9.784119E-3,4.7350115E-1,2.2717359E-2,1.9910935E-2,-3.2382729E-3,6.7059677E-3,-2.786777E-3,3.990098E-3],"split_indices":[5,0,7,6,6,10,0,0,9,0,0,0,0,0,0],"split_type":[0,0,0,0,0,0,0,0,0,0,0,0,0,0,0],"sum_hessian":[1.6867596E1,3.8890553E0,1.2978539E1,8.7687645E0,4.209775E0,7.536053E0,1.2327119E0,1.2415836E0,2.9681911E0,2.4006147E0,5.1354384E0,1.4798806E0,1.4883106E0,1.2120183E0,1.1885964E0],"tree_param":{"num_deleted":"0","num_feature":"11","num_nodes":"15","size_leaf_vector":"1"}},{"base_weights":[1.3849352E-2,-5.0691915E-1,2.9692438E-1,-4.0182503E-4,-1.3858601E-2,-2.5294232E-1,5.815628E-1,-1.1251266E-2,2.7147133E-3,1.6023185E-2,-1.0334777E-3],"categories":[],"categories_nodes":[],"categories_segments":[],"categories_sizes":[],"default_left":[0,0,0,0,0,0,0,0,0,0,0],"id":34,"left_children":[1,3,5,-1,-1,7,9,-1,-1,-1,-1],"loss_changes":[3.5090835E0,2.902205E-1,3.0855355E0,0E0,0E0,1.0042996E0,1.0670226E0,0E0,0E0,0E0,0E0],"parents":[2147483647,0,0,1,1,2,2,5,5,6,6],"right_children":[2,4,6,-1,-1,8,10,-1,-1,-1,-1],"split_conditions":[-4.9223667E-1,-1.1500181E0,2.632314E-1,-4.0182503E-4,-1.3858601E-2,1.6119838E-1,7.8899944E-1,-1.1251266E-2,2.7147133E-3,1.6023185E-2,-1.0334777E-3],"split_indices":[5,5,8,0,0,3,5,0,0,0,0],"split_type":[0,0,0,0,0,0,0,0,0,0,0],"sum_hessian":[1.5433336E1,4.1265626E0,1.1306773E1,1.7066916E0,2.4198709E0,3.8878338E0,7.41894E0,1.7147243E0,2.1731095E0,5.9701233E0,1.4488168E0],"tree_param":{"num_deleted":"0","num_feature":"11","num_nodes":"11","size_leaf_vector":"1"}},{"base_weights":[3.779577E-2,3.0763936E-1,-1.2394634E-2,4.9044064E-1,-2.4773E-1,-4.774738E-2,6.9823635E-1,-9.66982E-3,2.2801168E-3,-9.9382475E-3,6.7900456E-3,1.8753542E-2,-0E0],"categories":[],"categories_nodes":[],"categories_segments":[],"categories_sizes":[],"default_left":[0,0,0,0,0,0,0,0,0,0,0,0,0],"id":35,"left_children":[1,3,-1,5,7,9,11,-1,-1,-1,-1,-1,-1],"loss_changes":[3.7413764E0,2.1821184E0,0E0,1.74735E0,6.165825E-1,1.5732305E0,9.0748835E-1,0E0,0E0,0E0,0E0,0E0,0E0],"parents":[2147483647,0,0,1,1,3,3,4,4,5,5,6,6],"right_children":[2,4,-1,6,8,10,12,-1,-1,-1,-1,-1,-1],"split_conditions":[5.121612E-1,7.356626E-1,-1.2394634E-2,-5.5315924E-1,5.261951E-2,-4.1532448E-1,7.124698E-1,-9.66982E-3,2.2801168E-3,-9.9382475E-3,6.7900456E-3,1.8753542E-2,-0E0],"split_indices":[7,6,0,10,7,6,4,0,0,0,0,0,0],"split_type":[0,0,0,0,0,0,0,0,0,0,0,0,0],"sum_hessian":[1.5385756E1,1.1971812E1,3.4139435E0,9.523847E0,2.4479651E0,3.413509E0,6.1103377E0,1.2283943E0,1.2195708E0,1.237698E0,2.175811E0,4.6375065E0,1.4728315E0],"tree_param":{"num_deleted":"0","num_feature":"11","num_nodes":"13","size_leaf_vector":"1"}},{"base_weights":[-0E0,-3.868888E-1,4.2448542E-1,-5.7734E-1,3.4591702E-3,6.042023E-1,-3.970636E-3,-0E0,-1.5505337E-2,4.5975888E-4,1.5229927E-2],"categories":[],"categories_nodes":[],"categories_segments":[],"categories_sizes":[],"default_left":[0,0,0,0,0,0,0,0,0,0,0],"id":36,"left_children":[1,3,5,7,-1,9,-1,-1,-1,-1,-1],"loss_changes":[3.826817E0,1.6681526E0,1.6777395E0,6.0276175E-1,0E0,2.1206784E-1,0E0,0E0,0E0,0E0,0E0],"parents":[2147483647,0,0,1,1,2,2,3,3,5,5],"right_children":[2,4,6,8,-1,10,-1,-1,-1,-1,-1],"split_conditions":[1.6119838E-1,2.949748E-1,8.00841E-1,-1.0063968E0,3.4591702E-3,-1.2882736E0,-3.970636E-3,-0E0,-1.5505337E-2,4.5975888E-4,1.5229927E-2],"split_indices":[3,2,5,0,0,4,0,0,0,0,0],"split_type":[0,0,0,0,0,0,0,0,0,0,0],"sum_hessian":[1.4875334E1,8.024528E0,6.850806E0,5.8464527E0,2.1780753E0,5.3719516E0,1.4788547E0,1.4379362E0,4.4085164E0,1.205972E0,4.16598E0],"tree_param":{"num_deleted":"0","num_feature":"11","num_nodes":"11","size_leaf_vector":"1"}},{"base_weights":[3.361972E-2,3.228037E-1,-1.5274686E-2,-3.42604E-1,6.0237074E-1,-1.0342537E-2,7.876891E-4,-2.0923715E-3,7.100575E-1,8.9543767E-4,1.736641E-2],"categories":[],"categories_nodes":[],"categories_segments":[],"categories_sizes":[],"default_left":[0,0,0,0,0,0,0,0,0,0,0],"id":37,"left_children":[1,3,-1,5,7,-1,-1,-1,9,-1,-1],"loss_changes":[4.9226894E0,4.079674E0,0E0,4.2473572E-1,1.3627005E0,0E0,0E0,0E0,1.9501114E-1,0E0,0E0],"parents":[2147483647,0,0,1,1,3,3,4,4,8,8],"right_children":[2,4,-1,6,8,-1,-1,-1,10,-1,-1],"split_conditions":[1.0066015E0,-3.3256117E-1,-1.5274686E-2,-3.090946E-1,-9.791371E-1,-1.0342537E-2,7.876891E-4,-2.0923715E-3,-2.981789E-1,8.9543767E-4,1.736641E-2],"split_indices":[4,2,0,10,9,0,0,0,2,0,0],"split_type":[0,0,0,0,0,0,0,0,0,0,0],"sum_hessian":[1.5771425E1,1.2883941E1,2.8874853E0,3.4164479E0,9.467492E0,2.221834E0,1.1946138E0,1.2235243E0,8.243968E0,1.2198709E0,7.0240974E0],"tree_param":{"num_deleted":"0","num_feature":"11","num_nodes":"11","size_leaf_vector":"1"}},{"base_weights":[-9.188419E-2,-3.5051674E-1,4.3264014E-1,-5.380658E-1,6.154165E-3,1.1509238E-2,-0E0,-6.409037E-1,2.1685753E-3,-1.6935768E-2,-4.028324E-4],"categories":[],"categories_nodes":[],"categories_segments":[],"categories_sizes":[],"default_left":[0,0,0,0,0,0,0,0,0,0,0],"id":38,"left_children":[1,3,5,7,-1,-1,-1,9,-1,-1,-1],"loss_changes":[3.3452926E0,2.4823766E0,2.5202048E-1,1.2076123E0,0E0,0E0,0E0,6.335921E-1,0E0,0E0,0E0],"parents":[2147483647,0,0,1,1,2,2,3,3,7,7],"right_children":[2,4,6,8,-1,-1,-1,10,-1,-1,-1],"split_conditions":[1.8838522E-1,3.7537828E-1,3.0458015E-1,1.602406E0,6.154165E-3,1.1509238E-2,-0E0,-6.473608E-2,2.1685753E-3,-1.6935768E-2,-4.028324E-4],"split_indices":[1,2,6,6,0,0,0,2,0,0,0],"split_type":[0,0,0,0,0,0,0,0,0,0,0],"sum_hessian":[1.579251E1,1.1651623E1,4.140887E0,9.501626E0,2.1499965E0,2.969076E0,1.1718107E0,8.273137E0,1.2284893E0,6.3108673E0,1.9622695E0],"tree_param":{"num_deleted":"0","num_feature":"11","num_nodes":"11","size_leaf_vector":"1"}},{"base_weights":[-3.380245E-2,5.312829E-1,-5.159462E-1,-6.1139655E-3,1.9060284E-2,-6.788971E-1,4.9152137E-3,1.1863245E-3,-1.8178437E-2],"categories":[],"categories_nodes":[],"categories_segments":[],"categories_sizes":[],"default_left":[0,0,0,0,0,0,0,0,0],"id":39,"left_children":[1,3,5,-1,-1,7,-1,-1,-1],"loss_changes":[6.591457E0,3.6841228E0,2.2137873E0,0E0,0E0,1.2443008E0,0E0,0E0,0E0],"parents":[2147483647,0,0,1,1,2,2,5,5],"right_children":[2,4,6,-1,-1,8,-1,-1,-1],"split_conditions":[4.9808115E-2,-3.0682755E-1,7.34653E-1,-6.1139655E-3,1.9060284E-2,-8.0448544E-1,4.9152137E-3,1.1863245E-3,-1.8178437E-2],"split_indices":[7,3,8,0,0,4,0,0,0],"split_type":[0,0,0,0,0,0,0,0,0],"sum_hessian":[1.573829E1,6.9452477E0,8.793042E0,1.936591E0,5.0086565E0,7.5543275E0,1.2387143E0,1.2174466E0,6.336881E0],"tree_param":{"num_deleted":"0","num_feature":"11","num_nodes":"9","size_leaf_vector":"1"}},{"base_weights":[1.8835694E-2,-2.2108144E-1,5.142095E-1,-4.518897E-1,9.527154E-3,1.3393414E-4,1.3357781E-2,-1.6396705E-2,2.3126186E-1,-2.914067E-3,9.485552E-3],"categories":[],"categories_nodes":[],"categories_segments":[],"categories_sizes":[],"default_left":[0,0,0,0,0,0,0,0,0,0,0],"id":40,"left_children":[1,3,5,7,-1,-1,-1,-1,9,-1,-1],"loss_changes":[2.8817935E0,3.1859982E0,2.0130658E-1,3.2918136E0,0E0,0E0,0E0,0E0,7.1291006E-1,0E0,0E0],"parents":[2147483647,0,0,1,1,2,2,3,3,8,8],"right_children":[2,4,6,8,-1,-1,-1,-1,10,-1,-1],"split_conditions":[3.7537828E-1,7.34653E-1,4.8167834E-1,1.8838522E-1,9.527154E-3,1.3393414E-4,1.3357781E-2,-1.6396705E-2,4.4309855E-1,-2.914067E-3,9.485552E-3],"split_indices":[2,8,8,1,0,0,0,0,3,0,0],"split_type":[0,0,0,0,0,0,0,0,0,0,0],"sum_hessian":[1.5730414E1,1.2024729E1,3.7056859E0,9.852069E0,2.1726594E0,1.179503E0,2.526183E0,7.06945E0,2.782619E0,1.1764367E0,1.6061823E0],"tree_param":{"num_deleted":"0","num_feature":"11","num_nodes":"11","size_leaf_vector":"1"}},{"base_weights":[-5.6363158E-2,-3.9719713E-1,5.649028E-1,-5.988746E-1,7.517715E-2,3.2580845E-4,1.44364005E-2,-1.3318539E-4,-6.5744025E-1,6.5721394E-3,-4.356472E-3,-1.7166546E-2,-8.9360384E-4],"categories":[],"categories_nodes":[],"categories_segments":[],"categories_sizes":[],"default_left":[0,0,0,0,0,0,0,0,0,0,0,0,0],"id":41,"left_children":[1,3,5,7,9,-1,-1,-1,11,-1,-1,-1,-1],"loss_changes":[5.047691E0,1.6895902E0,2.011509E-1,3.0315542E-1,6.9769645E-1,0E0,0E0,0E0,3.6527538E-1,0E0,0E0,0E0,0E0],"parents":[2147483647,0,0,1,1,2,2,3,3,4,4,8,8],"right_children":[2,4,6,8,10,-1,-1,-1,12,-1,-1,-1,-1],"split_conditions":[1.8838522E-1,-6.473608E-2,-9.085909E-3,-1.1500181E0,4.7169957E-1,3.2580845E-4,1.44364005E-2,-1.3318539E-4,1.2901422E-1,6.5721394E-3,-4.356472E-3,-1.7166546E-2,-8.9360384E-4],"split_indices":[1,2,3,5,4,0,0,0,10,0,0,0,0],"split_type":[0,0,0,0,0,0,0,0,0,0,0,0,0],"sum_hessian":[1.5236699E1,1.0933034E1,4.303665E0,7.0299745E0,3.9030595E0,1.1805235E0,3.1231415E0,1.2136813E0,5.8162932E0,2.2049956E0,1.6980639E0,4.12842E0,1.6878731E0],"tree_param":{"num_deleted":"0","num_feature":"11","num_nodes":"13","size_leaf_vector":"1"}},{"base_weights":[-0E0,-4.3404043E-1,5.46761E-1,-6.0046214E-1,3.0593611E-3,1.3835895E-2,-0E0,-1.4928257E-2,-4.0278822E-4],"categories":[],"categories_nodes":[],"categories_segments":[],"categories_sizes":[],"default_left":[0,0,0,0,0,0,0,0,0],"id":42,"left_children":[1,3,5,7,-1,-1,-1,-1,-1],"loss_changes":[5.8264637E0,1.6734836E0,2.9247355E-1,2.2366142E-1,0E0,0E0,0E0,0E0,0E0],"parents":[2147483647,0,0,1,1,2,2,3,3],"right_children":[2,4,6,8,-1,-1,-1,-1,-1],"split_conditions":[1.6119838E-1,3.7537828E-1,4.658511E-1,1.1349373E0,3.0593611E-3,1.3835895E-2,-0E0,-1.4928257E-2,-4.0278822E-4],"split_indices":[3,2,6,6,0,0,0,0,0],"split_type":[0,0,0,0,0,0,0,0,0],"sum_hessian":[1.6084137E1,9.381899E0,6.702239E0,7.2132745E0,2.1686242E0,5.51966E0,1.1825794E0,5.996281E0,1.2169932E0],"tree_param":{"num_deleted":"0","num_feature":"11","num_nodes":"9","size_leaf_vector":"1"}},{"base_weights":[1.1569913E-1,-5.511047E-1,4.2680407E-1,-4.6981336E-4,-1.4088772E-2,6.2287647E-1,-4.994138E-2,1.7339384E-2,-2.4218182E-3,-9.265115E-3,2.3320082E-1,6.8567568E-3,-0E0],"categories":[],"categories_nodes":[],"categories_segments":[],"categories_sizes":[],"default_left":[0,0,0,0,0,0,0,0,0,0,0,0,0],"id":43,"left_children":[1,3,5,-1,-1,7,9,-1,-1,-1,11,-1,-1],"loss_changes":[5.0853233E0,1.5235138E-1,1.6871033E0,0E0,0E0,1.5650482E0,1.2606473E0,0E0,0E0,0E0,1.2063098E-1,0E0,0E0],"parents":[2147483647,0,0,1,1,2,2,5,5,6,6,10,10],"right_children":[2,4,6,-1,-1,8,10,-1,-1,-1,12,-1,-1],"split_conditions":[-4.9223667E-1,8.104928E-1,2.029609E-1,-4.6981336E-4,-1.4088772E-2,5.551895E-1,-2.028977E-1,1.7339384E-2,-2.4218182E-3,-9.265115E-3,6.796812E-1,6.8567568E-3,-0E0],"split_indices":[5,4,7,0,0,6,6,0,0,0,8,0,0],"split_type":[0,0,0,0,0,0,0,0,0,0,0,0,0],"sum_hessian":[1.557878E1,3.811006E0,1.1767775E1,1.1945858E0,2.6164203E0,7.582323E0,4.185451E0,6.3844976E0,1.1978254E0,1.2225325E0,2.9629185E0,1.4796767E0,1.4832418E0],"tree_param":{"num_deleted":"0","num_feature":"11","num_nodes":"13","size_leaf_vector":"1"}},{"base_weights":[6.502505E-2,-4.2861825E-1,3.2111013E-1,-0E0,-1.204369E-2,-7.836275E-2,5.191543E-1,-7.887836E-3,1.7331246E-1,-3.6545046E-2,1.671993E-2,-1.669035E-3,6.8564476E-3,-7.931095E-3,6.9022034E-3],"categories":[],"categories_nodes":[],"categories_segments":[],"categories_sizes":[],"default_left":[0,0,0,0,0,0,0,0,0,0,0,0,0,0,0],"id":44,"left_children":[1,3,5,-1,-1,7,9,-1,11,13,-1,-1,-1,-1,-1],"loss_changes":[2.92135E0,2.8157294E-1,1.3904703E0,0E0,0E0,8.325337E-1,1.4352627E0,0E0,3.3125848E-1,1.1582985E0,0E0,0E0,0E0,0E0,0E0],"parents":[2147483647,0,0,1,1,2,2,5,5,6,6,8,8,9,9],"right_children":[2,4,6,-1,-1,8,10,-1,12,14,-1,-1,-1,-1,-1],"split_conditions":[-4.9223667E-1,-1.1500181E0,-1.3320614E-1,-0E0,-1.204369E-2,-1.7340054E-1,-2.1186012E-1,-7.887836E-3,2.0998791E-1,5.5265707E-1,1.671993E-2,-1.669035E-3,6.8564476E-3,-7.931095E-3,6.9022034E-3],"split_indices":[5,5,1,0,0,6,0,0,7,9,0,0,0,0,0],"split_type":[0,0,0,0,0,0,0,0,0,0,0,0,0,0,0],"sum_hessian":[1.4391359E1,3.8015604E0,1.0589799E1,1.67922E0,2.1223404E0,4.1746182E0,6.415181E0,1.4800605E0,2.6945577E0,2.587141E0,3.82804E0,1.2276287E0,1.4669291E0,1.4611509E0,1.1259902E0],"tree_param":{"num_deleted":"0","num_feature":"11","num_nodes":"15","size_leaf_vector":"1"}},{"base_weights":[2.6342181E-2,-3.0089352E-1,4.0794408E-1,-5.2188635E-1,6.8032695E-3,-1.614139E-1,1.6512856E-2,5.1756564E-4,-1.4735678E-2,-7.213596E-3,2.1561752E-3],"categories":[],"categories_nodes":[],"categories_segments":[],"categories_sizes":[],"default_left":[0,0,0,0,0,0,0,0,0,0,0],"id":45,"left_children":[1,3,5,7,-1,9,-1,-1,-1,-1,-1],"loss_changes":[2.8610394E0,2.3077612E0,2.4360132E0,8.3549047E-1,0E0,4.2686862E-1,0E0,0E0,0E0,0E0,0E0],"parents":[2147483647,0,0,1,1,2,2,3,3,5,5],"right_children":[2,4,6,8,-1,10,-1,-1,-1,-1,-1],"split_conditions":[-6.473608E-2,7.34653E-1,-1.0523399E-1,-1.0496368E0,6.8032695E-3,-3.2464985E-3,1.6512856E-2,5.1756564E-4,-1.4735678E-2,-7.213596E-3,2.1561752E-3],"split_indices":[2,8,0,0,0,9,0,0,0,0,0],"split_type":[0,0,0,0,0,0,0,0,0,0,0],"sum_hessian":[1.4455894E1,8.110721E0,6.3451743E0,6.4460936E0,1.6646265E0,2.8568196E0,3.4883547E0,1.6448897E0,4.801204E0,1.4337435E0,1.4230763E0],"tree_param":{"num_deleted":"0","num_feature":"11","num_nodes":"11","size_leaf_vector":"1"}},{"base_weights":[-0E0,-5.2648115E-1,2.9841328E-1,6.6662603E-4,-1.52978245E-2,4.0103874E-1,-3.5022716E-3,5.8437455E-1,-1.4438413E-1,7.6498813E-4,6.558732E-1,-6.0784165E-3,1.5772155E-3,2.1119457E-4,1.672587E-2],"categories":[],"categories_nodes":[],"categories_segments":[],"categories_sizes":[],"default_left":[0,0,0,0,0,0,0,0,0,0,0,0,0,0,0],"id":46,"left_children":[1,3,5,-1,-1,7,-1,9,11,-1,13,-1,-1,-1,-1],"loss_changes":[3.7740421E0,8.3801246E-1,9.90857E-1,0E0,0E0,1.7796683E0,0E0,2.7796078E-1,2.7134982E-1,0E0,3.5558653E-1,0E0,0E0,0E0,0E0],"parents":[2147483647,0,0,1,1,2,2,5,5,7,7,8,8,10,10],"right_children":[2,4,6,-1,-1,8,-1,10,12,-1,14,-1,-1,-1,-1],"split_conditions":[-4.9223667E-1,-1.1500181E0,9.7529304E-1,6.6662603E-4,-1.52978245E-2,2.029609E-1,-3.5022716E-3,-1.3605766E-1,1.0207997E-1,7.6498813E-4,1.5104768E-1,-6.0784165E-3,1.5772155E-3,2.1119457E-4,1.672587E-2],"split_indices":[5,5,6,0,0,7,0,1,6,0,5,0,0,0,0],"split_type":[0,0,0,0,0,0,0,0,0,0,0,0,0,0,0],"sum_hessian":[1.5515644E1,4.5061884E0,1.1009457E1,1.4430895E0,3.0630987E0,9.547743E0,1.4617133E0,7.068022E0,2.4797213E0,1.695617E0,5.3724046E0,1.2443954E0,1.235326E0,1.1969448E0,4.17546E0],"tree_param":{"num_deleted":"0","num_feature":"11","num_nodes":"15","size_leaf_vector":"1"}},{"base_weights":[-1.4838879E-1,-3.92265E-1,1.1542594E-2,-6.9129246E-1,2.4161185E-1,-1.9339083E-2,9.3447155E-4,9.951018E-3,-3.488206E-3],"categories":[],"categories_nodes":[],"categories_segments":[],"categories_sizes":[],"default_left":[0,0,0,0,0,0,0,0,0],"id":47,"left_children":[1,3,-1,5,7,-1,-1,-1,-1],"loss_changes":[3.9258115E0,3.9160151E0,0E0,1.6419115E0,9.45609E-1,0E0,0E0,0E0,0E0],"parents":[2147483647,0,0,1,1,3,3,4,4],"right_children":[2,4,-1,6,8,-1,-1,-1,-1],"split_conditions":[7.34653E-1,5.7124686E-1,1.1542594E-2,3.7537828E-1,2.029609E-1,-1.9339083E-2,9.3447155E-4,9.951018E-3,-3.488206E-3],"split_indices":[8,3,0,2,7,0,0,0,0],"split_type":[0,0,0,0,0,0,0,0,0],"sum_hessian":[1.5283517E1,1.2470641E1,2.812875E0,8.329153E0,4.1414886E0,6.470425E0,1.8587277E0,2.6702833E0,1.4712052E0],"tree_param":{"num_deleted":"0","num_feature":"11","num_nodes":"9","size_leaf_vector":"1"}},{"base_weights":[-1.1057848E-2,2.9149598E-1,-5.85539E-1,-2.7579403E-1,5.387759E-1,-1.4932414E-2,-4.963956E-4,-1.0956648E-2,2.7809981E-3,6.5945E-1,-2.508154E-3,-0E0,1.758866E-2],"categories":[],"categories_nodes":[],"categories_segments":[],"categories_sizes":[],"default_left":[0,0,0,0,0,0,0,0,0,0,0,0,0],"id":48,"left_children":[1,3,5,7,9,-1,-1,-1,-1,11,-1,-1,-1],"loss_changes":[4.139679E0,2.8239617E0,1.7831421E-1,8.7600034E-1,1.3284197E0,0E0,0E0,0E0,0E0,8.6514044E-1,0E0,0E0,0E0],"parents":[2147483647,0,0,1,1,2,2,3,3,4,4,9,9],"right_children":[2,4,6,8,10,-1,-1,-1,-1,12,-1,-1,-1],"split_conditions":[5.121612E-1,-3.0000597E-1,5.295031E-1,-4.6636865E-1,6.622191E-1,-1.4932414E-2,-4.963956E-4,-1.0956648E-2,2.7809981E-3,-5.758987E-1,-2.508154E-3,-0E0,1.758866E-2],"split_indices":[7,2,9,10,6,0,0,0,0,3,0,0,0],"split_type":[0,0,0,0,0,0,0,0,0,0,0,0,0],"sum_hessian":[1.5275835E1,1.1244226E1,4.0316086E0,3.133686E0,8.11054E0,2.8427255E0,1.1888831E0,1.6821777E0,1.4515083E0,6.9168234E0,1.1937174E0,1.4664706E0,5.450353E0],"tree_param":{"num_deleted":"0","num_feature":"11","num_nodes":"13","size_leaf_vector":"1"}},{"base_weights":[-8.5282676E-2,-3.627249E-1,4.2013127E-1,-6.528216E-1,1.4341064E-1,1.2840331E-2,-2.1706251E-3,-1.7939968E-2,-0E0,-2.3798814E-1,1.0366958E-2,-8.960058E-3,1.8300379E-3],"categories":[],"categories_nodes":[],"categories_segments":[],"categories_sizes":[],"default_left":[0,0,0,0,0,0,0,0,0,0,0,0,0],"id":49,"left_children":[1,3,5,7,9,-1,-1,-1,-1,11,-1,-1,-1],"loss_changes":[3.5273933E0,2.756436E0,9.3579555E-1,1.0103035E0,1.5453988E0,0E0,0E0,0E0,0E0,4.903775E-1,0E0,0E0,0E0],"parents":[2147483647,0,0,1,1,2,2,3,3,4,4,9,9],"right_children":[2,4,6,8,10,-1,-1,-1,-1,12,-1,-1,-1],"split_conditions":[1.8838522E-1,4.7322205E-1,1.999539E-1,6.614877E-1,-2.4384536E-1,1.2840331E-2,-2.1706251E-3,-1.7939968E-2,-0E0,3.8272277E-1,1.0366958E-2,-8.960058E-3,1.8300379E-3],"split_indices":[1,8,4,5,2,0,0,0,0,6,0,0,0],"split_type":[0,0,0,0,0,0,0,0,0,0,0,0,0],"sum_hessian":[1.6398493E1,1.1493084E1,4.9054074E0,6.6638937E0,4.8291903E0,3.7208335E0,1.184574E0,4.9785666E0,1.6853273E0,2.4436255E0,2.385565E0,1.219137E0,1.2244885E0],"tree_param":{"num_deleted":"0","num_feature":"11","num_nodes":"13","size_leaf_vector":"1"}},{"base_weights":[-4.5010183E-2,-2.7074638E-1,1.3397204E-2,-6.1378825E-1,2.358904E-1,-1.6692769E-2,3.2173013E-4,-6.0905544E-3,5.1669055E-1,1.3600691E-2,-0E0],"categories":[],"categories_nodes":[],"categories_segments":[],"categories_sizes":[],"default_left":[0,0,0,0,0,0,0,0,0,0,0],"id":50,"left_children":[1,3,-1,5,7,-1,-1,-1,9,-1,-1],"loss_changes":[3.623048E0,3.8624501E0,0E0,1.012403E0,2.069694E0,0E0,0E0,0E0,2.9398108E-1,0E0,0E0],"parents":[2147483647,0,0,1,1,3,3,4,4,8,8],"right_children":[2,4,-1,6,8,-1,-1,-1,10,-1,-1],"split_conditions":[7.34653E-1,1.1112979E-1,1.3397204E-2,3.7537828E-1,-5.5315924E-1,-1.6692769E-2,3.2173013E-4,-6.0905544E-3,3.5918537E-1,1.3600691E-2,-0E0],"split_indices":[8,3,0,2,10,0,0,0,6,0,0],"split_type":[0,0,0,0,0,0,0,0,0,0,0],"sum_hessian":[1.6789421E1,1.4258757E1,2.5306642E0,8.096825E0,6.1619325E0,6.409327E0,1.6874971E0,2.1525044E0,4.009428E0,2.837664E0,1.171764E0],"tree_param":{"num_deleted":"0","num_feature":"11","num_nodes":"11","size_leaf_vector":"1"}},{"base_weights":[-9.547843E-3,-3.5109898E-1,3.9778936E-1,3.029441E-3,-4.5676145E-1,5.9345764E-1,-3.8719873E-3,-1.3766705E-2,2.175886E-3,1.5248779E-2,-0E0],"categories":[],"categories_nodes":[],"categories_segments":[],"categories_sizes":[],"default_left":[0,0,0,0,0,0,0,0,0,0,0],"id":51,"left_children":[1,3,5,-1,7,9,-1,-1,-1,-1,-1],"loss_changes":[3.605158E0,1.0149485E0,1.7710357E0,0E0,1.3153036E0,3.8990283E-1,0E0,0E0,0E0,0E0,0E0],"parents":[2147483647,0,0,1,1,2,2,4,4,5,5],"right_children":[2,4,6,-1,8,10,-1,-1,-1,-1,-1],"split_conditions":[1.6119838E-1,-1.0496368E0,8.0434054E-1,3.029441E-3,2.949748E-1,1.4238197E0,-3.8719873E-3,-1.3766705E-2,2.175886E-3,1.5248779E-2,-0E0],"split_indices":[3,0,5,0,2,3,0,0,0,0,0],"split_type":[0,0,0,0,0,0,0,0,0,0,0],"sum_hessian":[1.7497528E1,9.977706E0,7.5198216E0,1.4160162E0,8.561689E0,5.584765E0,1.9350568E0,6.6382556E0,1.9234335E0,4.441795E0,1.1429702E0],"tree_param":{"num_deleted":"0","num_feature":"11","num_nodes":"11","size_leaf_vector":"1"}},{"base_weights":[-1.5417711E-2,-3.8522917E-1,4.1463396E-1,-6.3081324E-1,9.128528E-3,-3.3118773E-2,5.6478715E-1,-1.7272508E-2,3.0378497E-4,-9.1456985E-3,7.823662E-3,1.5042904E-2,-0E0],"categories":[],"categories_nodes":[],"categories_segments":[],"categories_sizes":[],"default_left":[0,0,0,0,0,0,0,0,0,0,0,0,0],"id":52,"left_children":[1,3,5,7,-1,9,11,-1,-1,-1,-1,-1,-1],"loss_changes":[3.8902752E0,3.6284676E0,8.929256E-1,1.061657E0,0E0,1.4928529E0,4.9112844E-1,0E0,0E0,0E0,0E0,0E0,0E0],"parents":[2147483647,0,0,1,1,2,2,3,3,5,5,6,6],"right_children":[2,4,6,8,-1,10,12,-1,-1,-1,-1,-1,-1],"split_conditions":[1.6119838E-1,7.34653E-1,-1.16723515E-1,3.7537828E-1,9.128528E-3,-1.5957269E-1,7.9306906E-1,-1.7272508E-2,3.0378497E-4,-9.1456985E-3,7.823662E-3,1.5042904E-2,-0E0],"split_indices":[3,8,1,2,0,2,5,0,0,0,0,0,0],"split_type":[0,0,0,0,0,0,0,0,0,0,0,0,0],"sum_hessian":[1.6027739E1,8.988292E0,7.0394473E0,7.576309E0,1.4119824E0,2.4134052E0,4.6260424E0,5.889189E0,1.6871204E0,1.2255366E0,1.1878686E0,3.452797E0,1.1732454E0],"tree_param":{"num_deleted":"0","num_feature":"11","num_nodes":"13","size_leaf_vector":"1"}},{"base_weights":[5.3439634E-3,-3.9435858E-1,4.597439E-1,-6.078853E-1,7.644308E-3,-3.7634892E-3,1.5619105E-2,-1.5974583E-2,-2.17033E-4],"categories":[],"categories_nodes":[],"categories_segments":[],"categories_sizes":[],"default_left":[0,0,0,0,0,0,0,0,0],"id":53,"left_children":[1,3,5,7,-1,-1,-1,-1,-1],"loss_changes":[4.216838E0,2.7883701E0,2.0497904E0,4.9180317E-1,0E0,0E0,0E0,0E0,0E0],"parents":[2147483647,0,0,1,1,2,2,3,3],"right_children":[2,4,6,8,-1,-1,-1,-1,-1],"split_conditions":[1.3549815E-1,7.34653E-1,-1.16723515E-1,2.2797264E-1,7.644308E-3,-3.7634892E-3,1.5619105E-2,-1.5974583E-2,-2.17033E-4],"split_indices":[3,8,1,0,0,0,0,0,0],"split_type":[0,0,0,0,0,0,0,0,0],"sum_hessian":[1.4750897E1,8.018276E0,6.732622E0,6.853798E0,1.1644778E0,1.9321566E0,4.8004656E0,5.192892E0,1.6609058E0],"tree_param":{"num_deleted":"0","num_feature":"11","num_nodes":"9","size_leaf_vector":"1"}},{"base_weights":[-0E0,2.1800083E-1,-1.1792491E-2,-1.7328198E-1,4.2435744E-1,-9.450605E-3,6.5209228E-3,5.128368E-1,-1.6027394E-3,5.7840985E-1,1.0636739E-3,-0E0,1.5225409E-2],"categories":[],"categories_nodes":[],"categories_segments":[],"categories_sizes":[],"default_left":[0,0,0,0,0,0,0,0,0,0,0,0,0],"id":54,"left_children":[1,3,-1,5,7,-1,-1,9,-1,11,-1,-1,-1],"loss_changes":[2.7187185E0,1.7017298E0,0E0,1.4590442E0,7.4443626E-1,0E0,0E0,1.6394925E-1,0E0,4.95471E-1,0E0,0E0,0E0],"parents":[2147483647,0,0,1,1,3,3,4,4,7,7,9,9],"right_children":[2,4,-1,6,8,-1,-1,10,-1,12,-1,-1,-1],"split_conditions":[1.0573652E0,1.8539831E-1,-1.1792491E-2,-1.8864272E-3,8.864114E-1,-9.450605E-3,6.5209228E-3,6.640298E-1,-1.6027394E-3,-1.1720797E0,1.0636739E-3,-0E0,1.5225409E-2],"split_indices":[4,8,0,1,6,0,0,9,0,6,0,0,0],"split_type":[0,0,0,0,0,0,0,0,0,0,0,0,0],"sum_hessian":[1.5683695E1,1.2682573E1,3.0011213E0,4.432474E0,8.250099E0,3.3386948E0,1.0937793E0,7.048686E0,1.2014138E0,5.089209E0,1.9594767E0,1.147724E0,3.9414852E0],"tree_param":{"num_deleted":"0","num_feature":"11","num_nodes":"13","size_leaf_vector":"1"}},{"base_weights":[-1.9906918E-2,-5.480046E-1,2.5972176E-1,-6.25951E-4,-1.3821255E-2,-1.02885425E-1,4.6346012E-1,5.165802E-3,-3.5143843E-1,5.634385E-1,-1.1746183E-3,-0E0,-9.816594E-3,1.43449465E-2,1.4660145E-4],"categories":[],"categories_nodes":[],"categories_segments":[],"categories_sizes":[],"default_left":[0,0,0,0,0,0,0,0,0,0,0,0,0,0,0],"id":55,"left_children":[1,3,5,-1,-1,7,9,-1,11,13,-1,-1,-1,-1,-1],"loss_changes":[3.4698865E0,9.88543E-2,1.3699222E0,0E0,0E0,1.063675E0,7.3027325E-1,0E0,2.0005494E-1,2.503543E-1,0E0,0E0,0E0,0E0,0E0],"parents":[2147483647,0,0,1,1,2,2,5,5,6,6,8,8,9,9],"right_children":[2,4,6,-1,-1,8,10,-1,12,14,-1,-1,-1,-1,-1],"split_conditions":[-5.206375E-1,-1.3358697E0,-3.090946E-1,-6.25951E-4,-1.3821255E-2,-1.9983016E-1,2.029609E-1,5.165802E-3,-1.0520297E-1,2.5767267E-1,-1.1746183E-3,-0E0,-9.816594E-3,1.43449465E-2,1.4660145E-4],"split_indices":[5,5,10,0,0,1,7,0,7,6,0,0,0,0,0],"split_type":[0,0,0,0,0,0,0,0,0,0,0,0,0,0,0],"sum_hessian":[1.500477E1,3.9264271E0,1.1078343E1,1.1744207E0,2.7520065E0,4.546396E0,6.5319476E0,1.9389789E0,2.6074169E0,5.31079E0,1.2211578E0,1.1529486E0,1.4544681E0,4.1229544E0,1.1878358E0],"tree_param":{"num_deleted":"0","num_feature":"11","num_nodes":"15","size_leaf_vector":"1"}},{"base_weights":[-2.5465902E-2,-4.9100947E-1,4.2963874E-1,-1.568765E-2,3.5528443E-3,-2.0671473E-3,5.403985E-1,-0E0,1.4580196E-2],"categories":[],"categories_nodes":[],"categories_segments":[],"categories_sizes":[],"default_left":[0,0,0,0,0,0,0,0,0],"id":56,"left_children":[1,3,5,-1,-1,-1,7,-1,-1],"loss_changes":[4.718102E0,1.8867977E0,9.02328E-1,0E0,0E0,0E0,4.6906185E-1,0E0,0E0],"parents":[2147483647,0,0,1,1,2,2,6,6],"right_children":[2,4,6,-1,-1,-1,8,-1,-1],"split_conditions":[3.1235802E-1,6.680059E-1,-9.791371E-1,-1.568765E-2,3.5528443E-3,-2.0671473E-3,-2.4384536E-1,-0E0,1.4580196E-2],"split_indices":[5,8,9,0,0,0,2,0,0],"split_type":[0,0,0,0,0,0,0,0,0],"sum_hessian":[1.3820657E1,6.784372E0,7.036285E0,5.148142E0,1.63623E0,1.2018832E0,5.8344016E0,1.6591543E0,4.175247E0],"tree_param":{"num_deleted":"0","num_feature":"11","num_nodes":"9","size_leaf_vector":"1"}},{"base_weights":[9.005282E-3,-5.030191E-1,3.093001E-1,-0E0,-1.4260069E-2,-2.1163575E-1,5.203472E-1,-9.237115E-3,2.5035723E-3,6.664443E-1,-1.5674081E-3,-5.365572E-4,1.7602256E-2],"categories":[],"categories_nodes":[],"categories_segments":[],"categories_sizes":[],"default_left":[0,0,0,0,0,0,0,0,0,0,0,0,0],"id":57,"left_children":[1,3,5,-1,-1,7,9,-1,-1,11,-1,-1,-1],"loss_changes":[3.6841679E0,5.554457E-1,2.1734824E0,0E0,0E0,6.6404307E-1,1.3075211E0,0E0,0E0,8.861942E-1,0E0,0E0,0E0],"parents":[2147483647,0,0,1,1,2,2,5,5,6,6,9,9],"right_children":[2,4,6,-1,-1,8,10,-1,-1,12,-1,-1,-1],"split_conditions":[-4.9223667E-1,-1.1500181E0,2.632314E-1,-0E0,-1.4260069E-2,1.6119838E-1,7.8899944E-1,-9.237115E-3,2.5035723E-3,-1.1720797E0,-1.5674081E-3,-5.365572E-4,1.7602256E-2],"split_indices":[5,5,8,0,0,3,5,0,0,6,0,0,0],"split_type":[0,0,0,0,0,0,0,0,0,0,0,0,0],"sum_hessian":[1.5611158E1,4.5860577E0,1.1025101E1,1.6315107E0,2.954547E0,3.0283864E0,7.996714E0,1.4267671E0,1.6016192E0,6.107931E0,1.8887831E0,1.0748228E0,5.033108E0],"tree_param":{"num_deleted":"0","num_feature":"11","num_nodes":"13","size_leaf_vector":"1"}},{"base_weights":[3.544256E-2,-3.5365847E-1,4.2870212E-1,-1.4122892E-2,1.3975136E-1,-2.746542E-3,5.82274E-1,-4.1531287E-3,8.933976E-3,1.50311785E-2,-0E0],"categories":[],"categories_nodes":[],"categories_segments":[],"categories_sizes":[],"default_left":[0,0,0,0,0,0,0,0,0,0,0],"id":58,"left_children":[1,3,5,-1,7,-1,9,-1,-1,-1,-1],"loss_changes":[3.491337E0,1.9108267E0,1.2954538E0,0E0,9.0865934E-1,0E0,3.9383268E-1,0E0,0E0,0E0,0E0],"parents":[2147483647,0,0,1,1,2,2,4,4,6,6],"right_children":[2,4,6,-1,8,-1,10,-1,-1,-1,-1],"split_conditions":[-1.3320614E-1,6.124068E-1,-6.69074E-1,-1.4122892E-2,-1.9370413E-1,-2.746542E-3,3.5918537E-1,-4.1531287E-3,8.933976E-3,1.50311785E-2,-0E0],"split_indices":[1,8,10,0,2,0,6,0,0,0,0],"split_type":[0,0,0,0,0,0,0,0,0,0,0],"sum_hessian":[1.4367353E1,7.2978034E0,7.0695505E0,4.2124186E0,3.0853848E0,1.594538E0,5.475013E0,1.6734966E0,1.4118881E0,4.3181734E0,1.1568396E0],"tree_param":{"num_deleted":"0","num_feature":"11","num_nodes":"11","size_leaf_vector":"1"}},{"base_weights":[7.7075735E-2,-4.1871274E-1,3.2403457E-1,-0E0,-1.2160585E-2,-1.92386E-1,5.0008404E-1,-9.386097E-3,3.8411075E-3,-1.2541208E-3,5.972544E-1,-0E0,1.5327421E-2],"categories":[],"categories_nodes":[],"categories_segments":[],"categories_sizes":[],"default_left":[0,0,0,0,0,0,0,0,0,0,0,0,0],"id":59,"left_children":[1,3,5,-1,-1,7,9,-1,-1,-1,11,-1,-1],"loss_changes":[2.9299297E0,4.0921068E-1,1.841847E0,0E0,0E0,8.5029966E-1,8.88417E-1,0E0,0E0,0E0,4.8100328E-1,0E0,0E0],"parents":[2147483647,0,0,1,1,2,2,5,5,6,6,10,10],"right_children":[2,4,6,-1,-1,8,10,-1,-1,-1,12,-1,-1],"split_conditions":[-4.9223667E-1,-1.1500181E0,-3.444513E-1,-0E0,-1.2160585E-2,-1.3320614E-1,-6.939188E-1,-9.386097E-3,3.8411075E-3,-1.2541208E-3,-1.1720797E0,-0E0,1.5327421E-2],"split_indices":[5,5,2,0,0,1,8,0,0,0,6,0,0],"split_type":[0,0,0,0,0,0,0,0,0,0,0,0,0],"sum_hessian":[1.5121733E1,3.9077322E0,1.1214001E1,1.6269271E0,2.280805E0,2.5960875E0,8.617913E0,1.4407516E0,1.1553359E0,1.3934273E0,7.224486E0,1.2645087E0,5.959977E0],"tree_param":{"num_deleted":"0","num_feature":"11","num_nodes":"13","size_leaf_vector":"1"}},{"base_weights":[3.380049E-3,-3.1551954E-1,5.559109E-1,-4.7955605E-1,7.4664135E-3,1.4323492E-2,-0E0,3.0227557E-3,-5.871594E-1,-4.6173027E-6,-6.535457E-1,9.948367E-4,-1.755178E-2],"categories":[],"categories_nodes":[],"categories_segments":[],"categories_sizes":[],"default_left":[0,0,0,0,0,0,0,0,0,0,0,0,0],"id":60,"left_children":[1,3,5,7,-1,-1,-1,-1,9,-1,11,-1,-1],"loss_changes":[4.145005E0,2.2263603E0,2.8991127E-1,1.2689993E0,0E0,0E0,0E0,0E0,4.1475248E-1,0E0,1.088479E0,0E0,0E0],"parents":[2147483647,0,0,1,1,2,2,3,3,8,8,10,10],"right_children":[2,4,6,8,-1,-1,-1,-1,10,-1,12,-1,-1],"split_conditions":[1.8838522E-1,7.34653E-1,-1.1703572E-1,-8.712044E-1,7.4664135E-3,1.4323492E-2,-0E0,3.0227557E-3,-1.0496368E0,-4.6173027E-6,-8.0448544E-1,9.948367E-4,-1.755178E-2],"split_indices":[1,8,4,6,0,0,0,0,0,0,4,0,0],"split_type":[0,0,0,0,0,0,0,0,0,0,0,0,0],"sum_hessian":[1.496144E1,1.0509916E1,4.4515247E0,9.352356E0,1.1575596E0,3.3661997E0,1.0853248E0,1.1063141E0,8.246042E0,1.432428E0,6.8136144E0,1.1818374E0,5.631777E0],"tree_param":{"num_deleted":"0","num_feature":"11","num_nodes":"13","size_leaf_vector":"1"}},{"base_weights":[-1.9365413E-2,-5.0603914E-1,2.2287425E-1,-0E0,-1.3267071E-2,-2.7447805E-1,4.3589252E-1,-8.514836E-3,6.789269E-4,-2.7246436E-3,5.4384255E-1,-1.038718E-3,1.5238009E-2],"categories":[],"categories_nodes":[],"categories_segments":[],"categories_sizes":[],"default_left":[0,0,0,0,0,0,0,0,0,0,0,0,0],"id":61,"left_children":[1,3,5,-1,-1,7,9,-1,-1,-1,11,-1,-1],"loss_changes":[2.8544765E0,2.590897E-1,2.2255664E0,0E0,0E0,2.985375E-1,1.0997939E0,0E0,0E0,0E0,1.0435028E0,0E0,0E0],"parents":[2147483647,0,0,1,1,2,2,5,5,6,6,10,10],"right_children":[2,4,6,-1,-1,8,10,-1,-1,-1,12,-1,-1],"split_conditions":[-4.9223667E-1,8.104928E-1,-3.3256117E-1,-0E0,-1.3267071E-2,6.124068E-1,-9.377957E-1,-8.514836E-3,6.789269E-4,-2.7246436E-3,-9.3505836E-1,-1.038718E-3,1.5238009E-2],"split_indices":[5,4,2,0,0,8,9,0,0,0,4,0,0],"split_type":[0,0,0,0,0,0,0,0,0,0,0,0,0],"sum_hessian":[1.5701888E1,3.8394628E0,1.1862425E1,1.1428068E0,2.696656E0,3.0408037E0,8.821622E0,1.8585058E0,1.1822978E0,1.2038655E0,7.617756E0,1.6069366E0,6.0108194E0],"tree_param":{"num_deleted":"0","num_feature":"11","num_nodes":"13","size_leaf_vector":"1"}},{"base_weights":[-6.2397188E-3,-3.5508952E-1,2.143375E-1,-0E0,-1.0905276E-2,4.4345027E-1,-9.059003E-3,-0E0,5.419142E-1,6.0388017E-1,-0E0,1.5511089E-2,4.203799E-4],"categories":[],"categories_nodes":[],"categories_segments":[],"categories_sizes":[],"default_left":[0,0,0,0,0,0,0,0,0,0,0,0,0],"id":62,"left_children":[1,3,5,-1,-1,7,-1,-1,9,11,-1,-1,-1],"loss_changes":[1.7860805E0,4.313873E-1,2.699965E0,0E0,0E0,5.801048E-1,0E0,0E0,2.9266763E-1,2.6170778E-1,0E0,0E0,0E0],"parents":[2147483647,0,0,1,1,2,2,5,5,8,8,9,9],"right_children":[2,4,6,-1,-1,8,-1,-1,10,12,-1,-1,-1],"split_conditions":[-3.0682755E-1,-9.836884E-1,8.0434054E-1,-0E0,-1.0905276E-2,-5.5315924E-1,-9.059003E-3,-0E0,5.406312E-1,6.640298E-1,-0E0,1.5511089E-2,4.203799E-4],"split_indices":[3,3,5,0,0,10,0,0,6,9,0,0,0],"split_type":[0,0,0,0,0,0,0,0,0,0,0,0,0],"sum_hessian":[1.4625485E1,4.8581133E0,9.767372E0,2.132105E0,2.726008E0,8.06626E0,1.7011123E0,2.0829656E0,5.9832945E0,4.799775E0,1.1835192E0,3.5110352E0,1.2887399E0],"tree_param":{"num_deleted":"0","num_feature":"11","num_nodes":"13","size_leaf_vector":"1"}},{"base_weights":[3.977364E-3,3.9303848E-1,-3.452256E-1,-5.605372E-3,1.3881885E-2,-4.8121026E-1,3.3234213E-3,-5.717471E-1,-0E0,-1.5867017E-2,-0E0],"categories":[],"categories_nodes":[],"categories_segments":[],"categories_sizes":[],"default_left":[0,0,0,0,0,0,0,0,0,0,0],"id":63,"left_children":[1,3,5,-1,-1,7,-1,9,-1,-1,-1],"loss_changes":[3.120339E0,2.1583738E0,1.1286057E0,0E0,0E0,4.7273016E-1,0E0,5.899613E-1,0E0,0E0,0E0],"parents":[2147483647,0,0,1,1,2,2,5,5,7,7],"right_children":[2,4,6,-1,-1,8,-1,10,-1,-1,-1],"split_conditions":[4.9808115E-2,-5.758987E-1,7.9928464E-1,-5.605372E-3,1.3881885E-2,6.418159E-1,3.3234213E-3,5.1925516E-1,-0E0,-1.5867017E-2,-0E0],"split_indices":[7,3,6,0,0,3,0,6,0,0,0],"split_type":[0,0,0,0,0,0,0,0,0,0,0],"sum_hessian":[1.4499519E1,6.7536836E0,7.745836E0,1.4103192E0,5.3433647E0,6.2979455E0,1.4478902E0,4.67746E0,1.6204852E0,3.0630364E0,1.614424E0],"tree_param":{"num_deleted":"0","num_feature":"11","num_nodes":"11","size_leaf_vector":"1"}},{"base_weights":[4.5143966E-2,-1.920468E-1,1.3509628E-2,-3.981614E-1,3.2088718E-1,-6.0874766E-1,6.6199168E-3,-0E0,8.65518E-3,-1.6800275E-2,-3.8852412E-2,4.0039723E-3,-5.321798E-3],"categories":[],"categories_nodes":[],"categories_segments":[],"categories_sizes":[],"default_left":[0,0,0,0,0,0,0,0,0,0,0,0,0],"id":64,"left_children":[1,3,-1,5,7,9,-1,-1,-1,-1,11,-1,-1],"loss_changes":[2.960305E0,2.2591782E0,0E0,2.7429361E0,1.13366604E-1,6.4352417E-1,0E0,0E0,0E0,0E0,4.568986E-1,0E0,0E0],"parents":[2147483647,0,0,1,1,3,3,4,4,5,5,10,10],"right_children":[2,4,-1,6,8,10,-1,-1,-1,-1,12,-1,-1],"split_conditions":[7.34653E-1,3.6394194E-1,1.3509628E-2,7.695704E-1,4.8167834E-1,2.908059E-1,6.6199168E-3,-0E0,8.65518E-3,-1.6800275E-2,2.9960036E-1,4.0039723E-3,-5.321798E-3],"split_indices":[8,2,0,10,8,0,0,0,0,0,8,0,0],"split_type":[0,0,0,0,0,0,0,0,0,0,0,0,0],"sum_hessian":[1.4653832E1,1.19757395E1,2.678093E0,9.36575E0,2.609989E0,7.6582274E0,1.7075233E0,1.1164385E0,1.4935504E0,5.1294494E0,2.528778E0,1.1314894E0,1.3972888E0],"tree_param":{"num_deleted":"0","num_feature":"11","num_nodes":"13","size_leaf_vector":"1"}},{"base_weights":[-0E0,-1.9613612E-1,1.2147341E-2,-5.221422E-1,1.992061E-1,1.8273916E-3,-6.326973E-1,-3.0940288E-1,1.333826E-2,-0E0,-1.6386695E-2,-0E0,-8.731801E-3],"categories":[],"categories_nodes":[],"categories_segments":[],"categories_sizes":[],"default_left":[0,0,0,0,0,0,0,0,0,0,0,0,0],"id":65,"left_children":[1,3,-1,5,7,-1,9,11,-1,-1,-1,-1,-1],"loss_changes":[2.4861364E0,2.7054563E0,0E0,9.9159837E-1,2.8824275E0,0E0,5.114646E-1,1.9685167E-1,0E0,0E0,0E0,0E0,0E0],"parents":[2147483647,0,0,1,1,3,3,4,4,6,6,7,7],"right_children":[2,4,-1,6,8,-1,10,12,-1,-1,-1,-1,-1],"split_conditions":[7.34653E-1,-6.473608E-2,1.2147341E-2,-4.319019E-1,-1.0523399E-1,1.8273916E-3,-4.8695683E-1,-1.7234406E-1,1.333826E-2,-0E0,-1.6386695E-2,-0E0,-8.731801E-3],"split_indices":[8,2,0,7,0,0,9,7,0,0,0,0,0],"split_type":[0,0,0,0,0,0,0,0,0,0,0,0,0],"sum_hessian":[1.5346422E1,1.3100515E1,2.245907E0,6.5876727E0,6.5128427E0,1.0530148E0,5.534658E0,3.0289857E0,3.483857E0,1.1352173E0,4.399441E0,1.125395E0,1.9035907E0],"tree_param":{"num_deleted":"0","num_feature":"11","num_nodes":"13","size_leaf_vector":"1"}},{"base_weights":[-1.3666072E-1,2.7837825E-1,-5.0041556E-1,-6.896951E-3,5.18094E-1,-5.6383646E-1,-0E0,2.9662217E-4,1.3283846E-2,-1.7033096E-2,2.0476613E-5,-4.6009114E-3,5.0330306E-3],"categories":[],"categories_nodes":[],"categories_segments":[],"categories_sizes":[],"default_left":[0,0,0,0,0,0,0,0,0,0,0,0,0],"id":66,"left_children":[1,3,5,-1,7,9,-1,-1,-1,-1,11,-1,-1],"loss_changes":[3.4571095E0,2.2623506E0,3.2171273E-1,0E0,2.100792E-1,1.1187413E0,0E0,0E0,0E0,0E0,4.7775102E-1,0E0,0E0],"parents":[2147483647,0,0,1,1,2,2,4,4,5,5,10,10],"right_children":[2,4,6,-1,8,10,-1,-1,-1,-1,12,-1,-1],"split_conditions":[4.9808115E-2,-5.758987E-1,-5.4049026E-2,-6.896951E-3,-5.5315924E-1,-7.957986E-2,-0E0,2.9662217E-4,1.3283846E-2,-1.7033096E-2,1.8539831E-1,-4.6009114E-3,5.0330306E-3],"split_indices":[7,3,1,0,10,2,0,0,0,0,8,0,0],"split_type":[0,0,0,0,0,0,0,0,0,0,0,0,0],"sum_hessian":[1.4631516E1,7.158198E0,7.473319E0,1.6459877E0,5.51221E0,6.0031843E0,1.4701345E0,1.3524811E0,4.159729E0,3.6723895E0,2.3307948E0,1.1508318E0,1.1799631E0],"tree_param":{"num_deleted":"0","num_feature":"11","num_nodes":"13","size_leaf_vector":"1"}},{"base_weights":[1.2547193E-1,-4.2328835E-1,3.7711442E-1,2.7305933E-3,-1.36945415E-2,-6.029536E-3,5.1748157E-1,-8.3658975E-5,5.8856374E-1,6.724594E-1,6.149914E-5,7.5757754E-4,1.6953947E-2],"categories":[],"categories_nodes":[],"categories_segments":[],"categories_sizes":[],"default_left":[0,0,0,0,0,0,0,0,0,0,0,0,0],"id":67,"left_children":[1,3,5,-1,-1,-1,7,-1,9,11,-1,-1,-1],"loss_changes":[3.4827933E0,1.1365063E0,2.071118E0,0E0,0E0,0E0,6.26256E-1,0E0,5.770922E-1,3.1530762E-1,0E0,0E0,0E0],"parents":[2147483647,0,0,1,1,2,2,6,6,8,8,9,9],"right_children":[2,4,6,-1,-1,-1,8,-1,10,12,-1,-1,-1],"split_conditions":[-4.9223667E-1,-1.1500181E0,-5.527266E-1,2.7305933E-3,-1.36945415E-2,-6.029536E-3,-6.939188E-1,-8.3658975E-5,7.9306906E-1,-1.1720797E0,6.149914E-5,7.5757754E-4,1.6953947E-2],"split_indices":[5,5,2,0,0,0,8,0,5,6,0,0,0],"split_type":[0,0,0,0,0,0,0,0,0,0,0,0,0],"sum_hessian":[1.616402E1,4.042992E0,1.212103E1,1.1628468E0,2.880145E0,1.3765936E0,1.0744436E1,1.5881186E0,9.156318E0,7.30353E0,1.8527871E0,1.4589574E0,5.8445725E0],"tree_param":{"num_deleted":"0","num_feature":"11","num_nodes":"13","size_leaf_vector":"1"}},{"base_weights":[1.4456855E-1,-4.20762E-1,4.6932974E-1,-4.821357E-1,-1.1086087E-4,-3.5000837E-3,6.218548E-1,-1.2339359E-2,-3.0569805E-4,1.0996694E-1,1.6096855E-2,-3.3151729E-3,7.01628E-3],"categories":[],"categories_nodes":[],"categories_segments":[],"categories_sizes":[],"default_left":[0,0,0,0,0,0,0,0,0,0,0,0,0],"id":68,"left_children":[1,3,5,7,-1,-1,9,-1,-1,11,-1,-1,-1],"loss_changes":[4.3166094E0,1.6789293E-1,1.7941897E0,1.1255431E-1,0E0,0E0,9.970808E-2,0E0,0E0,5.4865193E-1,0E0,0E0,0E0],"parents":[2147483647,0,0,1,1,2,2,3,3,6,6,9,9],"right_children":[2,4,6,8,-1,-1,10,-1,-1,12,-1,-1,-1],"split_conditions":[-4.5716223E-1,-6.536424E-1,-9.3535507E-1,7.47775E-1,-1.1086087E-4,-3.5000837E-3,-3.9705285E-1,-1.2339359E-2,-3.0569805E-4,3.8358402E-1,1.6096855E-2,-3.3151729E-3,7.01628E-3],"split_indices":[1,1,10,0,0,0,0,0,0,10,0,0,0],"split_type":[0,0,0,0,0,0,0,0,0,0,0,0,0],"sum_hessian":[1.4728873E1,4.7982373E0,9.930635E0,3.3706803E0,1.4275573E0,1.8141465E0,8.116489E0,2.2376835E0,1.1329968E0,2.653786E0,5.462703E0,1.4004017E0,1.2533842E0],"tree_param":{"num_deleted":"0","num_feature":"11","num_nodes":"13","size_leaf_vector":"1"}},{"base_weights":[-1.3966809E-1,-4.2685142E-1,3.353416E-1,-6.5121406E-1,7.9049E-3,-2.9735381E-3,1.1533948E-2,-1.6670454E-2,-3.4758795E-4],"categories":[],"categories_nodes":[],"categories_segments":[],"categories_sizes":[],"default_left":[0,0,0,0,0,0,0,0,0],"id":69,"left_children":[1,3,5,7,-1,-1,-1,-1,-1],"loss_changes":[3.1174302E0,3.3089948E0,1.0324773E0,4.6010494E-1,0E0,0E0,0E0,0E0,0E0],"parents":[2147483647,0,0,1,1,2,2,3,3],"right_children":[2,4,6,8,-1,-1,-1,-1,-1],"split_conditions":[2.908059E-1,8.1863445E-1,-3.3256117E-1,1.8838522E-1,7.9049E-3,-2.9735381E-3,1.1533948E-2,-1.6670454E-2,-3.4758795E-4],"split_indices":[0,10,2,1,0,0,0,0,0],"split_type":[0,0,0,0,0,0,0,0,0],"sum_hessian":[1.4137315E1,9.21824E0,4.9190755E0,7.762658E0,1.4555815E0,1.394988E0,3.5240874E0,6.2281747E0,1.5344837E0],"tree_param":{"num_deleted":"0","num_feature":"11","num_nodes":"9","size_leaf_vector":"1"}},{"base_weights":[-2.7218929E-2,3.4857482E-1,-3.303246E-1,1.2809479E-2,-5.8386507E-3,-4.551647E-1,2.6804246E-3,-5.6147444E-1,-0E0,-1.5156191E-2,-0E0],"categories":[],"categories_nodes":[],"categories_segments":[],"categories_sizes":[],"default_left":[0,0,0,0,0,0,0,0,0,0,0],"id":70,"left_children":[1,3,5,-1,-1,7,-1,9,-1,-1,-1],"loss_changes":[2.5461705E0,1.9053926E0,9.5079327E-1,0E0,0E0,4.9568057E-1,0E0,4.444325E-1,0E0,0E0,0E0],"parents":[2147483647,0,0,1,1,2,2,5,5,7,7],"right_children":[2,4,6,-1,-1,8,-1,10,-1,-1,-1],"split_conditions":[4.9808115E-2,5.551895E-1,7.9928464E-1,1.2809479E-2,-5.8386507E-3,6.822226E-2,2.6804246E-3,-1.66666E-1,-0E0,-1.5156191E-2,-0E0],"split_indices":[7,6,6,0,0,10,0,2,0,0,0],"split_type":[0,0,0,0,0,0,0,0,0,0,0],"sum_hessian":[1.3889711E1,5.760317E0,8.129395E0,4.62866E0,1.1316569E0,6.486837E0,1.6425579E0,4.3893623E0,2.0974748E0,2.986531E0,1.4028312E0],"tree_param":{"num_deleted":"0","num_feature":"11","num_nodes":"11","size_leaf_vector":"1"}},{"base_weights":[3.0285964E-2,-4.44772E-1,3.8384166E-1,-1.3728463E-2,1.678331E-3,-4.5485054E-3,5.513925E-1,-5.8318634E-4,1.509672E-2],"categories":[],"categories_nodes":[],"categories_segments":[],"categories_sizes":[],"default_left":[0,0,0,0,0,0,0,0,0],"id":71,"left_children":[1,3,5,-1,-1,-1,7,-1,-1],"loss_changes":[3.7913647E0,1.0160748E0,1.7590952E0,0E0,0E0,0E0,8.422811E-1,0E0,0E0],"parents":[2147483647,0,0,1,1,2,2,6,6],"right_children":[2,4,6,-1,-1,-1,8,-1,-1],"split_conditions":[-3.0682755E-1,4.8167834E-1,-3.3256117E-1,-1.3728463E-2,1.678331E-3,-4.5485054E-3,-6.544547E-1,-5.8318634E-4,1.509672E-2],"split_indices":[3,8,2,0,0,0,1,0,0],"split_type":[0,0,0,0,0,0,0,0,0],"sum_hessian":[1.4107643E1,5.4253526E0,8.68229E0,3.8248746E0,1.6004783E0,1.6208549E0,7.061435E0,1.4657435E0,5.5956917E0],"tree_param":{"num_deleted":"0","num_feature":"11","num_nodes":"9","size_leaf_vector":"1"}},{"base_weights":[-1.2061832E-1,3.103247E-1,-5.076635E-1,-1.489201E-1,1.310332E-2,-6.141259E-1,1.3983338E-3,-7.729548E-3,2.4837672E-3,4.5114287E-4,-1.6411511E-2],"categories":[],"categories_nodes":[],"categories_segments":[],"categories_sizes":[],"default_left":[0,0,0,0,0,0,0,0,0,0,0],"id":72,"left_children":[1,3,5,7,-1,9,-1,-1,-1,-1,-1],"loss_changes":[3.6442769E0,1.7144009E0,8.8841176E-1,5.265409E-1,0E0,7.7764606E-1,0E0,0E0,0E0,0E0,0E0],"parents":[2147483647,0,0,1,1,2,2,3,3,5,5],"right_children":[2,4,6,8,-1,10,-1,-1,-1,-1,-1],"split_conditions":[1.2806918E-1,2.632314E-1,7.3374736E-1,3.0159185E-2,1.310332E-2,-8.0448544E-1,1.3983338E-3,-7.729548E-3,2.4837672E-3,4.5114287E-4,-1.6411511E-2],"split_indices":[7,8,8,3,0,4,0,0,0,0,0],"split_type":[0,0,0,0,0,0,0,0,0,0,0],"sum_hessian":[1.352048E1,6.6614704E0,6.85901E0,2.932647E0,3.7288232E0,5.653444E0,1.2055664E0,1.1748185E0,1.7578286E0,1.1183637E0,4.53508E0],"tree_param":{"num_deleted":"0","num_feature":"11","num_nodes":"11","size_leaf_vector":"1"}},{"base_weights":[2.060574E-3,2.4690405E-1,-1.074151E-2,-3.0167304E-2,1.278305E-2,-2.7418083E-1,2.9631633E-1,-1.120491E-2,5.333851E-3,8.15425E-3,-0E0],"categories":[],"categories_nodes":[],"categories_segments":[],"categories_sizes":[],"default_left":[0,0,0,0,0,0,0,0,0,0,0],"id":73,"left_children":[1,3,-1,5,-1,7,9,-1,-1,-1,-1],"loss_changes":[2.5905938E0,1.4257954E0,0E0,1.278541E0,0E0,1.5042892E0,1.3168287E-1,0E0,0E0,0E0,0E0],"parents":[2147483647,0,0,1,1,3,3,5,5,6,6],"right_children":[2,4,-1,6,-1,8,10,-1,-1,-1,-1],"split_conditions":[5.121612E-1,2.2797264E-1,-1.074151E-2,3.5366382E-2,1.278305E-2,2.8898025E-1,-2.8501824E-1,-1.120491E-2,5.333851E-3,8.15425E-3,-0E0],"split_indices":[7,0,0,1,0,7,7,0,0,0,0],"split_type":[0,0,0,0,0,0,0,0,0,0,0],"sum_hessian":[1.4206012E1,1.0820687E1,3.385325E0,7.5599313E0,3.2607558E0,4.901672E0,2.6582594E0,3.693407E0,1.2082647E0,1.5784978E0,1.0797617E0],"tree_param":{"num_deleted":"0","num_feature":"11","num_nodes":"11","size_leaf_vector":"1"}},{"base_weights":[3.868737E-3,-2.633215E-1,3.5668054E-1,-4.4792607E-1,4.2732164E-2,-4.4369134E-3,1.2633939E-2,-1.8594817E-4,-1.1454676E-2,8.246098E-3,-7.5083105E-3],"categories":[],"categories_nodes":[],"categories_segments":[],"categories_sizes":[],"default_left":[0,0,0,0,0,0,0,0,0,0,0],"id":74,"left_children":[1,3,5,7,9,-1,-1,-1,-1,-1,-1],"loss_changes":[2.009487E0,7.984304E-1,1.4884616E0,1.13342404E-1,1.4574358E0,0E0,0E0,0E0,0E0,0E0,0E0],"parents":[2147483647,0,0,1,1,2,2,3,3,4,4],"right_children":[2,4,6,8,10,-1,-1,-1,-1,-1,-1],"split_conditions":[-5.4049026E-2,4.7322205E-1,-5.8684456E-1,-6.2533015E-1,6.8126553E-1,-4.4369134E-3,1.2633939E-2,-1.8594817E-4,-1.1454676E-2,8.246098E-3,-7.5083105E-3],"split_indices":[1,8,3,10,9,0,0,0,0,0,0],"split_type":[0,0,0,0,0,0,0,0,0,0,0],"sum_hessian":[1.2790581E1,7.7136726E0,5.0769076E0,3.8113048E0,3.9023678E0,1.1925724E0,3.8843355E0,1.1436534E0,2.6676514E0,2.322845E0,1.5795228E0],"tree_param":{"num_deleted":"0","num_feature":"11","num_nodes":"11","size_leaf_vector":"1"}},{"base_weights":[1.0449738E-2,-3.2761273E-1,4.1521564E-1,-5.528706E-1,8.305835E-3,-2.0048814E-3,1.1956977E-2,-6.588544E-1,7.494561E-5,-1.6816368E-2,-6.261889E-4],"categories":[],"categories_nodes":[],"categories_segments":[],"categories_sizes":[],"default_left":[0,0,0,0,0,0,0,0,0,0,0],"id":75,"left_children":[1,3,5,7,-1,-1,-1,9,-1,-1,-1],"loss_changes":[3.2234166E0,2.845776E0,8.205428E-1,7.506678E-1,0E0,0E0,0E0,2.9936075E-1,0E0,0E0,0E0],"parents":[2147483647,0,0,1,1,2,2,3,3,7,7],"right_children":[2,4,6,8,-1,-1,-1,10,-1,-1,-1],"split_conditions":[1.6119838E-1,7.34653E-1,-3.3256117E-1,3.7537828E-1,8.305835E-3,-2.0048814E-3,1.1956977E-2,9.2336977E-1,7.494561E-5,-1.6816368E-2,-6.261889E-4],"split_indices":[3,8,2,2,0,0,0,6,0,0,0],"split_type":[0,0,0,0,0,0,0,0,0,0,0],"sum_hessian":[1.5077602E1,8.508953E0,6.5686493E0,7.166899E0,1.3420541E0,1.1120514E0,5.456598E0,5.5280094E0,1.6388899E0,4.169126E0,1.3588829E0],"tree_param":{"num_deleted":"0","num_feature":"11","num_nodes":"11","size_leaf_vector":"1"}},{"base_weights":[1.7639117E-2,-4.038802E-1,2.4752545E-1,2.9678471E-5,-1.1311006E-2,-2.2661701E-1,5.0870585E-1,-7.8995405E-3,3.4643695E-4,1.4512755E-2,-5.867814E-4],"categories":[],"categories_nodes":[],"categories_segments":[],"categories_sizes":[],"default_left":[0,0,0,0,0,0,0,0,0,0,0],"id":76,"left_children":[1,3,5,-1,-1,7,9,-1,-1,-1,-1],"loss_changes":[2.0825293E0,3.3162653E-1,2.2482529E0,0E0,0E0,2.7913338E-1,8.3426094E-1,0E0,0E0,0E0,0E0],"parents":[2147483647,0,0,1,1,2,2,5,5,6,6],"right_children":[2,4,6,-1,-1,8,10,-1,-1,-1,-1],"split_conditions":[-4.9223667E-1,-1.1500181E0,-3.090946E-1,2.9678471E-5,-1.1311006E-2,-6.498066E-1,3.2050824E-1,-7.8995405E-3,3.4643695E-4,1.4512755E-2,-5.867814E-4],"split_indices":[5,5,10,0,0,4,7,0,0,0,0],"split_type":[0,0,0,0,0,0,0,0,0,0,0],"sum_hessian":[1.3096123E1,3.330006E0,9.766117E0,1.1462677E0,2.1837385E0,3.5207472E0,6.24537E0,1.4518461E0,2.068901E0,4.5855303E0,1.6598394E0],"tree_param":{"num_deleted":"0","num_feature":"11","num_nodes":"11","size_leaf_vector":"1"}},{"base_weights":[4.793515E-2,-1.6947645E-1,1.3156484E-2,-4.987623E-1,2.2665454E-1,-5.485139E-1,-1.797122E-5,4.264668E-1,-4.4510267E-3,-0E0,-1.4580255E-2,1.1339702E-2,-0E0],"categories":[],"categories_nodes":[],"categories_segments":[],"categories_sizes":[],"default_left":[0,0,0,0,0,0,0,0,0,0,0,0,0],"id":77,"left_children":[1,3,-1,5,7,9,-1,11,-1,-1,-1,-1,-1],"loss_changes":[2.700701E0,2.723033E0,0E0,2.0533967E-1,1.2553172E0,4.3716383E-1,0E0,2.818241E-1,0E0,0E0,0E0,0E0,0E0],"parents":[2147483647,0,0,1,1,3,3,4,4,5,5,7,7],"right_children":[2,4,-1,6,8,10,-1,12,-1,-1,-1,-1,-1],"split_conditions":[7.3374736E-1,1.6119838E-1,1.3156484E-2,9.2336977E-1,8.0434054E-1,3.0532032E-1,-1.797122E-5,1.4238197E0,-4.4510267E-3,-0E0,-1.4580255E-2,1.1339702E-2,-0E0],"split_indices":[8,3,0,6,5,4,0,3,0,0,0,0,0],"split_type":[0,0,0,0,0,0,0,0,0,0,0,0,0],"sum_hessian":[1.5396015E1,1.2778499E1,2.6175158E0,6.529641E0,6.248858E0,5.3509436E0,1.1786973E0,4.3746862E0,1.874172E0,1.393997E0,3.9569466E0,3.299668E0,1.0750179E0],"tree_param":{"num_deleted":"0","num_feature":"11","num_nodes":"13","size_leaf_vector":"1"}},{"base_weights":[-9.850398E-2,-3.198837E-1,1.0179777E-2,-4.8243168E-1,8.082487E-2,-5.848739E-1,2.1789926E-3,8.864642E-3,-5.5810623E-3,-6.665038E-1,-3.1536023E-4,-0E0,-1.7051691E-2],"categories":[],"categories_nodes":[],"categories_segments":[],"categories_sizes":[],"default_left":[0,0,0,0,0,0,0,0,0,0,0,0,0],"id":78,"left_children":[1,3,-1,5,7,9,-1,-1,-1,11,-1,-1,-1],"loss_changes":[2.7649648E0,1.2149228E0,0E0,9.855895E-1,1.1978087E0,3.9011478E-1,0E0,0E0,0E0,4.1032505E-1,0E0,0E0,0E0],"parents":[2147483647,0,0,1,1,3,3,4,4,5,5,9,9],"right_children":[2,4,-1,6,8,10,-1,-1,-1,12,-1,-1,-1],"split_conditions":[7.340884E-1,2.908059E-1,1.0179777E-2,8.1863445E-1,1.2806918E-1,6.124068E-1,2.1789926E-3,8.864642E-3,-5.5810623E-3,-1.2184412E0,-3.1536023E-4,-0E0,-1.7051691E-2],"split_indices":[8,0,0,10,7,8,0,0,0,8,0,0,0],"split_type":[0,0,0,0,0,0,0,0,0,0,0,0,0],"sum_hessian":[1.38984375E1,1.1246698E1,2.6517391E0,7.580173E0,3.6665254E0,6.5515375E0,1.0286354E0,1.6382276E0,2.028298E0,4.950892E0,1.600646E0,1.0881288E0,3.862763E0],"tree_param":{"num_deleted":"0","num_feature":"11","num_nodes":"13","size_leaf_vector":"1"}},{"base_weights":[-0E0,-4.145978E-1,2.5797E-1,-1.1503476E-2,3.4112693E-4,4.3586418E-1,-8.41768E-3,-6.963387E-2,5.697128E-1,-5.2198702E-3,2.910864E-3,1.5481696E-2,4.195024E-5],"categories":[],"categories_nodes":[],"categories_segments":[],"categories_sizes":[],"default_left":[0,0,0,0,0,0,0,0,0,0,0,0,0],"id":79,"left_children":[1,3,5,-1,-1,7,-1,9,11,-1,-1,-1,-1],"loss_changes":[2.5024967E0,4.2170453E-1,2.297762E0,0E0,0E0,1.1249146E0,0E0,3.3219108E-1,5.9896994E-1,0E0,0E0,0E0,0E0],"parents":[2147483647,0,0,1,1,2,2,5,5,7,7,8,8],"right_children":[2,4,6,-1,-1,8,-1,10,12,-1,-1,-1,-1],"split_conditions":[-4.6774283E-1,6.680059E-1,9.7529304E-1,-1.1503476E-2,3.4112693E-4,-4.9364308E-1,-8.41768E-3,4.729167E-1,2.029609E-1,-5.2198702E-3,2.910864E-3,1.5481696E-2,4.195024E-5],"split_indices":[1,8,6,0,0,8,0,1,7,0,0,0,0],"split_type":[0,0,0,0,0,0,0,0,0,0,0,0,0],"sum_hessian":[1.50127945E1,4.7253633E0,1.0287432E1,3.535384E0,1.1899792E0,9.140167E0,1.1472641E0,2.1688128E0,6.971355E0,1.1337751E0,1.0350376E0,5.032334E0,1.9390209E0],"tree_param":{"num_deleted":"0","num_feature":"11","num_nodes":"13","size_leaf_vector":"1"}},{"base_weights":[-1.0209253E-2,-3.8898683E-1,3.332344E-1,1.547279E-3,-4.9465603E-1,4.5912623E-1,-2.4138174E-3,-1.2846078E-2,-4.912319E-4,-2.6515062E-4,1.3322465E-2],"categories":[],"categories_nodes":[],"categories_segments":[],"categories_sizes":[],"default_left":[0,0,0,0,0,0,0,0,0,0,0],"id":80,"left_children":[1,3,5,-1,7,9,-1,-1,-1,-1,-1],"loss_changes":[2.9471958E0,7.103393E-1,8.9258635E-1,0E0,1.8570065E-1,6.7545056E-1,0E0,0E0,0E0,0E0,0E0],"parents":[2147483647,0,0,1,1,2,2,4,4,5,5],"right_children":[2,4,6,-1,8,10,-1,-1,-1,-1,-1],"split_conditions":[3.1235802E-1,-1.1500181E0,8.0434054E-1,1.547279E-3,2.2797264E-1,3.0159185E-2,-2.4138174E-3,-1.2846078E-2,-4.912319E-4,-2.6515062E-4,1.3322465E-2],"split_indices":[5,5,5,0,0,3,0,0,0,0,0],"split_type":[0,0,0,0,0,0,0,0,0,0,0],"sum_hessian":[1.418911E1,6.630495E0,7.5586143E0,1.3404027E0,5.2900925E0,5.9109726E0,1.6476415E0,3.751528E0,1.5385643E0,1.8325758E0,4.078397E0],"tree_param":{"num_deleted":"0","num_feature":"11","num_nodes":"11","size_leaf_vector":"1"}},{"base_weights":[-2.6344143E-2,-3.2854483E-1,4.7371453E-1,-5.828086E-1,7.143552E-2,-0E0,1.2470792E-2,-1.1311783E-3,-1.5238628E-2,-2.6425013E-1,9.011612E-3,-8.87597E-3,1.1681546E-3],"categories":[],"categories_nodes":[],"categories_segments":[],"categories_sizes":[],"default_left":[0,0,0,0,0,0,0,0,0,0,0,0,0],"id":81,"left_children":[1,3,5,7,9,-1,-1,-1,-1,11,-1,-1,-1],"loss_changes":[3.359521E0,1.6379896E0,2.3724866E-1,1.8586874E-1,1.4229568E0,0E0,0E0,0E0,0E0,3.8259277E-1,0E0,0E0,0E0],"parents":[2147483647,0,0,1,1,2,2,3,3,4,4,9,9],"right_children":[2,4,6,8,10,-1,-1,-1,-1,12,-1,-1,-1],"split_conditions":[1.4289829E-1,-6.473608E-2,-1.2953901E0,-1.0523399E-1,2.2797264E-1,-0E0,1.2470792E-2,-1.1311783E-3,-1.5238628E-2,2.0875145E-1,9.011612E-3,-8.87597E-3,1.1681546E-3],"split_indices":[1,2,7,0,0,0,0,0,0,9,0,0,0],"split_type":[0,0,0,0,0,0,0,0,0,0,0,0,0],"sum_hessian":[1.3773252E1,9.620841E0,4.152411E0,4.8676996E0,4.753141E0,1.2413824E0,2.9110286E0,1.73437E0,3.1333296E0,2.5359778E0,2.217163E0,1.3711044E0,1.1648735E0],"tree_param":{"num_deleted":"0","num_feature":"11","num_nodes":"13","size_leaf_vector":"1"}},{"base_weights":[-4.3621603E-2,-4.368891E-1,1.7795908E-1,-1.1193498E-2,-7.4500094E-5,-1.8513627E-1,3.9972103E-1,-9.617155E-3,4.973987E-3,-1.1604484E-3,4.8848903E-1,1.2888354E-2,-0E0],"categories":[],"categories_nodes":[],"categories_segments":[],"categories_sizes":[],"default_left":[0,0,0,0,0,0,0,0,0,0,0,0,0],"id":82,"left_children":[1,3,5,-1,-1,7,9,-1,-1,-1,11,-1,-1],"loss_changes":[1.9414251E0,1.1992824E-1,1.4995837E0,0E0,0E0,1.1804177E0,5.712248E-1,0E0,0E0,0E0,3.2022047E-1,0E0,0E0],"parents":[2147483647,0,0,1,1,2,2,5,5,6,6,10,10],"right_children":[2,4,6,-1,-1,8,10,-1,-1,-1,12,-1,-1],"split_conditions":[-6.544547E-1,7.9347193E-1,-2.7434665E-1,-1.1193498E-2,-7.4500094E-5,3.3954844E-1,-4.1704917E-1,-9.617155E-3,4.973987E-3,-1.1604484E-3,7.6190084E-1,1.2888354E-2,-0E0],"split_indices":[1,0,2,0,0,4,5,0,0,0,5,0,0],"split_type":[0,0,0,0,0,0,0,0,0,0,0,0,0],"sum_hessian":[1.3978968E1,3.73588E0,1.0243088E1,2.633338E0,1.1025422E0,3.9640307E0,6.279057E0,2.5544653E0,1.4095656E0,1.132017E0,5.1470404E0,3.8425312E0,1.3045089E0],"tree_param":{"num_deleted":"0","num_feature":"11","num_nodes":"13","size_leaf_vector":"1"}},{"base_weights":[2.0334448E-3,-3.187711E-1,3.2468662E-1,-4.4719258E-1,3.6310449E-3,-1.638723E-1,1.1835574E-2,-5.11309E-1,-0E0,-7.6859975E-3,2.8265247E-3,-2.7059086E-4,-1.2829696E-2],"categories":[],"categories_nodes":[],"categories_segments":[],"categories_sizes":[],"default_left":[0,0,0,0,0,0,0,0,0,0,0,0,0],"id":83,"left_children":[1,3,5,7,-1,9,-1,11,-1,-1,-1,-1,-1],"loss_changes":[2.4284158E0,1.0418192E0,1.5085825E0,3.477857E-1,0E0,5.133172E-1,0E0,1.3888955E-1,0E0,0E0,0E0,0E0,0E0],"parents":[2147483647,0,0,1,1,2,2,3,3,5,5,7,7],"right_children":[2,4,6,8,-1,10,-1,12,-1,-1,-1,-1,-1],"split_conditions":[-1.3605766E-1,7.340884E-1,-4.9364308E-1,9.2336977E-1,3.6310449E-3,1.8838522E-1,1.1835574E-2,-8.9575714E-1,-0E0,-7.6859975E-3,2.8265247E-3,-2.7059086E-4,-1.2829696E-2],"split_indices":[1,8,8,6,0,1,0,10,0,0,0,0,0],"split_type":[0,0,0,0,0,0,0,0,0,0,0,0,0],"sum_hessian":[1.5020061E1,7.389821E0,7.63024E0,6.2111235E0,1.1786971E0,2.173494E0,5.456746E0,5.0899496E0,1.1211742E0,1.1497755E0,1.0237186E0,1.1205223E0,3.969427E0],"tree_param":{"num_deleted":"0","num_feature":"11","num_nodes":"13","size_leaf_vector":"1"}},{"base_weights":[-2.1799924E-2,-2.3815584E-1,1.2269083E-2,-4.8128706E-1,3.1724712E-1,-5.5683905E-1,3.0276514E-4,8.648662E-3,-0E0,-0E0,-6.355277E-1,-5.5572466E-4,-1.6401766E-2],"categories":[],"categories_nodes":[],"categories_segments":[],"categories_sizes":[],"default_left":[0,0,0,0,0,0,0,0,0,0,0,0,0],"id":84,"left_children":[1,3,-1,5,7,9,-1,-1,-1,-1,11,-1,-1],"loss_changes":[2.8512015E0,2.9653287E0,0E0,6.005137E-1,1.6879004E-1,6.003854E-1,0E0,0E0,0E0,0E0,3.8202953E-1,0E0,0E0],"parents":[2147483647,0,0,1,1,3,3,4,4,5,5,10,10],"right_children":[2,4,-1,6,8,10,-1,-1,-1,-1,12,-1,-1],"split_conditions":[7.34653E-1,5.7124686E-1,1.2269083E-2,1.2216688E0,1.4238197E0,-1.0496368E0,3.0276514E-4,8.648662E-3,-0E0,-0E0,-8.9575714E-1,-5.5572466E-4,-1.6401766E-2],"split_indices":[8,3,0,0,3,0,0,0,0,0,10,0,0],"split_type":[0,0,0,0,0,0,0,0,0,0,0,0,0],"sum_hessian":[1.5214517E1,1.28424425E1,2.3720741E0,9.458487E0,3.3839562E0,7.9325776E0,1.5259088E0,2.3251061E0,1.05885E0,1.3360119E0,6.5965657E0,1.5680361E0,5.0285296E0],"tree_param":{"num_deleted":"0","num_feature":"11","num_nodes":"13","size_leaf_vector":"1"}},{"base_weights":[2.3969457E-2,-3.8138297E-1,3.5376823E-1,-1.1626939E-2,-0E0,-4.3422133E-3,5.182895E-1,-3.6655734E-3,4.000293E-3,1.5110019E-2,-0E0,-4.99388E-3,5.3243684E-3],"categories":[],"categories_nodes":[],"categories_segments":[],"categories_sizes":[],"default_left":[0,0,0,0,0,0,0,0,0,0,0,0,0],"id":85,"left_children":[1,3,5,-1,7,-1,9,-1,-1,-1,11,-1,-1],"loss_changes":[2.91368E0,5.0912774E-1,1.5244287E0,0E0,3.0101657E-1,0E0,7.1935034E-1,0E0,0E0,0E0,5.4974556E-1,0E0,0E0],"parents":[2147483647,0,0,1,1,2,2,4,4,6,6,10,10],"right_children":[2,4,6,-1,8,-1,10,-1,-1,-1,12,-1,-1],"split_conditions":[2.632314E-1,1.6119838E-1,-3.931537E-1,-1.1626939E-2,-3.8387913E-1,-4.3422133E-3,1.8449923E-1,-3.6655734E-3,4.000293E-3,1.5110019E-2,-2.591665E-2,-4.99388E-3,5.3243684E-3],"split_indices":[8,3,2,0,10,0,7,0,0,0,6,0,0],"split_type":[0,0,0,0,0,0,0,0,0,0,0,0,0],"sum_hessian":[1.3343263E1,5.543658E0,7.7996054E0,3.2600029E0,2.2836552E0,1.510633E0,6.288972E0,1.1516073E0,1.1320478E0,3.9117174E0,2.3772547E0,1.1849833E0,1.1922715E0],"tree_param":{"num_deleted":"0","num_feature":"11","num_nodes":"13","size_leaf_vector":"1"}},{"base_weights":[-6.558023E-3,-2.504698E-1,1.0255927E-2,-4.2162186E-1,6.957582E-3,-1.3195971E-2,9.431277E-2,-4.9595544E-3,7.932115E-3],"categories":[],"categories_nodes":[],"categories_segments":[],"categories_sizes":[],"default_left":[0,0,0,0,0,0,0,0,0],"id":86,"left_children":[1,3,-1,5,-1,-1,7,-1,-1],"loss_changes":[2.6623836E0,2.055487E0,0E0,1.4005027E0,0E0,0E0,8.558794E-1,0E0,0E0],"parents":[2147483647,0,0,1,1,3,3,6,6],"right_children":[2,4,-1,6,-1,-1,8,-1,-1],"split_conditions":[1.8838522E-1,7.34653E-1,1.0255927E-2,2.949748E-1,6.957582E-3,-1.3195971E-2,3.577399E-2,-4.9595544E-3,7.932115E-3],"split_indices":[1,8,0,2,0,0,8,0,0],"split_type":[0,0,0,0,0,0,0,0,0],"sum_hessian":[1.5718293E1,1.1615843E1,4.1024504E0,9.795872E0,1.8199704E0,7.3148518E0,2.4810205E0,1.1861105E0,1.2949098E0],"tree_param":{"num_deleted":"0","num_feature":"11","num_nodes":"9","size_leaf_vector":"1"}},{"base_weights":[-8.4585715E-3,-2.8006455E-1,2.894549E-1,-1.14002E-2,5.1921237E-2,-6.846225E-3,1.1250673E-2,-6.135197E-3,2.706285E-1,9.8698605E-3,-2.1139006E-3],"categories":[],"categories_nodes":[],"categories_segments":[],"categories_sizes":[],"default_left":[0,0,0,0,0,0,0,0,0,0,0],"id":87,"left_children":[1,3,5,-1,7,-1,-1,-1,9,-1,-1],"loss_changes":[1.9080375E0,1.0587978E0,1.9627967E0,0E0,9.053329E-1,0E0,0E0,0E0,6.346008E-1,0E0,0E0],"parents":[2147483647,0,0,1,1,2,2,4,4,8,8],"right_children":[2,4,6,-1,8,-1,-1,-1,10,-1,-1],"split_conditions":[4.923516E-1,1.6119838E-1,-4.9913976E-1,-1.14002E-2,-5.5315924E-1,-6.846225E-3,1.1250673E-2,-6.135197E-3,7.9306906E-1,9.8698605E-3,-2.1139006E-3],"split_indices":[8,3,2,0,10,0,0,0,5,0,0],"split_type":[0,0,0,0,0,0,0,0,0,0,0],"sum_hessian":[1.5150242E1,8.246155E0,6.9040866E0,3.900703E0,4.3454523E0,1.1103215E0,5.793765E0,1.1786623E0,3.1667898E0,1.8520509E0,1.3147389E0],"tree_param":{"num_deleted":"0","num_feature":"11","num_nodes":"11","size_leaf_vector":"1"}},{"base_weights":[1.7481092E-2,2.6288933E-1,-9.935731E-3,-1.2707463E-1,4.3413895E-1,-8.161811E-3,4.658887E-3,-4.2973757E-3,5.964288E-1,1.6349217E-2,-9.844839E-4],"categories":[],"categories_nodes":[],"categories_segments":[],"categories_sizes":[],"default_left":[0,0,0,0,0,0,0,0,0,0,0],"id":88,"left_children":[1,3,-1,5,7,-1,-1,-1,9,-1,-1],"loss_changes":[2.4136362E0,1.2131747E0,0E0,8.838278E-1,1.6268356E0,0E0,0E0,0E0,9.452512E-1,0E0,0E0],"parents":[2147483647,0,0,1,1,3,3,4,4,8,8],"right_children":[2,4,-1,6,8,-1,-1,-1,10,-1,-1],"split_conditions":[8.104928E-1,-2.4384536E-1,-9.935731E-3,-3.090946E-1,-6.544547E-1,-8.161811E-3,4.658887E-3,-4.2973757E-3,6.297049E-1,1.6349217E-2,-9.844839E-4],"split_indices":[4,2,0,10,1,0,0,0,4,0,0],"split_type":[0,0,0,0,0,0,0,0,0,0,0],"sum_hessian":[1.3388769E1,9.969947E0,3.4188216E0,3.1824863E0,6.787461E0,1.8753469E0,1.3071395E0,1.1307365E0,5.6567245E0,4.502781E0,1.1539433E0],"tree_param":{"num_deleted":"0","num_feature":"11","num_nodes":"11","size_leaf_vector":"1"}},{"base_weights":[-0E0,-3.5522327E-1,2.781096E-1,-1.3149971E-2,4.7777385E-2,4.615627E-1,-4.8665106E-3,-7.6250066E-3,9.059131E-3,1.4102558E-2,-7.962154E-3,3.5609612E-3,-4.3043653E-3],"categories":[],"categories_nodes":[],"categories_segments":[],"categories_sizes":[],"default_left":[0,0,0,0,0,0,0,0,0,0,0,0,0],"id":89,"left_children":[1,3,5,-1,7,9,-1,-1,-1,-1,11,-1,-1],"loss_changes":[2.2480388E0,1.0588439E0,1.5834116E0,0E0,1.524217E0,8.643787E-1,0E0,0E0,0E0,0E0,3.225797E-1,0E0,0E0],"parents":[2147483647,0,0,1,1,2,2,4,4,5,5,10,10],"right_children":[2,4,6,-1,8,10,-1,-1,-1,-1,12,-1,-1],"split_conditions":[2.632314E-1,1.6119838E-1,5.121612E-1,-1.3149971E-2,-3.090946E-1,6.640298E-1,-4.8665106E-3,-7.6250066E-3,9.059131E-3,1.4102558E-2,-1.8598458E-2,3.5609612E-3,-4.3043653E-3],"split_indices":[8,3,7,0,10,9,0,0,0,0,7,0,0],"split_type":[0,0,0,0,0,0,0,0,0,0,0,0,0],"sum_hessian":[1.4294013E1,5.816611E0,8.477402E0,2.7783175E0,3.0382931E0,6.5123396E0,1.9650624E0,1.3889557E0,1.6493375E0,4.0822935E0,2.4300466E0,1.261252E0,1.1687944E0],"tree_param":{"num_deleted":"0","num_feature":"11","num_nodes":"13","size_leaf_vector":"1"}},{"base_weights":[-6.672053E-2,-3.239376E-1,3.4570628E-1,-1.3868477E-2,8.566261E-2,-2.2392252E-3,1.0898208E-2,-7.1643223E-3,9.9307075E-3],"categories":[],"categories_nodes":[],"categories_segments":[],"categories_sizes":[],"default_left":[0,0,0,0,0,0,0,0,0],"id":90,"left_children":[1,3,5,-1,7,-1,-1,-1,-1],"loss_changes":[2.3575573E0,1.8100656E0,7.409338E-1,0E0,1.8290062E0,0E0,0E0,0E0,0E0],"parents":[2147483647,0,0,1,1,2,2,4,4],"right_children":[2,4,6,-1,8,-1,-1,-1,-1],"split_conditions":[3.2112144E-2,3.482717E-1,-6.1144393E-2,-1.3868477E-2,-1.9370413E-1,-2.2392252E-3,1.0898208E-2,-7.1643223E-3,9.9307075E-3],"split_indices":[1,8,3,0,2,0,0,0,0],"split_type":[0,0,0,0,0,0,0,0,0],"sum_hessian":[1.3575893E1,9.079268E0,4.496625E0,4.3369675E0,4.7423015E0,1.0730951E0,3.4235296E0,2.2654607E0,2.4768407E0],"tree_param":{"num_deleted":"0","num_feature":"11","num_nodes":"9","size_leaf_vector":"1"}},{"base_weights":[-3.5728868E-2,-4.1817665E-1,2.677073E-1,-4.9958107E-1,6.553925E-4,-5.4226546E-3,4.250181E-1,-0E0,-1.3147165E-2,1.4188303E-2,-0E0,5.339955E-3,-5.8045387E-3],"categories":[],"categories_nodes":[],"categories_segments":[],"categories_sizes":[],"default_left":[0,0,0,0,0,0,0,0,0,0,0,0,0],"id":91,"left_children":[1,3,5,7,-1,-1,9,-1,-1,-1,11,-1,-1],"loss_changes":[2.5851293E0,4.673159E-1,1.436218E0,2.7037883E-1,0E0,0E0,9.4613385E-1,0E0,0E0,0E0,7.045785E-1,0E0,0E0],"parents":[2147483647,0,0,1,1,2,2,3,3,6,6,10,10],"right_children":[2,4,6,8,-1,-1,10,-1,-1,-1,12,-1,-1],"split_conditions":[2.632314E-1,2.2797264E-1,-4.9913976E-1,-4.8695683E-1,6.553925E-4,-5.4226546E-3,1.2806918E-1,-0E0,-1.3147165E-2,1.4188303E-2,3.0532032E-1,5.339955E-3,-5.8045387E-3],"split_indices":[8,0,2,9,0,0,7,0,0,0,4,0,0],"split_type":[0,0,0,0,0,0,0,0,0,0,0,0,0],"sum_hessian":[1.3850637E1,5.5788813E0,8.271756E0,4.5014296E0,1.0774515E0,1.2963566E0,6.9754E0,1.3015862E0,3.1998436E0,3.508951E0,3.466449E0,1.9164196E0,1.5500294E0],"tree_param":{"num_deleted":"0","num_feature":"11","num_nodes":"13","size_leaf_vector":"1"}},{"base_weights":[-7.552819E-2,-3.401712E-1,2.3367782E-1,-4.581329E-1,3.199493E-3,4.3395498E-1,-5.1763207E-3,-1.2238653E-2,-0E0,-2.8939254E-4,1.1844436E-2],"categories":[],"categories_nodes":[],"categories_segments":[],"categories_sizes":[],"default_left":[0,0,0,0,0,0,0,0,0,0,0],"id":92,"left_children":[1,