{"learner":{"attributes":{"best_iteration":"60","best_score":"0.7478936564109668"},"feature_names":["original_shape_Flatness_3","original_shape_MinorAxisLength_3","original_firstorder_Median_3","original_firstorder_Variance_3","original_glcm_Correlation_3","original_glszm_SmallAreaEmphasis_3","log-sigma-1-0-mm-3D_firstorder_Mean_3","log-sigma-1-0-mm-3D_glcm_ClusterShade_3","log-sigma-1-0-mm-3D_glcm_SumAverage_3","log-sigma-1-0-mm-3D_glrlm_RunEntropy_3","log-sigma-2-0-mm-3D_firstorder_Kurtosis_3","log-sigma-2-0-mm-3D_firstorder_Variance_3","log-sigma-2-0-mm-3D_glszm_HighGrayLevelZoneEmphasis_3","log-sigma-2-0-mm-3D_glszm_SmallAreaEmphasis_3","log-sigma-3-0-mm-3D_firstorder_Mean_3","log-sigma-3-0-mm-3D_firstorder_Range_3","log-sigma-3-0-mm-3D_glcm_MCC_3","log-sigma-3-0-mm-3D_glrlm_LongRunLowGrayLevelEmphasis_3","log-sigma-5-0-mm-3D_firstorder_TotalEnergy_3","log-sigma-5-0-mm-3D_glcm_ClusterProminence_3","log-sigma-5-0-mm-3D_glcm_MCC_3","log-sigma-5-0-mm-3D_glrlm_RunLengthNonUniformity_3","log-sigma-5-0-mm-3D_glszm_LargeAreaHighGrayLevelEmphasis_3","log-sigma-5-0-mm-3D_glszm_SmallAreaEmphasis_3","wavelet-LLH_firstorder_Kurtosis_3","wavelet-LLH_firstorder_Mean_3","wavelet-LLH_glcm_Correlation_3","wavelet-LLH_glcm_Imc2_3","wavelet-LLH_glcm_SumAverage_3","wavelet-LLH_glrlm_RunEntropy_3","wavelet-LHL_glcm_MCC_3","wavelet-LHL_gldm_DependenceEntropy_3","wavelet-LHL_glszm_SizeZoneNonUniformityNormalized_3","wavelet-LHL_glszm_SmallAreaHighGrayLevelEmphasis_3","wavelet-LHL_glszm_ZoneEntropy_3","wavelet-LHH_glszm_GrayLevelVariance_3","wavelet-LHH_glszm_HighGrayLevelZoneEmphasis_3","wavelet-HLL_firstorder_Median_3","wavelet-HLL_glrlm_LongRunLowGrayLevelEmphasis_3","wavelet-HLL_glszm_GrayLevelVariance_3","wavelet-HLH_glrlm_LongRunLowGrayLevelEmphasis_3","wavelet-HLH_glrlm_ShortRunHighGrayLevelEmphasis_3","wavelet-HHL_glcm_Imc2_3","wavelet-HHL_glcm_SumAverage_3","wavelet-HHL_gldm_DependenceVariance_3","wavelet-HHL_glrlm_GrayLevelNonUniformityNormalized_3","wavelet-HHL_glszm_SmallAreaEmphasis_3","wavelet-HHH_gldm_DependenceVariance_3","wavelet-LLL_firstorder_Minimum_3","wavelet-LLL_glcm_ClusterShade_3","wavelet-LLL_glcm_MCC_3","wavelet-LLL_glrlm_RunEntropy_3","wavelet-LLL_glszm_LargeAreaHighGrayLevelEmphasis_3","wavelet-LLL_glszm_SmallAreaEmphasis_3"],"feature_types":["float","float","float","float","float","float","float","float","float","float","float","float","float","float","float","float","float","float","float","float","float","float","float","float","float","float","float","float","float","float","float","float","float","float","float","float","float","float","float","float","float","float","float","float","float","float","float","float","float","float","float","float","float","float"],"gradient_booster":{"model":{"gbtree_model_param":{"num_parallel_tree":"1","num_trees":"561"},"iteration_indptr":[0,1,2,3,4,5,6,7,8,9,10,11,12,13,14,15,16,17,18,19,20,21,22,23,24,25,26,27,28,29,30,31,32,33,34,35,36,37,38,39,40,41,42,43,44,45,46,47,48,49,50,51,52,53,54,55,56,57,58,59,60,61,62,63,64,65,66,67,68,69,70,71,72,73,74,75,76,77,78,79,80,81,82,83,84,85,86,87,88,89,90,91,92,93,94,95,96,97,98,99,100,101,102,103,104,105,106,107,108,109,110,111,112,113,114,115,116,117,118,119,120,121,122,123,124,125,126,127,128,129,130,131,132,133,134,135,136,137,138,139,140,141,142,143,144,145,146,147,148,149,150,151,152,153,154,155,156,157,158,159,160,161,162,163,164,165,166,167,168,169,170,171,172,173,174,175,176,177,178,179,180,181,182,183,184,185,186,187,188,189,190,191,192,193,194,195,196,197,198,199,200,201,202,203,204,205,206,207,208,209,210,211,212,213,214,215,216,217,218,219,220,221,222,223,224,225,226,227,228,229,230,231,232,233,234,235,236,237,238,239,240,241,242,243,244,245,246,247,248,249,250,251,252,253,254,255,256,257,258,259,260,261,262,263,264,265,266,267,268,269,270,271,272,273,274,275,276,277,278,279,280,281,282,283,284,285,286,287,288,289,290,291,292,293,294,295,296,297,298,299,300,301,302,303,304,305,306,307,308,309,310,311,312,313,314,315,316,317,318,319,320,321,322,323,324,325,326,327,328,329,330,331,332,333,334,335,336,337,338,339,340,341,342,343,344,345,346,347,348,349,350,351,352,353,354,355,356,357,358,359,360,361,362,363,364,365,366,367,368,369,370,371,372,373,374,375,376,377,378,379,380,381,382,383,384,385,386,387,388,389,390,391,392,393,394,395,396,397,398,399,400,401,402,403,404,405,406,407,408,409,410,411,412,413,414,415,416,417,418,419,420,421,422,423,424,425,426,427,428,429,430,431,432,433,434,435,436,437,438,439,440,441,442,443,444,445,446,447,448,449,450,451,452,453,454,455,456,457,458,459,460,461,462,463,464,465,466,467,468,469,470,471,472,473,474,475,476,477,478,479,480,481,482,483,484,485,486,487,488,489,490,491,492,493,494,495,496,497,498,499,500,501,502,503,504,505,506,507,508,509,510,511,512,513,514,515,516,517,518,519,520,521,522,523,524,525,526,527,528,529,530,531,532,533,534,535,536,537,538,539,540,541,542,543,544,545,546,547,548,549,550,551,552,553,554,555,556,557,558,559,560,561],"tree_info":[0,0,0,0,0,0,0,0,0,0,0,0,0,0,0,0,0,0,0,0,0,0,0,0,0,0,0,0,0,0,0,0,0,0,0,0,0,0,0,0,0,0,0,0,0,0,0,0,0,0,0,0,0,0,0,0,0,0,0,0,0,0,0,0,0,0,0,0,0,0,0,0,0,0,0,0,0,0,0,0,0,0,0,0,0,0,0,0,0,0,0,0,0,0,0,0,0,0,0,0,0,0,0,0,0,0,0,0,0,0,0,0,0,0,0,0,0,0,0,0,0,0,0,0,0,0,0,0,0,0,0,0,0,0,0,0,0,0,0,0,0,0,0,0,0,0,0,0,0,0,0,0,0,0,0,0,0,0,0,0,0,0,0,0,0,0,0,0,0,0,0,0,0,0,0,0,0,0,0,0,0,0,0,0,0,0,0,0,0,0,0,0,0,0,0,0,0,0,0,0,0,0,0,0,0,0,0,0,0,0,0,0,0,0,0,0,0,0,0,0,0,0,0,0,0,0,0,0,0,0,0,0,0,0,0,0,0,0,0,0,0,0,0,0,0,0,0,0,0,0,0,0,0,0,0,0,0,0,0,0,0,0,0,0,0,0,0,0,0,0,0,0,0,0,0,0,0,0,0,0,0,0,0,0,0,0,0,0,0,0,0,0,0,0,0,0,0,0,0,0,0,0,0,0,0,0,0,0,0,0,0,0,0,0,0,0,0,0,0,0,0,0,0,0,0,0,0,0,0,0,0,0,0,0,0,0,0,0,0,0,0,0,0,0,0,0,0,0,0,0,0,0,0,0,0,0,0,0,0,0,0,0,0,0,0,0,0,0,0,0,0,0,0,0,0,0,0,0,0,0,0,0,0,0,0,0,0,0,0,0,0,0,0,0,0,0,0,0,0,0,0,0,0,0,0,0,0,0,0,0,0,0,0,0,0,0,0,0,0,0,0,0,0,0,0,0,0,0,0,0,0,0,0,0,0,0,0,0,0,0,0,0,0,0,0,0,0,0,0,0,0,0,0,0,0,0,0,0,0,0,0,0,0,0,0,0,0,0,0,0,0,0,0,0,0,0,0,0,0,0,0,0,0,0,0,0,0,0,0,0,0,0,0,0,0,0,0,0,0,0,0,0,0,0,0,0,0,0,0,0,0,0,0,0,0,0,0,0,0,0,0,0,0,0,0,0,0,0,0,0,0,0,0,0,0,0,0,0,0,0,0,0,0,0,0,0,0,0,0,0,0,0,0,0,0,0,0,0,0,0,0],"trees":[{"base_weights":[-1.7031025E-2,-6.78251E-1,2.8851914E-1,4.0941268E-1,-8.1936705E-1,4.413877E-1,-7.576278E-1,-1.5564822E-2,3.394064E-2,-8.8328505E-1,2.2938361E-2,6.0739493E-1,-3.1645155E-1,-0E0,-1.0901908E0,-1.4353512E-1,-1.0385915E0,6.479356E-1,-2.2741012E-2,3.880486E-1,-6.054872E-1,1.8196004E-2,-2.2741012E-2,2.4657317E-3,-5.2358933E-2,-5.754578E-1,3.6329752E-1,-1.1585922E0,-2.1153556E-1,3.989213E-1,1.0149996E0,-1.4249734E-2,3.652016E-2,-9.094994E-1,-0E0,6.5205195E-3,-3.374486E-2,-1.899016E-2,3.0710295E-2,1.1088277E-2,-1.224736E0,2.3820613E-2,-2.7364423E-2,6.517645E-1,-1.01324946E-1,1.2328678E0,-0E0,1.1088277E-2,-4.7410652E-2,-1.9268915E-2,1.9319477E-2,2.3709345E-3,-5.5040177E-2,-2.2370573E-3,3.764926E-2,2.9405555E-2,-3.2067806E-2,-1.0079463E-3,5.7443358E-2,-2.2741012E-2,1.3598756E-2],"categories":[],"categories_nodes":[],"categories_segments":[],"categories_sizes":[],"default_left":[0,0,0,0,0,0,0,0,0,0,0,0,0,0,0,0,0,0,0,0,0,0,0,0,0,0,0,0,0,0,0,0,0,0,0,0,0,0,0,0,0,0,0,0,0,0,0,0,0,0,0,0,0,0,0,0,0,0,0,0,0],"id":0,"left_children":[1,3,5,7,9,11,13,-1,-1,15,-1,17,19,21,23,25,27,29,-1,31,33,-1,-1,-1,-1,35,37,39,41,43,45,-1,-1,47,49,-1,-1,-1,-1,-1,51,-1,-1,53,55,57,59,-1,-1,-1,-1,-1,-1,-1,-1,-1,-1,-1,-1,-1,-1],"loss_changes":[4.833371E1,1.2967087E1,2.7253922E1,4.4371247E0,7.7773056E0,1.9019697E1,5.768773E0,0E0,0E0,6.835369E0,0E0,6.869446E0,6.6704435E0,3.1256335E0,2.938223E0,4.377934E0,4.143749E0,8.937878E0,0E0,4.618682E0,4.2082934E0,0E0,0E0,0E0,0E0,2.2348356E0,3.962037E0,5.781204E0,5.196946E0,1.0117538E1,1.0236858E1,0E0,0E0,4.704644E0,2.9347105E0,0E0,0E0,0E0,0E0,0E0,4.1769714E0,0E0,0E0,8.740625E0,1.6611847E1,5.6070824E0,2.6159573E0,0E0,0E0,0E0,0E0,0E0,0E0,0E0,0E0,0E0,0E0,0E0,0E0,0E0,0E0],"parents":[2147483647,0,0,1,1,2,2,3,3,4,4,5,5,6,6,9,9,11,11,12,12,13,13,14,14,15,15,16,16,17,17,19,19,20,20,25,25,26,26,27,27,28,28,29,29,30,30,33,33,34,34,40,40,43,43,44,44,45,45,46,46],"right_children":[2,4,6,8,10,12,14,-1,-1,16,-1,18,20,22,24,26,28,30,-1,32,34,-1,-1,-1,-1,36,38,40,42,44,46,-1,-1,48,50,-1,-1,-1,-1,-1,52,-1,-1,54,56,58,60,-1,-1,-1,-1,-1,-1,-1,-1,-1,-1,-1,-1,-1,-1],"split_conditions":[-5.779707E-1,-1.223575E0,1.5698828E0,-3.6540496E-1,1.635988E0,7.128935E-1,-7.151279E-1,-1.5564822E-2,3.394064E-2,-7.6150954E-1,2.2938361E-2,1.296246E0,-8.7691057E-1,-1.0195583E0,-4.1874042E-1,3.0407208E-1,6.6304326E-1,2.0581117E-1,-2.2741012E-2,-8.4554076E-2,4.9671504E-1,1.8196004E-2,-2.2741012E-2,2.4657317E-3,-5.2358933E-2,-3.8843387E-1,-5.685435E-1,-1.3579514E0,-6.48597E-2,-3.7995833E-1,7.3643214E-1,-1.4249734E-2,3.652016E-2,-1.2170609E0,7.2123843E-1,6.5205195E-3,-3.374486E-2,-1.899016E-2,3.0710295E-2,1.1088277E-2,-1.0448006E0,2.3820613E-2,-2.7364423E-2,-4.989743E-1,-3.354136E-1,-1.05866574E-1,-6.9999963E-1,1.1088277E-2,-4.7410652E-2,-1.9268915E-2,1.9319477E-2,2.3709345E-3,-5.5040177E-2,-2.2370573E-3,3.764926E-2,2.9405555E-2,-3.2067806E-2,-1.0079463E-3,5.7443358E-2,-2.2741012E-2,1.3598756E-2],"split_indices":[3,26,3,47,26,37,1,0,0,8,0,14,34,44,10,46,15,11,0,23,26,0,0,0,0,21,23,6,52,40,7,0,0,8,31,0,0,0,0,0,53,0,0,25,29,15,24,0,0,0,0,0,0,0,0,0,0,0,0,0,0],"split_type":[0,0,0,0,0,0,0,0,0,0,0,0,0,0,0,0,0,0,0,0,0,0,0,0,0,0,0,0,0,0,0,0,0,0,0,0,0,0,0,0,0,0,0,0,0,0,0,0,0,0,0,0,0,0,0,0,0,0,0,0,0],"sum_hessian":[2.3143532E2,7.197988E1,1.5945543E2,7.2479744E0,6.473191E1,1.4121053E2,1.82449E1,2.2493713E0,4.998603E0,6.3232327E1,1.4995809E0,1.1671738E2,2.4493155E1,6.4981837E0,1.17467165E1,1.2496508E1,5.073582E1,1.14468E2,2.2493713E0,6.4981837E0,1.799497E1,4.2488127E0,2.2493713E0,1.2496507E0,1.04970665E1,6.7481136E0,5.748393E0,4.2738056E1,7.9977646E0,7.322953E1,4.1238472E1,2.7492316E0,3.7489522E0,1.0996926E1,6.998044E0,1.4995809E0,5.2485332E0,1.2496507E0,4.4987426E0,1.2496507E0,4.1488403E1,2.2493713E0,5.748393E0,4.823652E1,2.4993015E1,3.349064E1,7.747834E0,1.2496507E0,9.747275E0,3.2490919E0,3.7489522E0,1.749511E0,3.973889E1,1.2246577E1,3.598994E1,1.0996926E1,1.3996088E1,2.7492316E0,3.0741407E1,2.2493713E0,5.498463E0],"tree_param":{"num_deleted":"0","num_feature":"54","num_nodes":"61","size_leaf_vector":"1"}},{"base_weights":[-1.1875143E-2,-7.3314184E-1,3.0017012E-1,3.0624742E-2,-8.230954E-1,-1.8983181E-1,5.2818626E-1,-9.0461195E-1,3.4506637E-1,3.3743888E-1,-4.7135374E-1,7.94251E-1,-1.1475259E-1,-9.5774513E-1,1.462625E-2,-1.0005245E-2,2.8591631E-2,7.5770867E-1,-4.326504E-1,-6.959992E-1,3.2536075E-1,1.0982059E0,2.747417E-1,-9.300606E-1,2.1239074E-1,-1.034259E0,-0E0,1.0263201E0,-1.2809253E-2,1.3440962E-2,-3.522027E-2,1.0932362E-1,-8.251181E-1,-1.1595733E-2,2.8704628E-2,1.1738207E0,-1.3992426E-2,7.785777E-1,-1.8747921E-1,2.2828192E-3,-4.700828E-2,7.456042E-1,-3.1295675E-1,-3.2648746E-2,-1.1293107E0,2.1046903E-2,-1.772138E-2,-2.1933557E-3,5.0444644E-2,-1.2660926E-2,2.2441063E-2,-9.3383944E-1,6.0443045E-3,-4.556454E-3,1.274305E0,1.0219458E0,-8.23602E-3,-7.199372E-1,4.6455896E-1,9.8304623E-1,-1.8850468E-2,1.15084825E-2,-6.491256E-1,2.1766528E-2,-2.0544382E-2,-5.350569E-2,-4.2925696E-3,2.7370735E-3,-4.3079484E-2,5.822533E-2,-9.823708E-3,-1.9418173E-3,4.91932E-2,-4.19557E-2,1.4119589E-2,3.325829E-2,-7.903721E-3,-1.03701865E-2,5.0913204E-2,-3.5107993E-2,2.836326E-3],"categories":[],"categories_nodes":[],"categories_segments":[],"categories_sizes":[],"default_left":[0,0,0,0,0,0,0,0,0,0,0,0,0,0,0,0,0,0,0,0,0,0,0,0,0,0,0,0,0,0,0,0,0,0,0,0,0,0,0,0,0,0,0,0,0,0,0,0,0,0,0,0,0,0,0,0,0,0,0,0,0,0,0,0,0,0,0,0,0,0,0,0,0,0,0,0,0,0,0,0,0],"id":1,"left_children":[1,3,5,-1,7,9,11,13,15,17,19,21,23,25,-1,-1,-1,27,29,31,33,35,37,39,41,43,45,47,-1,-1,-1,49,51,-1,-1,53,-1,55,57,-1,-1,59,61,63,65,-1,-1,-1,-1,-1,-1,67,-1,-1,69,71,-1,73,75,77,-1,-1,79,-1,-1,-1,-1,-1,-1,-1,-1,-1,-1,-1,-1,-1,-1,-1,-1,-1,-1],"loss_changes":[5.2761063E1,1.14533E1,1.868593E1,0E0,7.8360596E0,8.666877E0,1.9785698E1,5.7030983E0,1.9944146E0,8.000661E0,7.5905333E0,1.1231487E1,1.0502323E1,4.926937E0,0E0,0E0,0E0,5.574342E0,3.8513255E0,3.682992E0,2.9343345E0,6.944298E0,8.832454E0,2.3480148E0,8.944481E0,5.2193413E0,2.448324E0,2.6515455E0,0E0,0E0,0E0,1.848588E0,3.5232277E0,0E0,0E0,6.939476E0,0E0,5.1275635E0,8.581263E0,0E0,0E0,6.100009E0,4.0128865E0,3.130731E0,5.937645E0,0E0,0E0,0E0,0E0,0E0,0E0,2.3075657E0,0E0,0E0,7.303711E0,2.5240183E0,0E0,4.988034E0,3.0142741E0,4.9236917E0,0E0,0E0,1.8635507E0,0E0,0E0,0E0,0E0,0E0,0E0,0E0,0E0,0E0,0E0,0E0,0E0,0E0,0E0,0E0,0E0,0E0,0E0],"parents":[2147483647,0,0,1,1,2,2,4,4,5,5,6,6,7,7,8,8,9,9,10,10,11,11,12,12,13,13,17,17,18,18,19,19,20,20,21,21,22,22,23,23,24,24,25,25,26,26,27,27,31,31,32,32,35,35,37,37,38,38,41,41,42,42,43,43,44,44,51,51,54,54,55,55,57,57,58,58,59,59,62,62],"right_children":[2,4,6,-1,8,10,12,14,16,18,20,22,24,26,-1,-1,-1,28,30,32,34,36,38,40,42,44,46,48,-1,-1,-1,50,52,-1,-1,54,-1,56,58,-1,-1,60,62,64,66,-1,-1,-1,-1,-1,-1,68,-1,-1,70,72,-1,74,76,78,-1,-1,80,-1,-1,-1,-1,-1,-1,-1,-1,-1,-1,-1,-1,-1,-1,-1,-1,-1,-1],"split_conditions":[-5.8816385E-1,-1.6122566E0,-5.175465E-1,3.0624742E-2,1.4450132E0,-2.982741E-2,4.073048E-1,2.6871023E0,-1.2978182E0,1.2716147E0,5.024419E-1,1.6574067E-1,-7.0236005E-2,2.8251822E0,1.462625E-2,-1.0005245E-2,2.8591631E-2,-3.856104E-1,-3.9889723E-1,1.1847502E-1,2.0271948E-1,2.2728374E0,-3.51306E-1,-1.1402286E0,-2.4833767E-1,-1.2350361E0,1.2920675E-1,-1.5408745E0,-1.2809253E-2,1.3440962E-2,-3.522027E-2,3.4358606E-1,1.2814734E0,-1.1595733E-2,2.8704628E-2,-1.2703012E0,-1.3992426E-2,9.51174E-1,-9.431416E-4,2.2828192E-3,-4.700828E-2,1.6015545E0,7.050137E-1,-3.7927973E-1,7.162056E-1,2.1046903E-2,-1.772138E-2,-2.1933557E-3,5.0444644E-2,-1.2660926E-2,2.2441063E-2,-1.1794416E0,6.0443045E-3,-4.556454E-3,7.029072E-1,-3.0171424E-1,-8.23602E-3,1.4471874E0,3.560256E-1,-1.0672195E0,-1.8850468E-2,1.15084825E-2,6.730112E-1,2.1766528E-2,-2.0544382E-2,-5.350569E-2,-4.2925696E-3,2.7370735E-3,-4.3079484E-2,5.822533E-2,-9.823708E-3,-1.9418173E-3,4.91932E-2,-4.19557E-2,1.4119589E-2,3.325829E-2,-7.903721E-3,-1.03701865E-2,5.0913204E-2,-3.5107993E-2,2.836326E-3],"split_indices":[3,26,48,0,16,20,37,17,3,3,23,43,45,52,0,0,0,52,19,34,26,19,49,23,25,15,2,32,0,0,0,7,35,0,0,45,0,1,14,0,0,36,37,25,15,0,0,0,0,0,0,17,0,0,44,32,0,2,6,23,0,0,11,0,0,0,0,0,0,0,0,0,0,0,0,0,0,0,0,0,0],"split_type":[0,0,0,0,0,0,0,0,0,0,0,0,0,0,0,0,0,0,0,0,0,0,0,0,0,0,0,0,0,0,0,0,0,0,0,0,0,0,0,0,0,0,0,0,0,0,0,0,0,0,0,0,0,0,0,0,0,0,0,0,0,0,0,0,0,0,0,0,0,0,0,0,0,0,0,0,0,0,0,0,0],"sum_hessian":[2.2659216E2,6.716302E1,1.5942915E2,2.2496998E0,6.4913315E1,5.046987E1,1.0895928E2,6.1666264E1,3.247054E0,1.6994553E1,3.347532E1,7.673076E1,3.2228527E1,6.016677E1,1.4994925E0,1.2482965E0,1.9987576E0,1.124794E1,5.746613E0,2.672888E1,6.7464404E0,4.5489826E1,3.124093E1,7.494435E0,2.473409E1,5.5671097E1,4.4956746E0,9.24849E0,1.9994497E0,1.9989538E0,3.747659E0,3.4981642E0,2.3230717E1,2.4982831E0,4.248157E0,4.3990463E1,1.4993637E0,1.3997297E1,1.7243633E1,1.2497439E0,6.244691E0,1.1744763E1,1.2989327E1,5.4905653E0,5.018053E1,1.9990838E0,2.4965906E0,1.2499595E0,7.9985304E0,1.9983125E0,1.4998517E0,2.1232061E1,1.998654E0,2.9996731E0,4.0990788E1,1.12479105E1,2.7493863E0,9.495507E0,7.748126E0,1.049563E1,1.2491333E0,4.748065E0,8.241262E0,1.9965487E0,3.4940164E0,4.3934006E1,6.2465224E0,1.2487817E0,1.998328E1,3.9240925E1,1.7498643E0,1.2496853E0,9.998225E0,7.995653E0,1.4998538E0,4.9990945E0,2.7490315E0,1.2494774E0,9.246153E0,6.493353E0,1.7479103E0],"tree_param":{"num_deleted":"0","num_feature":"54","num_nodes":"81","size_leaf_vector":"1"}},{"base_weights":[4.108519E-3,-7.8304166E-1,2.9195148E-1,-1.0774062E0,-2.7345043E-2,2.841513E-2,5.91722E-1,6.0991193E-3,-1.1847773E0,-3.3323087E-2,3.7873745E-1,6.0575813E-1,-2.028397E-1,-0E0,8.3525103E-1,-1.3045559E0,6.675987E-2,-1.1408708E-2,3.0465329E-2,9.7713286E-1,-9.847296E-2,-4.756643E-1,6.4739805E-1,5.896437E-1,-3.967619E-1,1.0515193E0,1.4592278E-1,3.2298767E-3,-5.8414456E-2,2.095563E-2,-1.79268E-2,-9.519694E-3,1.159398E0,1.9601636E-2,-4.8635578E-1,-7.482892E-1,2.6548204E-1,-1.17252385E-2,8.366085E-1,3.511612E-2,-9.328584E-3,-4.2196803E-2,1.9582103E-1,1.1675797E0,-1.1791163E-3,3.1765252E-2,-2.5817564E-1,-0E0,5.4070517E-2,1.3984632E-2,-3.4812264E-2,1.0869066E-2,-8.707608E-1,3.4552664E-2,-6.702526E-2,4.315991E-2,-0E0,2.9960018E-2,-2.3486516E-1,2.3096424E-1,1.3001714E0,-3.3650476E-2,3.2050344E-1,-4.027764E-2,1.1169087E-2,-2.0073505E-2,1.8081032E-2,-1.6338004E-2,1.9559395E-2,-2.9225124E-2,1.5961627E-2,2.3795834E-2,-1.2806224E-2,6.1231665E-2,9.941448E-4,2.8195128E-2,-1.40033765E-2],"categories":[],"categories_nodes":[],"categories_segments":[],"categories_sizes":[],"default_left":[0,0,0,0,0,0,0,0,0,0,0,0,0,0,0,0,0,0,0,0,0,0,0,0,0,0,0,0,0,0,0,0,0,0,0,0,0,0,0,0,0,0,0,0,0,0,0,0,0,0,0,0,0,0,0,0,0,0,0,0,0,0,0,0,0,0,0,0,0,0,0,0,0,0,0,0,0],"id":2,"left_children":[1,3,5,7,9,11,13,-1,15,-1,17,19,21,23,25,27,29,-1,-1,31,33,35,37,39,41,43,45,-1,-1,-1,-1,-1,47,-1,49,51,53,-1,55,-1,-1,-1,57,59,-1,-1,61,-1,-1,-1,-1,-1,63,-1,65,-1,67,-1,69,71,73,-1,75,-1,-1,-1,-1,-1,-1,-1,-1,-1,-1,-1,-1,-1,-1],"loss_changes":[5.2574116E1,1.3410393E1,1.3249498E1,6.698246E0,7.7440886E0,1.3255044E1,1.12974205E1,0E0,6.8339615E0,0E0,4.307089E0,8.020617E0,1.7419697E1,7.193428E0,7.4590607E0,3.93116E0,2.2098558E0,0E0,0E0,5.3956013E0,3.6317813E0,1.2101747E1,4.2095737E0,3.1466885E0,7.27722E0,5.6305656E0,5.162465E0,0E0,0E0,0E0,0E0,0E0,2.041092E0,0E0,3.6981647E0,6.1224327E0,3.537167E0,0E0,2.1874332E0,0E0,0E0,0E0,3.327823E0,3.2042885E0,0E0,0E0,5.091636E0,0E0,0E0,0E0,0E0,0E0,4.1718216E0,0E0,3.4970741E0,0E0,1.83321E0,0E0,3.467507E0,2.3157287E0,4.90847E0,0E0,2.7963328E0,0E0,0E0,0E0,0E0,0E0,0E0,0E0,0E0,0E0,0E0,0E0,0E0,0E0,0E0],"parents":[2147483647,0,0,1,1,2,2,3,3,4,4,5,5,6,6,8,8,10,10,11,11,12,12,13,13,14,14,15,15,16,16,19,19,20,20,21,21,22,22,23,23,24,24,25,25,26,26,32,32,34,34,35,35,36,36,38,38,42,42,43,43,46,46,52,52,54,54,56,56,58,58,59,59,60,60,62,62],"right_children":[2,4,6,8,10,12,14,-1,16,-1,18,20,22,24,26,28,30,-1,-1,32,34,36,38,40,42,44,46,-1,-1,-1,-1,-1,48,-1,50,52,54,-1,56,-1,-1,-1,58,60,-1,-1,62,-1,-1,-1,-1,-1,64,-1,66,-1,68,-1,70,72,74,-1,76,-1,-1,-1,-1,-1,-1,-1,-1,-1,-1,-1,-1,-1,-1],"split_conditions":[-3.0160296E-1,4.734592E-1,6.621799E-2,-7.420552E-1,-4.7162265E-1,-1.0174451E0,-1.5932763E-1,6.0991193E-3,9.2576426E-1,-3.3323087E-2,6.2369025E-1,1.4519932E-2,3.3551696E-1,7.460959E-2,2.805426E-1,-1.4918908E0,1.0088377E0,-1.1408708E-2,3.0465329E-2,-2.8149635E-1,-6.095037E-1,4.962834E-1,-9.1002923E-1,7.590842E-1,-5.819952E-1,7.6851875E-1,-2.0961007E-1,3.2298767E-3,-5.8414456E-2,2.095563E-2,-1.79268E-2,-9.519694E-3,-5.7144266E-1,1.9601636E-2,-4.3618384E-1,-1.2816865E0,-7.514228E-1,-1.17252385E-2,2.9491654E-1,3.511612E-2,-9.328584E-3,-4.2196803E-2,-4.6255928E-1,-5.400263E-1,-1.1791163E-3,3.1765252E-2,2.4815081E-1,-0E0,5.4070517E-2,1.3984632E-2,-3.4812264E-2,1.0869066E-2,1.5821218E0,3.4552664E-2,4.4795877E-1,4.315991E-2,1.0691291E-1,2.9960018E-2,1.0524225E0,-6.641002E-1,8.434542E-1,-3.3650476E-2,3.766456E-1,-4.027764E-2,1.1169087E-2,-2.0073505E-2,1.8081032E-2,-1.6338004E-2,1.9559395E-2,-2.9225124E-2,1.5961627E-2,2.3795834E-2,-1.2806224E-2,6.1231665E-2,9.941448E-4,2.8195128E-2,-1.40033765E-2],"split_indices":[7,15,15,27,46,47,48,0,0,0,42,1,24,18,44,36,13,0,0,49,17,46,35,43,44,7,21,0,0,0,0,0,41,0,0,51,51,0,25,0,0,0,27,50,0,0,32,0,0,0,0,0,10,0,19,0,53,0,11,44,36,0,5,0,0,0,0,0,0,0,0,0,0,0,0,0,0],"split_type":[0,0,0,0,0,0,0,0,0,0,0,0,0,0,0,0,0,0,0,0,0,0,0,0,0,0,0,0,0,0,0,0,0,0,0,0,0,0,0,0,0,0,0,0,0,0,0,0,0,0,0,0,0,0,0,0,0,0,0,0,0,0,0,0,0,0,0,0,0,0,0,0,0,0,0,0,0],"sum_hessian":[2.2513792E2,5.8336266E1,1.6680165E2,4.060238E1,1.7733889E1,9.138143E1,7.542022E1,2.993079E0,3.76093E1,5.2449975E0,1.2488891E1,2.4732464E1,6.6648964E1,2.3222809E1,5.219741E1,3.4367382E1,3.2419171E0,4.24708E0,8.241811E0,1.5489489E1,9.242975E0,5.1923355E1,1.4725614E1,8.74333E0,1.4479479E1,3.7965473E1,1.4231938E1,1.24607E0,3.312131E1,1.9975953E0,1.2443217E0,1.7494981E0,1.373999E1,3.2477584E0,5.995217E0,3.818625E1,1.37371025E1,1.994352E0,1.2731262E1,6.9949713E0,1.7483587E0,6.2363496E0,8.24313E0,3.4217983E1,3.7474906E0,4.7463017E0,9.485637E0,1.4970751E0,1.2242915E1,1.4992001E0,4.4960165E0,3.4957767E0,3.4690475E1,3.497076E0,1.0240027E1,9.7380495E0,2.9932125E0,2.998689E0,5.2444406E0,5.7442884E0,2.8473694E1,4.490931E0,4.9947057E0,3.344279E1,1.2476828E0,5.993777E0,4.24625E0,1.74469E0,1.2485224E0,2.9962287E0,2.248212E0,3.746335E0,1.9979535E0,2.5225935E1,3.24776E0,3.4966772E0,1.4980288E0],"tree_param":{"num_deleted":"0","num_feature":"54","num_nodes":"77","size_leaf_vector":"1"}},{"base_weights":[1.8664738E-2,-5.103291E-1,4.303404E-1,-6.504029E-1,6.5561503E-1,-5.9955567E-2,7.4200356E-1,-7.255375E-1,3.0513735E-2,4.2169906E-2,-1.077329E-2,3.4735414E-1,-5.644487E-1,9.210766E-1,9.9198714E-2,-8.959443E-1,-1.3153197E-1,8.330438E-1,-4.517182E-2,-4.1141562E-2,-8.91243E-1,9.943007E-1,-1.7914201E-1,5.3934145E-1,-3.8421705E-1,-3.9048132E-1,-1.1592855E0,-5.7529974E-1,5.258495E-1,4.699869E-2,-1.3338253E-3,-4.8570672E-1,3.798225E-1,2.6291192E-2,-3.908234E-1,-1.0604817E0,-0E0,-4.6735415E-3,1.0522897E0,1.4052805E-2,-2.5182715E-2,-8.857467E-3,3.315466E-2,1.9971767E-2,-7.2889787E-1,6.807305E-2,-8.2525826E-1,1.1759582E-2,-1.2298251E0,1.1157989E-2,-3.7564993E-2,-1.0352331E-2,7.2329307E-1,-3.2878228E-2,1.2982991E-2,-1.4588999E-2,7.316737E-1,-7.4020976E-1,1.6162015E-2,-1.3687465E-3,-5.2927446E-2,1.5654112E-1,1.1568316E0,-4.0565837E-2,5.535145E-3,2.5447885E-2,-1.7173136E-2,7.0616314E-3,-4.215339E-2,-5.535293E-2,-0E0,3.913553E-2,-1.5439813E-3,-8.992566E-3,4.526902E-2,3.0478681E-3,-4.208119E-2,-9.264888E-3,2.295686E-2,5.1294547E-2,1.6672902E-3],"categories":[],"categories_nodes":[],"categories_segments":[],"categories_sizes":[],"default_left":[0,0,0,0,0,0,0,0,0,0,0,0,0,0,0,0,0,0,0,0,0,0,0,0,0,0,0,0,0,0,0,0,0,0,0,0,0,0,0,0,0,0,0,0,0,0,0,0,0,0,0,0,0,0,0,0,0,0,0,0,0,0,0,0,0,0,0,0,0,0,0,0,0,0,0,0,0,0,0,0,0],"id":3,"left_children":[1,3,5,7,9,11,13,15,-1,-1,-1,17,19,21,23,25,27,29,31,33,35,37,39,41,43,45,47,49,51,-1,-1,53,55,-1,57,59,-1,-1,61,-1,-1,-1,-1,-1,63,65,67,-1,69,-1,-1,-1,71,-1,-1,-1,73,75,-1,-1,-1,77,79,-1,-1,-1,-1,-1,-1,-1,-1,-1,-1,-1,-1,-1,-1,-1,-1,-1,-1],"loss_changes":[5.2471077E1,1.8774317E1,2.1080065E1,1.1765541E1,4.989823E0,1.2261936E1,9.020538E0,8.7182045E0,0E0,0E0,0E0,6.6181383E0,4.1826487E0,6.074497E0,5.634235E0,7.418579E0,8.552537E0,3.892046E0,4.725172E0,4.1447587E0,2.1790066E0,4.5947533E0,2.231558E0,3.151498E0,5.0555134E0,6.455186E0,6.0192833E0,5.3620715E0,2.5850058E0,0E0,0E0,3.7659702E0,4.246883E0,0E0,4.336869E0,1.9287071E0,0E0,0E0,4.504593E0,0E0,0E0,0E0,0E0,0E0,2.6818566E0,5.3696847E0,3.3788157E0,0E0,3.7240295E0,0E0,0E0,0E0,1.9059529E0,0E0,0E0,0E0,4.105726E0,2.4099827E0,0E0,0E0,0E0,2.0313985E0,1.9741516E0,0E0,0E0,0E0,0E0,0E0,0E0,0E0,0E0,0E0,0E0,0E0,0E0,0E0,0E0,0E0,0E0,0E0,0E0],"parents":[2147483647,0,0,1,1,2,2,3,3,4,4,5,5,6,6,7,7,11,11,12,12,13,13,14,14,15,15,16,16,17,17,18,18,19,19,20,20,21,21,22,22,23,23,24,24,25,25,26,26,27,27,28,28,31,31,32,32,34,34,35,35,38,38,44,44,45,45,46,46,48,48,52,52,56,56,57,57,61,61,62,62],"right_children":[2,4,6,8,10,12,14,16,-1,-1,-1,18,20,22,24,26,28,30,32,34,36,38,40,42,44,46,48,50,52,-1,-1,54,56,-1,58,60,-1,-1,62,-1,-1,-1,-1,-1,64,66,68,-1,70,-1,-1,-1,72,-1,-1,-1,74,76,-1,-1,-1,78,80,-1,-1,-1,-1,-1,-1,-1,-1,-1,-1,-1,-1,-1,-1,-1,-1,-1,-1],"split_conditions":[-3.207811E-1,9.2576426E-1,-2.6597613E-1,2.8378937E0,3.9434156E-1,1.1560575E0,5.7476026E-1,4.8384064E-1,3.0513735E-2,4.2169906E-2,-1.077329E-2,-2.7392527E-1,-2.1524811E-1,1.4695946E0,2.6066644E-2,3.2870885E-2,3.7726328E-1,-3.692787E-1,1.4596201E-1,-7.973511E-1,7.0894855E-1,-1.6231812E0,5.1937226E-2,-9.4987E-1,-1.1435777E0,-8.0313034E-2,-1.6150112E0,2.2234682E-2,-6.768755E-1,4.699869E-2,-1.3338253E-3,9.10945E-1,-6.292032E-1,2.6291192E-2,-3.1091598E-1,-5.7982606E-1,-0E0,-4.6735415E-3,-6.51784E-1,1.4052805E-2,-2.5182715E-2,-8.857467E-3,3.315466E-2,1.9971767E-2,2.3496252E-1,1.4167924E-1,-7.7337646E-1,1.1759582E-2,1.0423323E0,1.1157989E-2,-3.7564993E-2,-1.0352331E-2,7.482646E-1,-3.2878228E-2,1.2982991E-2,-1.4588999E-2,-6.894961E-1,-9.9462205E-1,1.6162015E-2,-1.3687465E-3,-5.2927446E-2,4.2471055E-2,1.1007764E0,-4.0565837E-2,5.535145E-3,2.5447885E-2,-1.7173136E-2,7.0616314E-3,-4.215339E-2,-5.535293E-2,-0E0,3.913553E-2,-1.5439813E-3,-8.992566E-3,4.526902E-2,3.0478681E-3,-4.208119E-2,-9.264888E-3,2.295686E-2,5.1294547E-2,1.6672902E-3],"split_indices":[3,0,48,17,34,3,1,15,0,0,0,0,36,8,28,49,46,45,0,21,8,8,12,12,43,6,36,52,49,0,0,9,46,0,46,8,0,0,10,0,0,0,0,0,9,47,0,0,26,0,0,0,25,0,0,0,10,5,0,0,0,28,31,0,0,0,0,0,0,0,0,0,0,0,0,0,0,0,0,0,0],"split_type":[0,0,0,0,0,0,0,0,0,0,0,0,0,0,0,0,0,0,0,0,0,0,0,0,0,0,0,0,0,0,0,0,0,0,0,0,0,0,0,0,0,0,0,0,0,0,0,0,0,0,0,0,0,0,0,0,0,0,0,0,0,0,0,0,0,0,0,0,0,0,0,0,0,0,0,0,0,0,0,0,0],"sum_hessian":[2.3358444E2,1.0156505E2,1.320194E2,9.233253E1,9.232526E0,5.215194E1,7.986745E1,8.9335236E1,2.997291E0,6.73996E0,2.4925656E0,2.9214144E1,2.2937796E1,6.0898125E1,1.8969322E1,6.761984E1,2.171539E1,1.1487587E1,1.7726557E1,1.0724607E1,1.2213187E1,5.765095E1,3.247175E0,9.981372E0,8.987949E0,2.6650414E1,4.0969433E1,1.3472913E1,8.242476E0,8.241117E0,3.2464707E0,8.739435E0,8.987122E0,2.497103E0,8.227505E0,9.473852E0,2.7393353E0,2.4940593E0,5.515689E1,1.4991639E0,1.7480112E0,2.2447655E0,7.736607E0,1.9972322E0,6.990717E0,1.4207301E1,1.2443111E1,1.2464681E0,3.9722965E1,3.4962873E0,9.976625E0,1.2493845E0,6.9930916E0,6.7423368E0,1.9970986E0,2.7462864E0,6.240835E0,5.9799366E0,2.247568E0,2.2468107E0,7.2270412E0,6.988759E0,4.8168133E1,5.493597E0,1.4971197E0,6.4847937E0,7.722508E0,1.4961014E0,1.094701E1,3.773183E1,1.9911343E0,5.2451186E0,1.747973E0,1.7465239E0,4.4943113E0,1.745029E0,4.2349076E0,3.9932444E0,2.9955144E0,4.5923023E1,2.2451084E0],"tree_param":{"num_deleted":"0","num_feature":"54","num_nodes":"81","size_leaf_vector":"1"}},{"base_weights":[5.9673004E-2,-6.464825E-1,3.141286E-1,-8.848864E-1,-4.817843E-2,4.1758436E-1,-6.365058E-1,-3.044663E-1,-1.2205359E0,4.3852204E-1,-6.008746E-1,5.510669E-1,-1.1866489E-1,-7.9948306E-1,1.05613535E-2,3.0209096E-2,-6.045325E-1,1.06555205E-2,-1.3706613E0,-1.245751E-2,7.92949E-1,-3.494915E-2,5.6053083E-3,7.370352E-1,2.0747656E-1,3.6240926E-1,-4.8110056E-1,-4.4808537E-2,6.975314E-2,-8.117203E-1,7.850598E-3,3.4333405E-3,-6.286718E-2,4.0845152E-2,-2.1136813E-3,8.96089E-1,-4.1775458E-2,5.868768E-1,-3.5335934E-1,5.470765E-1,-1.2990178E-2,-7.344995E-1,1.0083699E-2,2.2448417E-2,-1.5647193E-2,2.8691176E-2,-9.948921E-1,9.718552E-1,-3.877217E-2,-4.934486E-1,2.6156154E-2,8.295834E-1,-1.2641219E-2,3.492787E-1,-5.8670044E-1,7.833894E-1,-1.236425E-2,1.0716414E-2,-8.862613E-1,2.0942308E-2,-1.7214168E-2,-4.9291596E-2,3.6056815E-3,-1.0158605E-2,4.3806013E-2,-1.8793741E-2,1.5392921E-2,-3.6153033E-2,1.596782E-2,4.3165892E-2,-7.4636037E-3,2.9272703E-2,-8.85958E-3,-3.8284224E-2,6.3725207E-3,-5.4269675E-3,4.148517E-2,-4.566639E-2,1.6634518E-3],"categories":[],"categories_nodes":[],"categories_segments":[],"categories_sizes":[],"default_left":[0,0,0,0,0,0,0,0,0,0,0,0,0,0,0,0,0,0,0,0,0,0,0,0,0,0,0,0,0,0,0,0,0,0,0,0,0,0,0,0,0,0,0,0,0,0,0,0,0,0,0,0,0,0,0,0,0,0,0,0,0,0,0,0,0,0,0,0,0,0,0,0,0,0,0,0,0,0,0],"id":4,"left_children":[1,3,5,7,9,11,13,15,17,19,21,23,25,27,-1,-1,29,-1,31,-1,33,-1,-1,35,37,39,41,-1,43,45,-1,-1,-1,-1,-1,47,49,51,53,55,-1,57,-1,-1,-1,59,61,63,65,67,-1,69,-1,71,73,75,-1,-1,77,-1,-1,-1,-1,-1,-1,-1,-1,-1,-1,-1,-1,-1,-1,-1,-1,-1,-1,-1,-1],"loss_changes":[4.2748325E1,8.586525E0,1.8133007E1,6.903492E0,6.984276E0,1.1822659E1,3.5223951E0,8.089629E0,7.4433746E0,4.5264874E0,2.5034027E0,7.455143E0,6.7112613E0,4.1133766E0,0E0,0E0,3.7831063E0,0E0,4.385845E0,0E0,1.8330755E0,0E0,0E0,1.05124855E1,1.1695354E1,2.7309887E0,4.7001343E0,0E0,2.130659E0,2.7894936E0,0E0,0E0,0E0,0E0,0E0,5.231476E0,6.157931E0,7.927291E0,4.5347323E0,3.8688822E0,0E0,3.5503826E0,0E0,0E0,0E0,1.9836607E0,2.9042053E0,5.1439133E0,1.9571178E0,5.0857763E0,0E0,5.630062E0,0E0,2.0839994E0,4.9202814E0,2.8275933E0,0E0,0E0,3.0872726E0,0E0,0E0,0E0,0E0,0E0,0E0,0E0,0E0,0E0,0E0,0E0,0E0,0E0,0E0,0E0,0E0,0E0,0E0,0E0,0E0],"parents":[2147483647,0,0,1,1,2,2,3,3,4,4,5,5,6,6,7,7,8,8,9,9,10,10,11,11,12,12,13,13,16,16,18,18,20,20,23,23,24,24,25,25,26,26,28,28,29,29,35,35,36,36,37,37,38,38,39,39,41,41,45,45,46,46,47,47,48,48,49,49,51,51,53,53,54,54,55,55,58,58],"right_children":[2,4,6,8,10,12,14,16,18,20,22,24,26,28,-1,-1,30,-1,32,-1,34,-1,-1,36,38,40,42,-1,44,46,-1,-1,-1,-1,-1,48,50,52,54,56,-1,58,-1,-1,-1,60,62,64,66,68,-1,70,-1,72,74,76,-1,-1,78,-1,-1,-1,-1,-1,-1,-1,-1,-1,-1,-1,-1,-1,-1,-1,-1,-1,-1,-1,-1],"split_conditions":[-3.3209983E-1,4.734592E-1,1.8245864E0,-1.5978076E-1,-2.4788435E-1,5.52985E-1,1.4810768E0,-7.024886E-1,-1.0366741E0,-1.6586007E-1,5.163114E-1,2.1424077E-1,-4.3226323E-1,-5.775422E-1,1.05613535E-2,3.0209096E-2,2.694479E-1,1.06555205E-2,-1.3277239E0,-1.245751E-2,-1.3664323E-1,-3.494915E-2,5.6053083E-3,7.652574E-1,8.011503E-2,2.507602E-1,4.896134E-1,-4.4808537E-2,-2.2760202E-1,-1.2229378E-1,7.850598E-3,3.4333405E-3,-6.286718E-2,4.0845152E-2,-2.1136813E-3,1.4695946E0,4.5021653E-2,6.3815475E-1,-1.2246172E0,1.707972E-1,-1.2990178E-2,-1.0789981E0,1.0083699E-2,2.2448417E-2,-1.5647193E-2,2.8424737E-1,1.279053E0,-1.8836204E0,4.753253E-1,2.1316232E-1,2.6156154E-2,7.8825647E-1,-1.2641219E-2,-4.4407898E-1,6.385165E-1,-5.555427E-1,-1.236425E-2,1.0716414E-2,1.171583E0,2.0942308E-2,-1.7214168E-2,-4.9291596E-2,3.6056815E-3,-1.0158605E-2,4.3806013E-2,-1.8793741E-2,1.5392921E-2,-3.6153033E-2,1.596782E-2,4.3165892E-2,-7.4636037E-3,2.9272703E-2,-8.85958E-3,-3.8284224E-2,6.3725207E-3,-5.4269675E-3,4.148517E-2,-4.566639E-2,1.6634518E-3],"split_indices":[7,15,3,36,34,37,16,18,53,31,46,21,8,52,0,0,41,0,34,0,39,0,0,13,34,40,26,0,21,13,0,0,0,0,0,8,37,42,13,7,0,10,0,0,0,1,23,4,35,49,0,36,0,40,53,50,0,0,15,0,0,0,0,0,0,0,0,0,0,0,0,0,0,0,0,0,0,0,0],"split_type":[0,0,0,0,0,0,0,0,0,0,0,0,0,0,0,0,0,0,0,0,0,0,0,0,0,0,0,0,0,0,0,0,0,0,0,0,0,0,0,0,0,0,0,0,0,0,0,0,0,0,0,0,0,0,0,0,0,0,0,0,0,0,0,0,0,0,0,0,0,0,0,0,0,0,0,0,0,0,0],"sum_hessian":[2.3047577E2,5.9269974E1,1.712058E2,4.080548E1,1.8464495E1,1.5652158E2,1.4684224E1,1.7823252E1,2.2982227E1,9.979902E0,8.484593E0,1.2562556E2,3.089602E1,1.2939386E1,1.7448381E0,2.7347708E0,1.5088481E1,1.7452753E0,2.1236952E1,3.2425706E0,6.737332E0,6.485657E0,1.9989356E0,7.826895E1,4.7356598E1,1.2972097E1,1.7923923E1,9.701816E0,3.2375708E0,1.2116434E1,2.9720473E0,1.240044E0,1.9996908E1,5.4888906E0,1.2484412E0,6.4803986E1,1.3464965E1,2.8416779E1,1.8939821E1,1.0976423E1,1.9956748E0,1.3439088E1,4.4848356E0,1.4986647E0,1.7389059E0,2.4783216E0,9.638112E0,6.006298E1,4.7410088E0,8.729568E0,4.735398E0,2.2688675E1,5.7281027E0,3.988787E0,1.4951035E1,8.978989E0,1.9974347E0,1.2465522E0,1.2192535E1,1.2413297E0,1.2369918E0,8.396882E0,1.24123E0,1.7462859E0,5.8316696E1,2.4955797E0,2.2454293E0,6.4845076E0,2.24506E0,1.9444624E1,3.2440522E0,2.2435806E0,1.7452065E0,1.0213007E1,4.7380276E0,1.4960865E0,7.4829016E0,9.946218E0,2.2463171E0],"tree_param":{"num_deleted":"0","num_feature":"54","num_nodes":"79","size_leaf_vector":"1"}},{"base_weights":[6.8877116E-2,-4.4384068E-1,4.578534E-1,3.5707194E-1,-6.615232E-1,6.0632944E-1,-6.0957706E-1,6.5603125E-1,-2.1428863E-2,-1.0683579E-1,-8.8646406E-1,7.39232E-1,1.2588261E-1,-8.2390255E-1,9.429349E-3,1.1108929E0,-1.901964E-1,-4.3211547E-1,3.9172056E-1,7.8217395E-2,-9.9165004E-1,8.618365E-2,8.569189E-1,6.0962147E-1,-3.361136E-1,3.3639278E-3,-9.7657365E-1,-1.6013714E-3,5.3780735E-2,-4.9826977E-1,1.8793333E-2,-3.7180383E-2,9.1072194E-2,3.3704467E-2,-1.2714017E-2,2.3766518E-2,-1.5044574E-2,1.0740743E-2,-1.0568095E0,2.4616791E-2,-2.5362727E-1,2.7448658E-2,9.2560875E-1,-9.214427E-3,8.0752796E-1,1.7248556E-1,-7.337126E-1,-4.788064E-2,2.8746906E-3,9.11897E-3,-3.543562E-2,-1.7200688E-2,4.7553372E-1,3.2665571E-3,-1.1074494E0,-3.0906055E-2,1.605872E-2,2.160679E-2,-1.6887963E-2,1.1115947E0,4.4410154E-1,4.2603664E-2,-1.973413E-3,5.3267246E-1,-1.41417105E-2,3.5364549E-3,-4.0358126E-2,3.4799177E-2,-6.2468876E-3,3.1769948E-4,-4.9596693E-2,5.00408E-2,-1.0282634E-2,-1.14488145E-2,2.882477E-2,3.4511074E-2,-5.909395E-3],"categories":[],"categories_nodes":[],"categories_segments":[],"categories_sizes":[],"default_left":[0,0,0,0,0,0,0,0,0,0,0,0,0,0,0,0,0,0,0,0,0,0,0,0,0,0,0,0,0,0,0,0,0,0,0,0,0,0,0,0,0,0,0,0,0,0,0,0,0,0,0,0,0,0,0,0,0,0,0,0,0,0,0,0,0,0,0,0,0,0,0,0,0,0,0,0,0],"id":5,"left_children":[1,3,5,7,9,11,13,15,-1,17,19,21,23,25,-1,27,29,31,33,35,37,39,41,43,45,-1,47,-1,-1,49,-1,-1,51,-1,-1,-1,-1,-1,53,-1,55,57,59,-1,61,63,65,-1,-1,-1,-1,-1,67,-1,69,-1,-1,-1,-1,71,73,-1,-1,75,-1,-1,-1,-1,-1,-1,-1,-1,-1,-1,-1,-1,-1],"loss_changes":[4.8018803E1,1.905617E1,2.3060951E1,7.5053473E0,9.774342E0,7.237255E0,4.09317E0,8.673403E0,0E0,5.268307E0,6.442486E0,6.751812E0,7.8413477E0,2.6662292E0,0E0,2.7878628E0,2.752201E0,4.919464E0,4.5195727E0,2.6122715E0,5.4929047E0,3.766326E0,4.1841583E0,3.558897E0,4.287006E0,0E0,2.6182709E0,0E0,0E0,2.8511615E0,0E0,0E0,2.9854226E0,0E0,0E0,0E0,0E0,0E0,3.5264053E0,0E0,5.0547676E0,2.8220606E0,4.2989426E0,0E0,2.7760077E0,2.6430516E0,2.4265409E0,0E0,0E0,0E0,0E0,0E0,2.4360662E0,0E0,3.2147293E0,0E0,0E0,0E0,0E0,5.2099724E0,5.17043E0,0E0,0E0,2.0471988E0,0E0,0E0,0E0,0E0,0E0,0E0,0E0,0E0,0E0,0E0,0E0,0E0,0E0],"parents":[2147483647,0,0,1,1,2,2,3,3,4,4,5,5,6,6,7,7,9,9,10,10,11,11,12,12,13,13,15,15,16,16,17,17,18,18,19,19,20,20,21,21,22,22,23,23,24,24,26,26,29,29,32,32,38,38,40,40,41,41,42,42,44,44,45,45,46,46,52,52,54,54,59,59,60,60,63,63],"right_children":[2,4,6,8,10,12,14,16,-1,18,20,22,24,26,-1,28,30,32,34,36,38,40,42,44,46,-1,48,-1,-1,50,-1,-1,52,-1,-1,-1,-1,-1,54,-1,56,58,60,-1,62,64,66,-1,-1,-1,-1,-1,68,-1,70,-1,-1,-1,-1,72,74,-1,-1,76,-1,-1,-1,-1,-1,-1,-1,-1,-1,-1,-1,-1,-1],"split_conditions":[-3.207811E-1,-4.5723414E-1,1.7938519E0,6.2884486E-1,-2.6777905E-1,8.7652284E-1,-4.9553733E-2,2.7247834E-1,-2.1428863E-2,3.5751286E-1,-1.2327864E0,-9.396261E-1,-1.0174451E0,-7.336941E-2,9.429349E-3,-1.2984517E0,1.2744308E0,5.9579045E-1,-1.8752408E-1,-1.14839114E-1,-1.6378288E0,-4.7464564E-1,-1.1777617E0,4.753253E-1,2.7229432E-2,3.3639278E-3,8.0779195E-1,-1.6013714E-3,5.3780735E-2,-2.7984E-1,1.8793333E-2,-3.7180383E-2,-2.915482E-1,3.3704467E-2,-1.2714017E-2,2.3766518E-2,-1.5044574E-2,1.0740743E-2,-9.244358E-1,2.4616791E-2,7.4460894E-2,-4.98168E-1,3.6488453E-1,-9.214427E-3,6.514786E-1,-3.688567E-1,-6.046879E-1,-4.788064E-2,2.8746906E-3,9.11897E-3,-3.543562E-2,-1.7200688E-2,-1.3897443E-2,3.2665571E-3,-7.912703E-1,-3.0906055E-2,1.605872E-2,2.160679E-2,-1.6887963E-2,9.357909E-1,-8.2132006E-1,4.2603664E-2,-1.973413E-3,2.6819503E-1,-1.41417105E-2,3.5364549E-3,-4.0358126E-2,3.4799177E-2,-6.2468876E-3,3.1769948E-4,-4.9596693E-2,5.00408E-2,-1.0282634E-2,-1.14488145E-2,2.882477E-2,3.4511074E-2,-5.909395E-3],"split_indices":[3,16,3,31,27,34,2,6,0,19,8,12,47,35,0,6,28,31,25,33,1,34,39,35,8,0,28,0,0,19,0,0,13,0,0,0,0,0,0,0,10,33,36,0,1,2,13,0,0,0,0,0,34,0,20,0,0,0,0,52,20,0,0,36,0,0,0,0,0,0,0,0,0,0,0,0,0],"split_type":[0,0,0,0,0,0,0,0,0,0,0,0,0,0,0,0,0,0,0,0,0,0,0,0,0,0,0,0,0,0,0,0,0,0,0,0,0,0,0,0,0,0,0,0,0,0,0,0,0,0,0,0,0,0,0,0,0,0,0,0,0,0,0,0,0,0,0,0,0,0,0,0,0,0,0,0,0],"sum_hessian":[2.332648E2,1.0011719E2,1.3314761E2,2.063698E1,7.948021E1,1.18506294E2,1.4641316E1,1.6173964E1,4.463016E0,2.483907E1,5.464114E1,9.0845314E1,2.7660986E1,1.1903418E1,2.7378983E0,9.9613695E0,6.212594E0,1.5641501E1,9.197567E0,5.22656E0,4.9414577E1,1.5184977E1,7.566033E1,1.3203833E1,1.4457153E1,1.7400343E0,1.01633835E1,1.2426138E0,8.718756E0,4.964004E0,1.2485898E0,7.4499927E0,8.191509E0,5.7359E0,3.461667E0,2.2443895E0,2.9821706E0,1.7385702E0,4.767601E1,5.4764485E0,9.7085285E0,6.4683895E0,6.919194E1,2.2407484E0,1.0963084E1,6.982595E0,7.474558E0,8.918095E0,1.2452887E0,1.7450343E0,3.2189696E0,3.2217805E0,4.9697285E0,1.7426456E0,4.5933365E1,5.478994E0,4.229534E0,2.9775426E0,3.4908469E0,4.6026886E1,2.3165058E1,8.717631E0,2.2454531E0,4.238764E0,2.7438312E0,1.7394468E0,5.735111E0,2.7428806E0,2.2268481E0,1.9767962E0,4.3956566E1,4.478069E1,1.2461957E0,5.233848E0,1.793121E1,2.7452478E0,1.4935157E0],"tree_param":{"num_deleted":"0","num_feature":"54","num_nodes":"77","size_leaf_vector":"1"}},{"base_weights":[4.3136805E-2,-4.24036E-1,3.592713E-1,-5.9577996E-1,3.2337928E-1,5.0609726E-1,-4.2821166E-1,-7.6374596E-1,3.1640473E-1,6.065183E-1,-1.9374434E-2,-1.2876737E-1,6.452385E-1,-6.217637E-1,2.1291807E-2,-3.4233505E-1,-1.0805922E0,3.5052486E-2,-2.5844288E-1,-9.943468E-3,4.0262762E-2,2.3165967E-1,-5.6453514E-1,7.642689E-1,-3.1784553E-2,-8.834386E-1,2.0819658E-1,-5.707994E-1,4.219534E-1,3.912908E-3,-1.138419E0,8.991985E-3,-2.8770216E-2,-2.823359E-1,3.267229E-2,8.404189E-3,-8.2873017E-1,3.787943E-1,1.0367761E0,2.0053836E-2,-3.2729232E-1,-1.0231299E0,3.030314E-3,-1.1084571E-2,2.432291E-2,-7.593228E-1,8.759665E-2,2.9579032E-2,-1.1501494E-2,-1.2134131E0,-0E0,1.8747505E-2,-2.5026068E-2,1.9271835E-3,-4.267479E-2,5.98454E-1,-2.5947204E-1,1.2034898E0,1.4419556E-1,-6.417041E-1,1.7417695E-2,-4.8841085E-2,-0E0,-3.9092068E-2,7.1333526E-3,2.0522779E-2,-1.5595977E-2,4.848814E-4,-5.4727904E-2,2.957804E-2,-1.4109531E-2,1.3547452E-2,-2.8904764E-2,5.3842522E-2,-3.0637158E-3,2.123175E-2,-1.8678613E-2,-3.8485065E-2,8.848949E-3],"categories":[],"categories_nodes":[],"categories_segments":[],"categories_sizes":[],"default_left":[0,0,0,0,0,0,0,0,0,0,0,0,0,0,0,0,0,0,0,0,0,0,0,0,0,0,0,0,0,0,0,0,0,0,0,0,0,0,0,0,0,0,0,0,0,0,0,0,0,0,0,0,0,0,0,0,0,0,0,0,0,0,0,0,0,0,0,0,0,0,0,0,0,0,0,0,0,0,0],"id":6,"left_children":[1,3,5,7,9,11,13,15,17,19,-1,21,23,25,-1,27,29,-1,31,-1,-1,33,35,37,39,41,43,45,47,-1,49,-1,-1,51,-1,-1,53,55,57,-1,59,61,-1,-1,-1,63,65,-1,-1,67,-1,-1,-1,-1,-1,69,71,73,75,77,-1,-1,-1,-1,-1,-1,-1,-1,-1,-1,-1,-1,-1,-1,-1,-1,-1,-1,-1],"loss_changes":[3.4733883E1,1.2952549E1,1.7055721E1,1.3063776E1,5.4197397E0,1.1067001E1,5.4456077E0,7.3102837E0,5.1580133E0,5.591391E0,0E0,4.4009113E0,8.305515E0,5.538001E0,0E0,7.018271E0,3.1355743E0,0E0,2.469472E0,0E0,0E0,5.207081E0,3.267432E0,7.1297646E0,3.2165482E0,2.823492E0,1.9633702E0,3.9772844E0,2.6419935E0,0E0,3.3160362E0,0E0,0E0,3.2653718E0,0E0,0E0,1.9166985E0,6.4839067E0,6.0624847E0,0E0,4.242519E0,2.0714264E0,0E0,0E0,0E0,4.048214E0,2.3474212E0,0E0,0E0,3.0848465E0,0E0,0E0,0E0,0E0,0E0,3.7319946E0,3.9859984E0,3.4067726E0,3.2576816E0,3.3709126E0,0E0,0E0,0E0,0E0,0E0,0E0,0E0,0E0,0E0,0E0,0E0,0E0,0E0,0E0,0E0,0E0,0E0,0E0,0E0],"parents":[2147483647,0,0,1,1,2,2,3,3,4,4,5,5,6,6,7,7,8,8,9,9,11,11,12,12,13,13,15,15,16,16,18,18,21,21,22,22,23,23,24,24,25,25,26,26,27,27,28,28,30,30,33,33,36,36,37,37,38,38,40,40,41,41,45,45,46,46,49,49,55,55,56,56,57,57,58,58,59,59],"right_children":[2,4,6,8,10,12,14,16,18,20,-1,22,24,26,-1,28,30,-1,32,-1,-1,34,36,38,40,42,44,46,48,-1,50,-1,-1,52,-1,-1,54,56,58,-1,60,62,-1,-1,-1,64,66,-1,-1,68,-1,-1,-1,-1,-1,70,72,74,76,78,-1,-1,-1,-1,-1,-1,-1,-1,-1,-1,-1,-1,-1,-1,-1,-1,-1,-1,-1],"split_conditions":[-4.0711364E-1,4.6298775E-1,1.4669048E0,1.1940336E0,8.8227046E-1,-5.954729E-1,-7.063303E-2,2.4353977E-1,5.0306475E-1,-1.8727727E-1,-1.9374434E-2,5.394198E-1,1.0377535E0,1.2189544E0,2.1291807E-2,8.781794E-1,-8.42317E-1,3.5052486E-2,1.6597968E-1,-9.943468E-3,4.0262762E-2,8.445073E-3,-6.42853E-1,-1.9085784E-2,-7.514228E-1,7.649312E-1,-6.189468E-1,4.4204172E-1,3.2467893E-1,3.912908E-3,9.4688773E-1,8.991985E-3,-2.8770216E-2,-1.924E-2,3.267229E-2,8.404189E-3,-1.2595457E0,4.0827402E-1,7.643695E-2,2.0053836E-2,9.51174E-1,3.86053E-1,3.030314E-3,-1.1084571E-2,2.432291E-2,4.4284153E-1,1.027005E0,2.9579032E-2,-1.1501494E-2,-1.2540393E0,-0E0,1.8747505E-2,-2.5026068E-2,1.9271835E-3,-4.267479E-2,1.2856883E0,-1.1782163E0,1.6624782E0,2.8424737E-1,5.788068E-1,1.7417695E-2,-4.8841085E-2,-0E0,-3.9092068E-2,7.1333526E-3,2.0522779E-2,-1.5595977E-2,4.848814E-4,-5.4727904E-2,2.957804E-2,-1.4109531E-2,1.3547452E-2,-2.8904764E-2,5.3842522E-2,-3.0637158E-3,2.123175E-2,-1.8678613E-2,-3.8485065E-2,8.848949E-3],"split_indices":[3,0,3,17,9,10,48,40,52,46,0,7,22,39,0,20,18,0,23,0,0,33,45,15,51,14,52,4,34,0,11,0,0,13,0,0,26,21,52,0,1,24,0,0,0,26,37,0,0,17,0,0,0,0,0,3,27,1,1,7,0,0,0,0,0,0,0,0,0,0,0,0,0,0,0,0,0,0,0],"split_type":[0,0,0,0,0,0,0,0,0,0,0,0,0,0,0,0,0,0,0,0,0,0,0,0,0,0,0,0,0,0,0,0,0,0,0,0,0,0,0,0,0,0,0,0,0,0,0,0,0,0,0,0,0,0,0,0,0,0,0,0,0,0,0,0,0,0,0,0,0,0,0,0,0,0,0,0,0,0,0],"sum_hessian":[2.2775607E2,9.108221E1,1.3667387E2,7.495405E1,1.6128159E1,1.1658699E2,2.0086887E1,6.404527E1,1.0908774E1,1.2654476E1,3.473682E0,2.0677778E1,9.590921E1,1.7851244E1,2.235643E0,3.1146658E1,3.2898613E1,5.212061E0,5.6967134E0,3.715631E0,8.938845E0,1.1947119E1,8.73066E0,8.1483025E1,1.4426185E1,1.3624714E1,4.22653E0,2.4959694E1,6.186965E0,1.2372417E0,3.1661371E1,3.2402606E0,2.456453E0,6.7196536E0,5.2274656E0,2.2453065E0,6.485354E0,3.780836E1,4.3674664E1,4.2250905E0,1.0201095E1,1.1885328E1,1.7393863E0,1.9856287E0,2.2409012E0,1.9263577E1,5.696118E0,4.713689E0,1.4732761E0,2.9676388E1,1.9849836E0,1.2467265E0,5.472927E0,1.2472254E0,5.238128E0,2.8598452E1,9.209909E0,3.5470493E1,8.20417E0,7.7157035E0,2.485391E0,1.039682E1,1.4885082E0,1.6784578E1,2.478998E0,3.2320776E0,2.4640403E0,1.4810866E0,2.8195301E1,2.7102026E1,1.4964262E0,3.9778447E0,5.2320647E0,3.4230778E1,1.239715E0,5.717574E0,2.486596E0,5.9755826E0,1.7401209E0],"tree_param":{"num_deleted":"0","num_feature":"54","num_nodes":"79","size_leaf_vector":"1"}},{"base_weights":[4.7325954E-2,-4.2591718E-1,3.763902E-1,3.716045E-2,-5.2594775E-1,4.9474847E-1,-5.10175E-1,-6.687918E-1,1.7181188E-1,7.304331E-1,9.077396E-2,2.3853308E-1,-3.7768375E-2,-7.195375E-1,2.1539211E-2,6.2024754E-1,-2.4254272E-2,-1.8141627E-2,7.9252607E-1,-3.0078843E-1,3.7521783E-1,2.6303768E-2,-1.0267032E-2,-3.4980882E-2,-8.359459E-1,9.548619E-1,-1.5058238E-2,-7.4478656E-2,9.052939E-1,-7.7698547E-1,2.5966847E-1,3.923311E-2,7.316445E-2,-3.9285836E-1,1.9284677E-2,9.779008E-3,-8.829112E-1,4.7507975E-2,-9.191174E-4,3.8178998E-1,-2.4479639E-2,9.5655215E-1,-0E0,-4.977408E-2,9.95754E-3,2.8420676E-2,-3.1501338E-1,-2.3047635E-1,2.7149465E-2,-2.9231846E-2,1.0397057E-2,-3.9617803E-2,1.1457227E-2,3.1558935E-2,-1.0786058E-2,4.270786E-2,-0E0,1.0539757E-2,-2.5875304E-2,1.8774576E-2,-2.0003617E-2],"categories":[],"categories_nodes":[],"categories_segments":[],"categories_sizes":[],"default_left":[0,0,0,0,0,0,0,0,0,0,0,0,0,0,0,0,0,0,0,0,0,0,0,0,0,0,0,0,0,0,0,0,0,0,0,0,0,0,0,0,0,0,0,0,0,0,0,0,0,0,0,0,0,0,0,0,0,0,0,0,0],"id":7,"left_children":[1,3,5,-1,7,9,11,13,15,17,19,21,-1,23,-1,25,-1,-1,27,29,31,-1,-1,33,35,37,-1,39,41,43,45,-1,47,49,-1,-1,51,-1,-1,53,-1,55,-1,-1,-1,-1,57,59,-1,-1,-1,-1,-1,-1,-1,-1,-1,-1,-1,-1,-1],"loss_changes":[3.6898304E1,1.4180037E1,1.56068E1,0E0,9.783306E0,1.149395E1,5.9838448E0,6.0361977E0,7.4102483E0,6.958027E0,6.104965E0,2.2098444E0,0E0,5.7595253E0,0E0,5.7705984E0,0E0,0E0,7.878208E0,7.043661E0,4.655795E0,0E0,0E0,3.3029556E0,4.158531E0,2.07018E0,0E0,3.5622013E0,3.2747192E0,6.578948E0,3.923528E0,0E0,4.8354297E0,2.7800794E0,0E0,0E0,4.240547E0,0E0,0E0,2.6581879E0,0E0,2.7914314E0,0E0,0E0,0E0,0E0,1.8965173E0,3.6867766E0,0E0,0E0,0E0,0E0,0E0,0E0,0E0,0E0,0E0,0E0,0E0,0E0,0E0],"parents":[2147483647,0,0,1,1,2,2,4,4,5,5,6,6,7,7,8,8,9,9,10,10,11,11,13,13,15,15,18,18,19,19,20,20,23,23,24,24,25,25,27,27,28,28,29,29,30,30,32,32,33,33,36,36,39,39,41,41,46,46,47,47],"right_children":[2,4,6,-1,8,10,12,14,16,18,20,22,-1,24,-1,26,-1,-1,28,30,32,-1,-1,34,36,38,-1,40,42,44,46,-1,48,50,-1,-1,52,-1,-1,54,-1,56,-1,-1,-1,-1,58,60,-1,-1,-1,-1,-1,-1,-1,-1,-1,-1,-1,-1,-1],"split_conditions":[-3.5356444E-1,-1.5503803E0,1.8245864E0,3.716045E-2,7.005028E-1,2.1085064E-1,-7.151279E-1,2.8378937E0,7.194675E-1,-1.3646727E0,-2.0401773E-1,9.4824545E-2,-3.7768375E-2,-1.0455753E0,2.1539211E-2,3.122015E-1,-2.4254272E-2,-1.8141627E-2,-1.1683357E0,3.647229E-1,-8.26314E-2,2.6303768E-2,-1.0267032E-2,4.421885E-1,-1.30556E0,9.644994E-1,-1.5058238E-2,5.8070934E-1,4.4400015E-1,1.1135538E0,6.5615624E-2,3.923311E-2,1.3239049E0,4.535457E-1,1.9284677E-2,9.779008E-3,1.6670948E0,4.7507975E-2,-9.191174E-4,-1.284757E0,-2.4479639E-2,1.857794E0,-0E0,-4.977408E-2,9.95754E-3,2.8420676E-2,-1.0966039E0,-6.997286E-1,2.7149465E-2,-2.9231846E-2,1.0397057E-2,-3.9617803E-2,1.1457227E-2,3.1558935E-2,-1.0786058E-2,4.270786E-2,-0E0,1.0539757E-2,-2.5875304E-2,1.8774576E-2,-2.0003617E-2],"split_indices":[3,26,3,0,15,1,1,17,40,2,46,6,0,28,0,25,0,0,14,16,27,0,0,46,51,52,0,41,49,35,8,0,27,26,0,0,26,0,0,14,0,35,0,0,0,0,29,25,0,0,0,0,0,0,0,0,0,0,0,0,0],"split_type":[0,0,0,0,0,0,0,0,0,0,0,0,0,0,0,0,0,0,0,0,0,0,0,0,0,0,0,0,0,0,0,0,0,0,0,0,0,0,0,0,0,0,0,0,0,0,0,0,0,0,0,0,0,0,0,0,0,0,0,0,0],"sum_hessian":[2.2949272E2,9.335905E1,1.3613368E2,4.46671E0,8.8892334E1,1.2180138E2,1.4332304E1,7.421903E1,1.4673298E1,7.462958E1,4.7171803E1,4.981411E0,9.350894E0,7.272282E1,1.4962153E0,9.717756E0,4.955542E0,2.4941573E0,7.2135414E1,1.9380377E1,2.7791426E1,2.4953115E0,2.4860992E0,1.1589906E1,6.1132915E1,7.475062E0,2.2426944E0,8.18639E0,6.3949028E1,9.949565E0,9.430813E0,6.9367957E0,2.085463E1,7.386348E0,4.2035584E0,1.7463521E0,5.9386562E1,6.2310133E0,1.2440488E0,4.4550734E0,3.7313166E0,6.0471004E1,3.4780235E0,6.9680996E0,2.9814656E0,5.4539185E0,3.976894E0,1.4660659E1,6.19397E0,5.155432E0,2.2309153E0,5.814003E1,1.246531E0,2.7217255E0,1.7333479E0,5.7983974E1,2.4870276E0,1.2437878E0,2.7331061E0,2.7281806E0,1.1932478E1],"tree_param":{"num_deleted":"0","num_feature":"54","num_nodes":"61","size_leaf_vector":"1"}},{"base_weights":[4.5336448E-3,-4.3947113E-1,3.4703773E-1,3.982635E-2,-5.3649056E-1,4.814906E-1,-6.7467296E-1,-7.1746796E-1,5.624106E-2,5.6807035E-1,-3.594216E-1,-8.4877056E-1,7.3166275E-3,-8.51583E-1,-1.0101712E-1,-4.0369126E-1,5.4947406E-1,3.4233087E-1,9.181009E-1,-6.429892E-1,1.4675777E-2,-4.1731607E-2,3.5383063E-3,-0E0,-9.402415E-1,5.0576615E-1,-5.5386233E-1,-7.3124874E-1,2.0314284E-2,-1.3148549E-2,8.210113E-1,6.1609155E-1,-1.6622348E-1,1.0452586E0,-9.591364E-2,9.4042905E-3,-3.9483983E-2,1.4258008E-2,-2.2201398E-2,-0E0,-1.0058444E0,3.2807168E-2,-6.931172E-3,9.9920165E-3,-7.88791E-1,-8.7316495E-1,4.272086E-3,-9.148862E-3,4.4259485E-2,8.181421E-1,1.1147483E-1,-5.1554406E-1,5.9408313E-1,1.182814E0,-9.088548E-3,-2.4283165E-2,1.5138207E-2,1.736387E-2,-1.7574765E-2,8.758279E-4,-4.5532115E-2,2.6303823E-3,-4.0778067E-2,2.002555E-3,-4.3864463E-2,-8.242961E-3,4.011919E-2,-2.0091176E-2,2.3285769E-2,-4.5871012E-2,7.50872E-3,3.576083E-2,-1.0475787E-2,-2.63959E-3,5.336375E-2,1.6237255E-2,-2.1988556E-2],"categories":[],"categories_nodes":[],"categories_segments":[],"categories_sizes":[],"default_left":[0,0,0,0,0,0,0,0,0,0,0,0,0,0,0,0,0,0,0,0,0,0,0,0,0,0,0,0,0,0,0,0,0,0,0,0,0,0,0,0,0,0,0,0,0,0,0,0,0,0,0,0,0,0,0,0,0,0,0,0,0,0,0,0,0,0,0,0,0,0,0,0,0,0,0,0,0],"id":8,"left_children":[1,3,5,-1,7,9,11,13,15,17,19,21,-1,23,25,27,29,31,33,35,-1,-1,-1,37,39,41,43,45,-1,-1,47,49,51,53,55,-1,-1,-1,-1,57,59,-1,-1,-1,61,63,-1,-1,-1,65,67,69,71,73,75,-1,-1,-1,-1,-1,-1,-1,-1,-1,-1,-1,-1,-1,-1,-1,-1,-1,-1,-1,-1,-1,-1],"loss_changes":[3.5616177E1,1.5283314E1,1.9371426E1,0E0,1.0783312E1,9.516098E0,3.1776142E0,5.665325E0,6.742286E0,7.212433E0,3.5167685E0,2.2734976E0,0E0,4.443554E0,6.0009713E0,5.754308E0,4.407169E0,1.0700873E1,5.8399124E0,3.5744662E0,0E0,0E0,0E0,2.3447633E0,3.277523E0,2.2556212E0,3.1062918E0,2.0323372E0,0E0,0E0,3.7169018E0,4.396145E0,8.618631E0,5.640148E0,2.4327085E0,0E0,0E0,0E0,0E0,1.8579696E0,3.4459991E0,0E0,0E0,0E0,1.9286871E0,2.0532742E0,0E0,0E0,0E0,4.967291E0,5.6494126E0,9.231852E0,3.020365E0,3.2195091E0,2.2673879E0,0E0,0E0,0E0,0E0,0E0,0E0,0E0,0E0,0E0,0E0,0E0,0E0,0E0,0E0,0E0,0E0,0E0,0E0,0E0,0E0,0E0,0E0],"parents":[2147483647,0,0,1,1,2,2,4,4,5,5,6,6,7,7,8,8,9,9,10,10,11,11,13,13,14,14,15,15,16,16,17,17,18,18,19,19,23,23,24,24,25,25,26,26,27,27,30,30,31,31,32,32,33,33,34,34,39,39,40,40,44,44,45,45,49,49,50,50,51,51,52,52,53,53,54,54],"right_children":[2,4,6,-1,8,10,12,14,16,18,20,22,-1,24,26,28,30,32,34,36,-1,-1,-1,38,40,42,44,46,-1,-1,48,50,52,54,56,-1,-1,-1,-1,58,60,-1,-1,-1,62,64,-1,-1,-1,66,68,70,72,74,76,-1,-1,-1,-1,-1,-1,-1,-1,-1,-1,-1,-1,-1,-1,-1,-1,-1,-1,-1,-1,-1,-1],"split_conditions":[-3.159501E-1,-1.5503803E0,1.8245864E0,3.982635E-2,4.589944E-1,4.791154E-1,1.1455024E0,4.29923E-1,-1.8787071E-1,1.3581023E-1,9.8209155E-1,7.116104E-1,7.3166275E-3,-1.0227826E0,6.60858E-1,1.5823068E-1,-4.1480425E-1,-1.0474087E-1,6.789576E-1,-3.5366705E-1,1.4675777E-2,-4.1731607E-2,3.5383063E-3,1.6202899E0,-1.3877801E0,1.4417071E0,-9.042599E-1,6.864787E-1,2.0314284E-2,-1.3148549E-2,-1.8696629E-1,1.6708545E-1,5.257771E-1,7.029072E-1,6.7708194E-1,9.4042905E-3,-3.9483983E-2,1.4258008E-2,-2.2201398E-2,-2.4103498E-1,-8.469575E-1,3.2807168E-2,-6.931172E-3,9.9920165E-3,-1.1052372E0,-9.003255E-1,4.272086E-3,-9.148862E-3,4.4259485E-2,-1.7738162E0,6.423785E-2,8.819608E-1,8.858773E-1,-1.6290694E0,-5.6698275E-1,-2.4283165E-2,1.5138207E-2,1.736387E-2,-1.7574765E-2,8.758279E-4,-4.5532115E-2,2.6303823E-3,-4.0778067E-2,2.002555E-3,-4.3864463E-2,-8.242961E-3,4.011919E-2,-2.0091176E-2,2.3285769E-2,-4.5871012E-2,7.50872E-3,3.576083E-2,-1.0475787E-2,-2.63959E-3,5.336375E-2,1.6237255E-2,-2.1988556E-2],"split_indices":[3,26,3,0,41,49,9,32,18,51,0,6,0,53,32,26,22,31,34,0,0,0,0,51,8,44,36,45,0,0,31,21,17,44,53,0,0,0,0,33,0,0,0,0,26,11,0,0,0,48,12,2,37,26,34,0,0,0,0,0,0,0,0,0,0,0,0,0,0,0,0,0,0,0,0,0,0],"split_type":[0,0,0,0,0,0,0,0,0,0,0,0,0,0,0,0,0,0,0,0,0,0,0,0,0,0,0,0,0,0,0,0,0,0,0,0,0,0,0,0,0,0,0,0,0,0,0,0,0,0,0,0,0,0,0,0,0,0,0,0,0,0,0,0,0,0,0,0,0,0,0,0,0,0,0,0,0],"sum_hessian":[2.2692747E2,9.803826E1,1.2888922E2,4.197502E0,9.384076E1,1.1585542E2,1.30337925E1,7.162302E1,2.2217743E1,1.0640788E2,9.447541E0,1.1048627E1,1.9851652E0,5.732178E1,1.4301235E1,1.1577158E1,1.0640585E1,6.959526E1,3.6812622E1,7.214403E0,2.233138E0,9.809961E0,1.2386658E0,5.940891E0,5.138089E1,5.6850634E0,8.616172E0,9.098863E0,2.4782956E0,2.215725E0,8.42486E0,4.5058292E1,2.4536968E1,3.2833275E1,3.979344E0,1.740391E0,5.4740124E0,4.2209272E0,1.7199633E0,3.7124147E0,4.7668476E1,3.965218E0,1.7198453E0,1.7343197E0,6.881852E0,7.8744636E0,1.2243994E0,1.2375054E0,7.187354E0,3.0166948E1,1.4891345E1,1.7861536E1,6.675432E0,2.8858751E1,3.9745247E0,1.7450985E0,2.2342453E0,1.7429678E0,1.9694469E0,2.476083E0,4.5192394E1,1.2414435E0,5.640409E0,1.2461803E0,6.628283E0,2.7332706E0,2.7433678E1,5.9704537E0,8.920891E0,8.961605E0,8.899931E0,5.4273815E0,1.2480507E0,1.2438433E0,2.7614908E1,2.4801476E0,1.494377E0],"tree_param":{"num_deleted":"0","num_feature":"54","num_nodes":"77","size_leaf_vector":"1"}},{"base_weights":[-7.082105E-3,-4.496453E-1,2.9140687E-1,3.8336013E-2,-5.490877E-1,-3.0772194E-1,5.6207913E-1,1.4778341E-1,-6.7128086E-1,-6.242292E-1,4.361839E-1,7.136457E-1,-3.31996E-2,3.154376E-2,-2.3204343E-1,-4.18262E-2,-8.2043624E-1,1.545029E-1,-7.888457E-1,3.494827E-2,-1.769246E-1,7.892119E-1,-1.4065954E-1,2.9295698E-2,-3.748564E-1,-4.5343176E-1,1.479759E-2,3.5284182E-1,-3.4051508E-2,1.4659303E-2,-8.846597E-1,2.1125458E-2,-1.2838842E-2,-9.8738617E-1,2.7742755E-2,-2.4181617E-2,1.669009E-2,8.406269E-1,-1.5583273E-2,-2.7915314E-2,1.7737329E-2,-7.106077E-1,1.998182E-2,-6.8735975E-1,6.977247E-3,3.2784764E-2,-1.6153635E-1,1.6578874E-3,-9.482484E-1,-1.1070799E0,-0E0,2.0882148E-2,-1.8193534E-2,9.0025467E-1,-7.843956E-2,8.447447E-3,-9.5467687E-1,3.6667336E-3,-3.7930083E-2,-2.3364209E-2,1.891664E-2,-4.2956907E-2,4.950344E-3,-0E0,-5.279904E-2,-4.5594545E-3,4.0083315E-2,1.7914798E-2,-2.5243524E-2,4.5984546E-3,-4.9564503E-2],"categories":[],"categories_nodes":[],"categories_segments":[],"categories_sizes":[],"default_left":[0,0,0,0,0,0,0,0,0,0,0,0,0,0,0,0,0,0,0,0,0,0,0,0,0,0,0,0,0,0,0,0,0,0,0,0,0,0,0,0,0,0,0,0,0,0,0,0,0,0,0,0,0,0,0,0,0,0,0,0,0,0,0,0,0,0,0,0,0,0,0],"id":9,"left_children":[1,3,5,-1,7,9,11,13,15,17,19,21,23,-1,25,27,29,31,33,-1,35,37,39,-1,41,43,-1,45,-1,-1,47,-1,-1,49,51,-1,-1,53,-1,-1,-1,55,-1,57,-1,-1,59,-1,61,63,-1,-1,-1,65,67,-1,69,-1,-1,-1,-1,-1,-1,-1,-1,-1,-1,-1,-1,-1,-1],"loss_changes":[3.0562931E1,1.4237297E1,2.3036768E1,0E0,8.118252E0,1.164273E1,8.964464E0,4.364536E0,6.8888702E0,4.883747E0,4.2878475E0,5.5736504E0,6.4622703E0,0E0,2.188047E0,6.813633E0,5.879421E0,1.9337075E0,4.9467793E0,0E0,2.7757504E0,5.5247993E0,3.670968E0,0E0,6.4041295E0,2.114334E0,0E0,3.769022E0,0E0,0E0,3.880352E0,0E0,0E0,2.4949245E0,2.6451275E0,0E0,0E0,4.3193054E0,0E0,0E0,0E0,4.131796E0,0E0,1.855711E0,0E0,0E0,3.106379E0,0E0,4.024353E0,3.0793743E0,0E0,0E0,0E0,3.0559273E0,2.8518913E0,0E0,3.415226E0,0E0,0E0,0E0,0E0,0E0,0E0,0E0,0E0,0E0,0E0,0E0,0E0,0E0,0E0],"parents":[2147483647,0,0,1,1,2,2,4,4,5,5,6,6,7,7,8,8,9,9,10,10,11,11,12,12,14,14,15,15,16,16,17,17,18,18,20,20,21,21,22,22,24,24,25,25,27,27,30,30,33,33,34,34,37,37,41,41,43,43,46,46,48,48,49,49,53,53,54,54,56,56],"right_children":[2,4,6,-1,8,10,12,14,16,18,20,22,24,-1,26,28,30,32,34,-1,36,38,40,-1,42,44,-1,46,-1,-1,48,-1,-1,50,52,-1,-1,54,-1,-1,-1,56,-1,58,-1,-1,60,-1,62,64,-1,-1,-1,66,68,-1,70,-1,-1,-1,-1,-1,-1,-1,-1,-1,-1,-1,-1,-1,-1],"split_conditions":[-4.0711364E-1,-1.5503803E0,-5.6860733E-1,3.8336013E-2,-5.020879E-1,1.2189544E0,5.3423035E-1,-8.0313034E-2,-7.6150954E-1,2.9903587E-2,-5.3261954E-1,8.5747004E-1,-8.332003E-1,3.154376E-2,7.8396964E-1,3.2479975E-1,-9.5853573E-1,6.812803E-2,6.205853E-1,3.494827E-2,7.691408E-1,8.8042355E-1,-3.679039E-1,2.9295698E-2,7.498299E-1,2.815275E-1,1.479759E-2,-2.4103498E-1,-3.4051508E-2,1.4659303E-2,-1.1639305E0,2.1125458E-2,-1.2838842E-2,9.19873E-1,-4.729629E-1,-2.4181617E-2,1.669009E-2,1.3166586E0,-1.5583273E-2,-2.7915314E-2,1.7737329E-2,-6.740733E-1,1.998182E-2,-5.375086E-1,6.977247E-3,3.2784764E-2,7.337961E-1,1.6578874E-3,1.2138802E0,-2.0000098E0,-0E0,2.0882148E-2,-1.8193534E-2,-2.0592523E0,5.8049875E-1,8.447447E-3,-9.473813E-1,3.6667336E-3,-3.7930083E-2,-2.3364209E-2,1.891664E-2,-4.2956907E-2,4.950344E-3,-0E0,-5.279904E-2,-4.5594545E-3,4.0083315E-2,1.7914798E-2,-2.5243524E-2,4.5984546E-3,-4.9564503E-2],"split_indices":[3,26,48,0,27,39,37,6,8,34,42,7,35,0,24,29,0,13,53,0,35,49,26,0,29,46,0,33,0,0,20,0,0,36,17,0,0,21,0,0,0,25,0,7,0,0,24,0,26,13,0,0,0,14,2,0,23,0,0,0,0,0,0,0,0,0,0,0,0,0,0],"split_type":[0,0,0,0,0,0,0,0,0,0,0,0,0,0,0,0,0,0,0,0,0,0,0,0,0,0,0,0,0,0,0,0,0,0,0,0,0,0,0,0,0,0,0,0,0,0,0,0,0,0,0,0,0,0,0,0,0,0,0,0,0,0,0,0,0,0,0,0,0,0,0],"sum_hessian":[2.2366423E2,8.9678246E1,1.3398598E2,3.9469752E0,8.573128E1,4.1242752E1,9.274323E1,1.2361662E1,7.336961E1,2.9592821E1,1.1649932E1,7.367616E1,1.906707E1,3.7375636E0,8.624098E0,1.5293843E1,5.8075768E1,4.9326077E0,2.4660213E1,6.68117E0,4.968762E0,6.822372E1,5.452445E0,4.7033253E0,1.4363745E1,7.134103E0,1.4899952E0,1.1114537E1,4.179306E0,1.9883394E0,5.608743E1,2.9630122E0,1.9695957E0,1.9464838E1,5.195374E0,3.223476E0,1.7452857E0,6.6488655E1,1.7350603E0,2.738317E0,2.714128E0,1.0900459E1,3.4632857E0,5.1638227E0,1.97028E0,5.427554E0,5.6869836E0,3.4475954E0,5.2639835E1,1.6760092E1,2.704747E0,2.7140863E0,2.4812875E0,6.2770496E1,3.7181602E0,2.236956E0,8.663504E0,1.2301375E0,3.9336853E0,3.9484315E0,1.7385521E0,5.042765E1,2.2121813E0,1.9872336E0,1.4772859E1,1.7287545E0,6.104174E1,1.9738841E0,1.744276E0,1.478218E0,7.1852856E0],"tree_param":{"num_deleted":"0","num_feature":"54","num_nodes":"71","size_leaf_vector":"1"}},{"base_weights":[1.1574838E-2,-3.6285645E-1,2.7157766E-1,2.2085888E-2,-7.291079E-1,-1.6959521E-1,5.042492E-1,4.0121984E-1,-4.7254056E-1,1.6715612E-2,-9.133622E-1,-4.0497804E-1,3.067888E-1,7.476956E-1,7.983624E-2,6.278372E-1,-1.6772193E-1,-6.8091565E-1,1.603189E-2,-1.1059417E0,-1.7335951E-1,3.2992688E-1,-6.33858E-1,-2.2164924E-1,3.2796334E-2,8.237168E-1,-1.4342862E-2,-1.9407932E-1,6.1698174E-1,8.4854364E-1,-1.4788842E-2,1.8397558E-2,-2.3333116E-2,-4.306994E-2,-1.137478E-1,-5.1120225E-2,5.553389E-3,-5.4090947E-1,2.0298272E-2,3.5587374E-2,-3.069021E-1,-8.5575265E-1,1.5640734E-1,-2.4827251E-2,1.9402161E-2,9.070071E-1,-1.295739E-1,-3.9622858E-1,2.376142E-2,-1.0025804E-2,8.2923496E-1,1.0333406E0,-6.6384035E-3,4.4662994E-1,-2.7308127E-2,-3.3600394E-2,3.1962923E-3,-2.6307607E-2,1.022982E-2,1.6207723E-2,-1.0325562E0,2.737295E-2,-1.4566172E-2,1.0192777E0,-0E0,-2.4225838E-2,1.2487815E-2,-6.5322405E-1,2.4189115E-1,4.5233518E-2,-1.0760304E-2,4.872791E-2,-1.783159E-3,3.4600563E-2,-1.0974771E-2,-5.115061E-2,-0E0,-4.4110003E-3,4.552217E-2,-1.6350418E-2,1.9192506E-2,1.5304422E-2,-3.6395974E-2,-9.584613E-3,2.3093224E-2],"categories":[],"categories_nodes":[],"categories_segments":[],"categories_sizes":[],"default_left":[0,0,0,0,0,0,0,0,0,0,0,0,0,0,0,0,0,0,0,0,0,0,0,0,0,0,0,0,0,0,0,0,0,0,0,0,0,0,0,0,0,0,0,0,0,0,0,0,0,0,0,0,0,0,0,0,0,0,0,0,0,0,0,0,0,0,0,0,0,0,0,0,0,0,0,0,0,0,0,0,0,0,0,0,0],"id":10,"left_children":[1,3,5,7,9,11,13,15,17,-1,19,21,23,25,27,29,31,33,-1,35,37,39,41,43,-1,45,-1,47,49,51,-1,-1,-1,-1,53,-1,-1,55,-1,-1,57,59,61,-1,-1,63,65,67,-1,-1,69,71,-1,73,-1,-1,-1,-1,-1,-1,75,-1,-1,77,79,-1,-1,81,83,-1,-1,-1,-1,-1,-1,-1,-1,-1,-1,-1,-1,-1,-1,-1,-1],"loss_changes":[2.2698576E1,1.3676027E1,1.457408E1,1.0009862E1,1.1628014E1,6.100166E0,9.04138E0,4.4340816E0,5.084198E0,0E0,5.178814E0,6.8195996E0,5.2209177E0,5.879799E0,6.138137E0,6.133482E0,3.448369E0,2.9891834E0,0E0,4.562893E0,4.228449E0,4.470891E0,5.687318E0,3.7091794E0,0E0,4.9998436E0,0E0,4.9660616E0,3.4078302E0,4.518263E0,0E0,0E0,0E0,0E0,4.5695434E0,0E0,0E0,2.0143006E0,0E0,0E0,1.8468745E0,6.67082E0,3.0845523E0,0E0,0E0,5.418476E0,2.0497952E0,4.6620903E0,0E0,0E0,4.2256927E0,2.4551811E0,0E0,2.8588727E0,0E0,0E0,0E0,0E0,0E0,0E0,3.5790844E0,0E0,0E0,2.9713936E0,2.1962314E0,0E0,0E0,4.964782E0,1.8316666E0,0E0,0E0,0E0,0E0,0E0,0E0,0E0,0E0,0E0,0E0,0E0,0E0,0E0,0E0,0E0,0E0],"parents":[2147483647,0,0,1,1,2,2,3,3,4,4,5,5,6,6,7,7,8,8,10,10,11,11,12,12,13,13,14,14,15,15,16,16,17,17,19,19,20,20,21,21,22,22,23,23,25,25,27,27,28,28,29,29,34,34,37,37,40,40,41,41,42,42,45,45,46,46,47,47,50,50,51,51,53,53,60,60,63,63,64,64,67,67,68,68],"right_children":[2,4,6,8,10,12,14,16,18,-1,20,22,24,26,28,30,32,34,-1,36,38,40,42,44,-1,46,-1,48,50,52,-1,-1,-1,-1,54,-1,-1,56,-1,-1,58,60,62,-1,-1,64,66,68,-1,-1,70,72,-1,74,-1,-1,-1,-1,-1,-1,76,-1,-1,78,80,-1,-1,82,84,-1,-1,-1,-1,-1,-1,-1,-1,-1,-1,-1,-1,-1,-1,-1,-1],"split_conditions":[-3.3312646E-1,-2.2409783E-1,-5.175465E-1,2.0168272E-1,-7.912703E-1,1.2583724E-1,2.0263177E-1,1.6202486E-1,5.569828E-1,1.6715612E-2,9.625048E-1,-9.7947407E-1,-7.4751246E-1,1.3799163E0,2.8286156E-1,3.7973863E-1,-3.4396717E-1,6.3605845E-1,1.603189E-2,1.4392439E0,2.837421E-1,-4.4769865E-1,7.0894855E-1,3.7126517E-1,3.2796334E-2,1.0848814E0,-1.4342862E-2,3.668683E-1,-1.0276219E0,8.5289717E-1,-1.4788842E-2,1.8397558E-2,-2.3333116E-2,-4.306994E-2,-8.603751E-2,-5.1120225E-2,5.553389E-3,-2.7347884E-1,2.0298272E-2,3.5587374E-2,1.013516E-1,-9.5166427E-1,-5.303456E-1,-2.4827251E-2,1.9402161E-2,5.52985E-1,1.201069E0,-1.6008328E-1,2.376142E-2,-1.0025804E-2,5.636616E-1,1.5158614E0,-6.6384035E-3,-1.6026181E-1,-2.7308127E-2,-3.3600394E-2,3.1962923E-3,-2.6307607E-2,1.022982E-2,1.6207723E-2,6.441886E-1,2.737295E-2,-1.4566172E-2,-1.6654471E0,-1.1577471E-1,-2.4225838E-2,1.2487815E-2,-1.694599E0,-2.866282E-1,4.5233518E-2,-1.0760304E-2,4.872791E-2,-1.783159E-3,3.4600563E-2,-1.0974771E-2,-5.115061E-2,-0E0,-4.4110003E-3,4.552217E-2,-1.6350418E-2,1.9192506E-2,1.5304422E-2,-3.6395974E-2,-9.584613E-3,2.3093224E-2],"split_indices":[3,25,48,14,20,23,43,39,5,0,16,51,46,1,17,53,40,14,0,28,39,17,8,22,0,31,0,14,19,20,0,0,0,0,19,0,0,41,0,0,30,25,13,0,0,37,31,40,0,0,20,36,0,0,0,0,0,0,0,0,0,0,0,23,40,0,0,26,47,0,0,0,0,0,0,0,0,0,0,0,0,0,0,0,0],"split_type":[0,0,0,0,0,0,0,0,0,0,0,0,0,0,0,0,0,0,0,0,0,0,0,0,0,0,0,0,0,0,0,0,0,0,0,0,0,0,0,0,0,0,0,0,0,0,0,0,0,0,0,0,0,0,0,0,0,0,0,0,0,0,0,0,0,0,0,0,0,0,0,0,0,0,0,0,0,0,0,0,0,0,0,0,0],"sum_hessian":[2.2593039E2,9.158567E1,1.3434473E2,4.6012894E1,4.5572777E1,4.635553E1,8.798919E1,2.6736858E1,1.9276035E1,5.6545644E0,3.9918213E1,3.175733E1,1.4598201E1,5.3736427E1,3.425276E1,1.9167664E1,7.5691953E0,1.6298912E1,2.9771235E0,2.994474E1,9.973472E0,6.887277E0,2.4870052E1,7.429969E0,7.168232E0,5.1262875E1,2.4735537E0,2.3938828E1,1.0313936E1,1.6228336E1,2.9393265E0,2.4699156E0,5.09928E0,8.23515E0,8.063762E0,2.8233068E1,1.7116727E0,7.0067587E0,2.9667132E0,3.4393811E0,3.447896E0,1.94305E1,5.439552E0,5.4393415E0,1.9906273E0,4.7556328E1,3.7065468E0,2.0501116E1,3.437711E0,1.7403345E0,8.573602E0,1.3828033E1,2.4003034E0,3.9308634E0,4.1328983E0,4.5781217E0,2.4286368E0,2.2036984E0,1.2441976E0,1.7211763E0,1.7709324E1,2.4765434E0,2.9630086E0,4.209997E1,5.456356E0,1.4920295E0,2.214517E0,1.4838255E1,5.6628604E0,7.339203E0,1.2343988E0,1.2601848E1,1.2261863E0,2.465903E0,1.4649606E0,1.4758234E1,2.9510903E0,1.222136E0,4.0877834E1,3.4767358E0,1.9796203E0,1.7244686E0,1.3113787E1,2.2334232E0,3.4294372E0],"tree_param":{"num_deleted":"0","num_feature":"54","num_nodes":"85","size_leaf_vector":"1"}},{"base_weights":[-5.4584206E-3,-4.603441E-1,2.0413494E-1,3.1004134E-1,-6.515847E-1,-2.1234117E-1,3.905268E-1,-2.1990005E-2,3.4730177E-2,-9.539882E-1,-1.9005686E-1,2.922096E-1,-6.029429E-1,7.389808E-1,1.7015423E-1,1.2329613E-2,-1.0366359E0,3.164783E-1,-4.981883E-1,7.3596424E-1,-8.261361E-2,-7.8435326E-1,9.303953E-2,-0E0,9.3527424E-1,-2.0594235E-1,4.217274E-1,-0E0,-1.1394507E0,6.6393363E-1,-2.2150855E-1,5.349811E-2,-3.5686884E-2,-3.8197255E-3,3.780996E-2,-4.961958E-1,4.2294994E-1,-4.917728E-4,-9.5798737E-1,-1.0789788E-2,2.112677E-2,2.4141088E-2,-2.0369714E-2,1.0218757E0,-7.8692526E-4,2.0223953E-1,-6.3345146E-1,6.5740776E-1,-9.410527E-2,-0E0,-5.349598E-2,-3.956976E-3,3.7953198E-2,-2.5300382E-2,1.2129372E-2,2.592973E-2,-2.1998994E-2,-3.5334487E-2,1.3283618E-2,3.2156475E-2,-1.5960658E-2,2.9704126E-3,-1.0820856E0,1.1392857E0,4.3231426E-3,5.275722E-1,-2.4378072E-2,-4.1645385E-2,-2.7438248E-2,-1.8355587E-2,8.2896286E-1,3.9635098E-1,-5.299378E-1,1.9871101E-3,-5.0818466E-2,-1.8321406E-4,5.194037E-2,-1.8915296E-2,2.131355E-2,-5.5423337E-3,3.326237E-2,-2.036467E-2,1.707044E-2,-1.01053715E-2,4.0395543E-2,-1.0736095E-2,2.6574375E-2,1.0489985E-2,-3.18902E-2],"categories":[],"categories_nodes":[],"categories_segments":[],"categories_sizes":[],"default_left":[0,0,0,0,0,0,0,0,0,0,0,0,0,0,0,0,0,0,0,0,0,0,0,0,0,0,0,0,0,0,0,0,0,0,0,0,0,0,0,0,0,0,0,0,0,0,0,0,0,0,0,0,0,0,0,0,0,0,0,0,0,0,0,0,0,0,0,0,0,0,0,0,0,0,0,0,0,0,0,0,0,0,0,0,0,0,0,0,0],"id":11,"left_children":[1,3,5,7,9,11,13,-1,-1,15,17,19,21,23,25,-1,27,29,31,33,35,37,39,41,43,45,47,-1,49,51,53,55,-1,-1,-1,57,59,-1,61,-1,-1,-1,-1,63,-1,65,67,69,71,-1,-1,-1,-1,-1,-1,-1,-1,-1,-1,-1,-1,-1,73,75,77,79,-1,-1,81,-1,83,85,87,-1,-1,-1,-1,-1,-1,-1,-1,-1,-1,-1,-1,-1,-1,-1,-1],"loss_changes":[2.259192E1,1.1871512E1,1.28845415E1,8.718167E0,7.613041E0,1.09593725E1,7.997242E0,0E0,0E0,4.9837074E0,5.204552E0,4.526906E0,4.329322E0,6.17527E0,7.4400654E0,0E0,3.6154022E0,3.095839E0,4.070089E0,1.9710488E0,4.246983E0,3.0756693E0,1.8231668E0,4.367517E0,3.0912876E0,6.1703415E0,6.0087414E0,0E0,4.1996346E0,2.052682E0,2.1235266E0,4.5587134E0,0E0,0E0,0E0,4.0283155E0,3.5334244E0,0E0,3.1080627E0,0E0,0E0,0E0,0E0,3.3928947E0,0E0,5.847762E0,3.1163936E0,7.5031567E0,4.541847E0,0E0,0E0,0E0,0E0,0E0,0E0,0E0,0E0,0E0,0E0,0E0,0E0,0E0,2.7040615E0,2.6966515E0,2.4111185E0,3.0782485E0,0E0,0E0,2.6661685E0,0E0,4.657234E0,2.1377535E0,2.6624231E0,0E0,0E0,0E0,0E0,0E0,0E0,0E0,0E0,0E0,0E0,0E0,0E0,0E0,0E0,0E0,0E0],"parents":[2147483647,0,0,1,1,2,2,3,3,4,4,5,5,6,6,9,9,10,10,11,11,12,12,13,13,14,14,16,16,17,17,18,18,19,19,20,20,21,21,22,22,23,23,24,24,25,25,26,26,28,28,29,29,30,30,31,31,35,35,36,36,38,38,43,43,45,45,46,46,47,47,48,48,62,62,63,63,64,64,65,65,68,68,70,70,71,71,72,72],"right_children":[2,4,6,8,10,12,14,-1,-1,16,18,20,22,24,26,-1,28,30,32,34,36,38,40,42,44,46,48,-1,50,52,54,56,-1,-1,-1,58,60,-1,62,-1,-1,-1,-1,64,-1,66,68,70,72,-1,-1,-1,-1,-1,-1,-1,-1,-1,-1,-1,-1,-1,74,76,78,80,-1,-1,82,-1,84,86,88,-1,-1,-1,-1,-1,-1,-1,-1,-1,-1,-1,-1,-1,-1,-1,-1],"split_conditions":[-1.3335228E-1,-5.3852856E-1,-5.175465E-1,-1.3281242E0,6.2807584E-1,-3.598922E-1,-3.5164088E-1,-2.1990005E-2,3.4730177E-2,-1.4918908E0,-3.4019977E-1,-5.3730404E-1,4.44218E-1,-3.3312646E-1,-3.526878E-1,1.2329613E-2,-9.7346383E-1,8.6469E-1,8.312329E-2,-1.0682566E0,-2.5618798E-1,-1.081147E0,9.461317E-2,-4.5689628E-1,9.744385E-1,1.3676913E-1,1.1526904E-1,-0E0,-1.0695086E0,6.686914E-1,-5.780498E-1,-7.124613E-1,-3.5686884E-2,-3.8197255E-3,3.780996E-2,-1.4735411E-1,1.5895605E0,-4.917728E-4,-1.0134666E0,-1.0789788E-2,2.112677E-2,2.4141088E-2,-2.0369714E-2,1.0584805E0,-7.8692526E-4,1.6740425E-2,1.5001747E-1,-7.9508823E-1,-1.98175E-1,-0E0,-5.349598E-2,-3.956976E-3,3.7953198E-2,-2.5300382E-2,1.2129372E-2,2.592973E-2,-2.1998994E-2,-3.5334487E-2,1.3283618E-2,3.2156475E-2,-1.5960658E-2,2.9704126E-3,-1.7354312E0,-7.536255E-1,-6.114533E-1,-6.595556E-2,-2.4378072E-2,-4.1645385E-2,3.4693816E-1,-1.8355587E-2,-7.1469426E-1,1.4766407E-1,-4.802765E-1,1.9871101E-3,-5.0818466E-2,-1.8321406E-4,5.194037E-2,-1.8915296E-2,2.131355E-2,-5.5423337E-3,3.326237E-2,-2.036467E-2,1.707044E-2,-1.01053715E-2,4.0395543E-2,-1.0736095E-2,2.6574375E-2,1.0489985E-2,-3.18902E-2],"split_indices":[7,21,48,2,18,17,43,0,0,36,28,51,23,3,50,0,34,38,1,47,50,29,17,26,31,1,38,0,5,50,10,53,0,0,0,32,22,0,53,0,0,0,0,1,0,9,41,45,16,0,0,0,0,0,0,0,0,0,0,0,0,0,20,40,38,3,0,0,10,0,3,38,22,0,0,0,0,0,0,0,0,0,0,0,0,0,0,0,0],"split_type":[0,0,0,0,0,0,0,0,0,0,0,0,0,0,0,0,0,0,0,0,0,0,0,0,0,0,0,0,0,0,0,0,0,0,0,0,0,0,0,0,0,0,0,0,0,0,0,0,0,0,0,0,0,0,0,0,0,0,0,0,0,0,0,0,0,0,0,0,0,0,0,0,0,0,0,0,0,0,0,0,0,0,0,0,0,0,0,0,0],"sum_hessian":[2.2890381E2,7.118678E1,1.5771703E2,1.3432625E1,5.7754158E1,4.817814E1,1.0953889E2,4.857627E0,8.574998E0,3.2165237E1,2.558892E1,2.1144691E1,2.7033445E1,3.8604427E1,7.093446E1,1.2374731E0,3.0927765E1,9.326457E0,1.6262463E1,8.357569E0,1.2787124E1,2.1361841E1,5.6716037E0,8.838468E0,2.9765959E1,2.8293055E1,4.2641407E1,3.1843202E0,2.7743444E1,5.427805E0,3.898652E0,7.0513115E0,9.211152E0,1.2326494E0,7.1249194E0,7.34953E0,5.4375935E0,4.914912E0,1.644693E1,3.443448E0,2.2281554E0,3.6922016E0,5.146266E0,2.7290634E1,2.4753246E0,1.5167788E1,1.3125268E1,2.8910126E1,1.3731279E1,2.6666024E0,2.5076843E1,1.4724905E0,3.9553144E0,2.1759725E0,1.7226797E0,3.6742508E0,3.3770604E0,5.3779593E0,1.9715711E0,4.221312E0,1.2162814E0,1.7263669E0,1.4720563E1,2.3844078E1,3.4465568E0,1.1732034E1,3.435754E0,6.6934457E0,6.4318223E0,2.9789612E0,2.5931166E1,6.3427415E0,7.3885384E0,1.2371956E0,1.3483367E1,1.4759692E0,2.2368109E1,1.7423394E0,1.7042173E0,3.4455707E0,8.286463E0,3.216618E0,3.215204E0,1.9411508E0,2.3990015E1,1.2318575E0,5.1108837E0,1.2393677E0,6.1491704E0],"tree_param":{"num_deleted":"0","num_feature":"54","num_nodes":"89","size_leaf_vector":"1"}},{"base_weights":[1.0586102E-2,-3.8558856E-1,2.5581613E-1,-4.054953E-2,-6.4788866E-1,-1.9884713E-1,4.7742796E-1,-3.5260823E-1,4.5893332E-1,-7.8531784E-1,2.53297E-2,-4.554248E-1,2.661348E-1,2.4993072E-1,8.184001E-1,1.1401495E-1,-6.350713E-1,-9.141566E-3,7.7809024E-1,-5.9138745E-2,-1.0514243E0,1.2842615E-2,-6.4850026E-1,5.61848E-1,-2.02485E-2,6.2211573E-1,-5.476407E-2,1.0451208E0,-1.3572998E-2,2.6255403E-2,-3.9727852E-1,-8.8227916E-1,1.615291E-1,-8.3615165E-3,4.1149065E-2,2.017184E-2,-5.0578284E-1,-2.6846543E-1,-5.5783965E-2,-8.5906863E-1,-0E0,3.5703655E-2,-6.0123084E-3,-2.3283894E-1,7.9453593E-1,3.9646244E-1,-5.0100994E-1,1.145021E0,-5.26627E-3,8.145712E-3,-2.766467E-2,3.7459726E-3,-4.308825E-2,2.2302004E-2,-1.5365152E-2,-3.115172E-2,1.1457956E-2,-5.3188556E-1,1.6465735E-2,4.654572E-3,-9.6564245E-1,1.6847784E-2,-2.4377845E-2,1.2398285E-2,-2.4482222E-2,9.1965425E-1,-8.1968926E-2,9.552732E-1,-2.0252946E-1,1.5941657E-2,-7.0137167E-1,5.2018296E-2,-3.4687107E-3,8.178387E-3,-3.383588E-2,1.347604E-3,-4.5033205E-2,-2.6563639E-3,4.2615727E-2,-2.1536838E-2,1.5943216E-2,-0E0,4.770835E-2,1.08116E-2,-3.0325806E-2,7.6897065E-3,-3.8671814E-2],"categories":[],"categories_nodes":[],"categories_segments":[],"categories_sizes":[],"default_left":[0,0,0,0,0,0,0,0,0,0,0,0,0,0,0,0,0,0,0,0,0,0,0,0,0,0,0,0,0,0,0,0,0,0,0,0,0,0,0,0,0,0,0,0,0,0,0,0,0,0,0,0,0,0,0,0,0,0,0,0,0,0,0,0,0,0,0,0,0,0,0,0,0,0,0,0,0,0,0,0,0,0,0,0,0,0,0],"id":12,"left_children":[1,3,5,7,9,11,13,15,17,19,-1,21,23,25,27,29,31,-1,33,35,37,-1,39,41,-1,43,45,47,-1,-1,49,51,53,-1,-1,-1,55,57,-1,59,61,-1,-1,63,65,67,69,71,-1,-1,-1,-1,-1,-1,-1,-1,-1,73,-1,-1,75,-1,-1,-1,-1,77,79,81,83,-1,85,-1,-1,-1,-1,-1,-1,-1,-1,-1,-1,-1,-1,-1,-1,-1,-1],"loss_changes":[2.2655468E1,7.774727E0,1.4988046E1,7.242238E0,1.0271488E1,6.4167066E0,6.620022E0,4.1909785E0,4.5720515E0,8.501787E0,0E0,5.7275033E0,5.302209E0,7.6385336E0,1.1046694E1,4.4475183E0,4.4180846E0,0E0,3.240282E0,4.853547E0,4.964218E0,0E0,3.679288E0,3.6739588E0,0E0,5.2408314E0,8.566894E0,4.5456886E0,0E0,0E0,1.8564676E0,2.405303E0,2.1137052E0,0E0,0E0,0E0,2.7571843E0,3.0589323E0,0E0,2.7857275E0,3.3154569E0,0E0,0E0,2.0445435E0,3.3441849E0,7.958061E0,4.80189E0,3.298275E0,0E0,0E0,0E0,0E0,0E0,0E0,0E0,0E0,0E0,2.8144424E0,0E0,0E0,2.0922565E0,0E0,0E0,0E0,0E0,2.2245026E0,1.9565381E0,2.072091E0,3.7805977E0,0E0,4.173544E0,0E0,0E0,0E0,0E0,0E0,0E0,0E0,0E0,0E0,0E0,0E0,0E0,0E0,0E0,0E0,0E0],"parents":[2147483647,0,0,1,1,2,2,3,3,4,4,5,5,6,6,7,7,8,8,9,9,11,11,12,12,13,13,14,14,15,15,16,16,18,18,19,19,20,20,22,22,23,23,25,25,26,26,27,27,30,30,31,31,32,32,36,36,37,37,39,39,40,40,43,43,44,44,45,45,46,46,47,47,57,57,60,60,65,65,66,66,67,67,68,68,70,70],"right_children":[2,4,6,8,10,12,14,16,18,20,-1,22,24,26,28,30,32,-1,34,36,38,-1,40,42,-1,44,46,48,-1,-1,50,52,54,-1,-1,-1,56,58,-1,60,62,-1,-1,64,66,68,70,72,-1,-1,-1,-1,-1,-1,-1,-1,-1,74,-1,-1,76,-1,-1,-1,-1,78,80,82,84,-1,86,-1,-1,-1,-1,-1,-1,-1,-1,-1,-1,-1,-1,-1,-1,-1,-1],"split_conditions":[-2.9541206E-2,6.5615624E-2,-5.175465E-1,2.590445E-1,1.9849694E0,3.6838296E-1,2.0581117E-1,-2.4174145E-1,-3.8658845E-1,-3.2167286E-1,2.53297E-2,-9.8851606E-2,-1.2142963E-1,-5.1710004E-1,8.429145E-1,-2.1538058E-1,4.3390545E-1,-9.141566E-3,-1.5102324E0,-5.63097E-1,-3.833508E-1,1.2842615E-2,1.2189544E0,-1.1090903E-1,-2.02485E-2,-6.729703E-1,-6.4012855E-2,2.3790751E-1,-1.3572998E-2,2.6255403E-2,-4.1026077E-1,-1.1806434E0,-2.3582907E-1,-8.3615165E-3,4.1149065E-2,2.017184E-2,5.262388E-1,1.039384E0,-5.5783965E-2,-9.9395114E-1,6.641203E-1,3.5703655E-2,-6.0123084E-3,1.16909094E-1,7.457717E-1,-4.1455325E-1,-8.4272194E-1,2.3595924E0,-5.26627E-3,8.145712E-3,-2.766467E-2,3.7459726E-3,-4.308825E-2,2.2302004E-2,-1.5365152E-2,-3.115172E-2,1.1457956E-2,-4.7553208E-1,1.6465735E-2,4.654572E-3,-3.7189528E-1,1.6847784E-2,-2.4377845E-2,1.2398285E-2,-2.4482222E-2,-1.1729171E0,1.9855161E-1,-8.6202633E-1,2.3008247E-1,1.5941657E-2,-1.0502506E0,5.2018296E-2,-3.4687107E-3,8.178387E-3,-3.383588E-2,1.347604E-3,-4.5033205E-2,-2.6563639E-3,4.2615727E-2,-2.1536838E-2,1.5943216E-2,-0E0,4.770835E-2,1.08116E-2,-3.0325806E-2,7.6897065E-3,-3.8671814E-2],"split_indices":[7,8,48,15,17,12,11,36,28,1,0,39,18,19,7,18,14,0,39,21,28,0,39,1,0,41,43,52,0,0,0,23,33,0,0,0,21,6,0,24,53,0,0,48,12,25,39,0,0,0,0,0,0,0,0,0,0,27,0,0,34,0,0,0,0,25,2,0,33,0,6,0,0,0,0,0,0,0,0,0,0,0,0,0,0,0,0],"split_type":[0,0,0,0,0,0,0,0,0,0,0,0,0,0,0,0,0,0,0,0,0,0,0,0,0,0,0,0,0,0,0,0,0,0,0,0,0,0,0,0,0,0,0,0,0,0,0,0,0,0,0,0,0,0,0,0,0,0,0,0,0,0,0,0,0,0,0,0,0,0,0,0,0,0,0,0,0,0,0,0,0,0,0,0,0,0,0],"sum_hessian":[2.2605539E2,8.521755E1,1.4083784E2,3.907559E1,4.6141964E1,4.589845E1,9.493939E1,2.503679E1,1.4038798E1,4.294947E1,3.1924927E0,2.9981222E1,1.5917227E1,6.125234E1,3.3687057E1,9.933669E0,1.5103122E1,4.6539226E0,9.384875E0,1.2992016E1,2.9957457E1,5.4122825E0,2.456894E1,1.2254777E1,3.6624496E0,2.6210403E1,3.5041935E1,2.8515995E1,5.171062E0,4.8995023E0,5.0341663E0,1.1466727E1,3.6363943E0,1.2341074E0,8.150768E0,5.5802035E0,7.4118123E0,9.427838E0,2.0529617E1,1.7390163E1,7.1787763E0,8.584132E0,3.670645E0,3.931565E0,2.227884E1,1.7344505E1,1.7697428E1,2.653932E1,1.9766754E0,1.4567925E0,3.5773737E0,1.2045261E0,1.0262201E1,2.437991E0,1.1984034E0,6.1814704E0,1.2303419E0,7.4901967E0,1.9376413E0,1.4789963E0,1.5911167E1,4.7025065E0,2.4762695E0,1.4654564E0,2.4661086E0,1.9591429E1,2.6874104E0,8.052365E0,9.29214E0,2.4676E0,1.5229828E1,2.5307665E1,1.2316549E0,1.9731321E0,5.5170646E0,1.2356495E0,1.4675518E1,1.2302032E0,1.8361225E1,1.4797698E0,1.2076405E0,1.4708636E0,6.581502E0,5.6062884E0,3.6858516E0,2.6924183E0,1.253741E1],"tree_param":{"num_deleted":"0","num_feature":"54","num_nodes":"87","size_leaf_vector":"1"}},{"base_weights":[-1.7139114E-2,2.7305564E-1,-5.0511825E-1,7.839802E-1,1.3936886E-1,-6.8429154E-1,1.485342E-2,9.575085E-1,-3.1187294E-2,4.358485E-1,-1.8484107E-1,-8.3531934E-1,1.792358E-1,6.370704E-1,-6.144337E-1,1.076419E0,-8.161797E-3,-1.9066688E-2,1.7719362E-2,7.634008E-1,7.508936E-2,-4.0484792E-1,5.919129E-1,1.2235949E-2,-9.0111566E-1,-2.148652E-2,3.0594133E-2,-1.4927079E-2,9.058943E-1,-7.8455555E-1,8.441108E-3,1.8926561E-3,5.1776085E-2,-0E0,1.0113065E0,6.377773E-1,-2.291668E-1,-5.84537E-1,1.7856763E-1,8.2656467E-1,-1.0876812E-2,-9.588671E-1,3.5358074E-3,4.977947E-2,2.2498767E-3,4.540202E-3,-4.1921735E-2,-3.6515036E-1,2.2111122E-2,3.7772928E-3,4.8952386E-2,3.4967728E-2,-1.014226E-2,-4.5120642E-1,4.6476573E-1,-7.957624E-1,1.5681645E-1,2.6479738E-2,-1.970991E-1,-5.5613606E-3,4.3946322E-2,-2.9608814E-4,-1.0439935E0,1.0688196E-2,-2.719943E-2,1.4135808E-2,-2.9432248E-2,3.2081567E-2,-8.859136E-3,4.9493075E-3,-3.7753377E-2,2.6189066E-2,-1.04062455E-2,-2.0621635E-2,1.724085E-2,1.9022232E-2,-2.2847876E-2,-0E0,-4.666789E-2],"categories":[],"categories_nodes":[],"categories_segments":[],"categories_sizes":[],"default_left":[0,0,0,0,0,0,0,0,0,0,0,0,0,0,0,0,0,0,0,0,0,0,0,0,0,0,0,0,0,0,0,0,0,0,0,0,0,0,0,0,0,0,0,0,0,0,0,0,0,0,0,0,0,0,0,0,0,0,0,0,0,0,0,0,0,0,0,0,0,0,0,0,0,0,0,0,0,0,0],"id":13,"left_children":[1,3,5,7,9,11,13,15,17,19,21,23,25,27,29,31,-1,-1,-1,33,35,37,39,-1,41,-1,-1,-1,43,45,-1,-1,-1,47,49,51,53,55,57,59,-1,61,-1,-1,-1,-1,-1,63,-1,-1,-1,-1,-1,65,67,69,71,-1,73,-1,-1,75,77,-1,-1,-1,-1,-1,-1,-1,-1,-1,-1,-1,-1,-1,-1,-1,-1],"loss_changes":[3.2391254E1,9.124974E0,8.1677685E0,4.3729134E0,1.1728851E1,9.067286E0,1.1309143E1,4.2436733E0,2.2317884E0,7.0504265E0,1.0868101E1,5.198822E0,5.8922434E0,5.206097E0,2.6848297E0,2.5767918E0,0E0,0E0,0E0,6.2879944E0,6.5705137E0,5.5423584E0,3.7462335E0,0E0,3.5524483E0,0E0,0E0,0E0,2.2726269E0,2.829568E0,0E0,0E0,0E0,2.846861E0,2.3357964E0,2.978962E0,4.610023E0,6.583415E0,2.8534422E0,3.075901E0,0E0,3.8918877E0,0E0,0E0,0E0,0E0,0E0,2.2023392E0,0E0,0E0,0E0,0E0,0E0,4.8290105E0,2.169157E0,2.9914684E0,2.700671E0,0E0,2.4486327E0,0E0,0E0,2.8328035E0,2.348812E0,0E0,0E0,0E0,0E0,0E0,0E0,0E0,0E0,0E0,0E0,0E0,0E0,0E0,0E0,0E0,0E0],"parents":[2147483647,0,0,1,1,2,2,3,3,4,4,5,5,6,6,7,7,8,8,9,9,10,10,11,11,12,12,13,13,14,14,15,15,19,19,20,20,21,21,22,22,24,24,28,28,29,29,33,33,34,34,35,35,36,36,37,37,38,38,39,39,41,41,47,47,53,53,54,54,55,55,56,56,58,58,61,61,62,62],"right_children":[2,4,6,8,10,12,14,16,18,20,22,24,26,28,30,32,-1,-1,-1,34,36,38,40,-1,42,-1,-1,-1,44,46,-1,-1,-1,48,50,52,54,56,58,60,-1,62,-1,-1,-1,-1,-1,64,-1,-1,-1,-1,-1,66,68,70,72,-1,74,-1,-1,76,78,-1,-1,-1,-1,-1,-1,-1,-1,-1,-1,-1,-1,-1,-1,-1,-1],"split_conditions":[5.3423035E-1,-6.740733E-1,4.4795877E-1,6.0735464E-1,-2.007263E-1,1.0080743E0,-1.019718E-2,1.3400753E0,1.4441927E-1,-2.7102092E-1,9.8209155E-1,-1.2969627E0,1.5905577E-1,-1.5082937E0,9.8424757E-1,-1.4928762E0,-8.161797E-3,-1.9066688E-2,1.7719362E-2,-3.269985E-1,7.96852E-2,5.246221E-1,-9.4101705E-2,1.2235949E-2,1.6967237E0,-2.148652E-2,3.0594133E-2,-1.4927079E-2,3.523399E-1,-3.5390565E-1,8.441108E-3,1.8926561E-3,5.1776085E-2,3.647229E-1,-5.135693E-1,8.7652284E-1,4.3778485E-1,1.0547588E0,1.5942268E-1,-1.0312885E0,-1.0876812E-2,-1.086939E0,3.5358074E-3,4.977947E-2,2.2498767E-3,4.540202E-3,-4.1921735E-2,6.5866937E-3,2.2111122E-2,3.7772928E-3,4.8952386E-2,3.4967728E-2,-1.014226E-2,-1.3318245E0,-3.4879964E-2,-1.508897E0,-5.4202724E-1,2.6479738E-2,1.1236684E0,-5.5613606E-3,4.3946322E-2,9.5979005E-1,-1.5232893E0,1.0688196E-2,-2.719943E-2,1.4135808E-2,-2.9432248E-2,3.2081567E-2,-8.859136E-3,4.9493075E-3,-3.7753377E-2,2.6189066E-2,-1.04062455E-2,-2.0621635E-2,1.724085E-2,1.9022232E-2,-2.2847876E-2,-0E0,-4.666789E-2],"split_indices":[37,25,19,43,0,15,27,8,36,19,0,26,31,2,16,25,0,0,0,14,16,46,21,0,51,0,0,0,40,20,0,0,0,16,41,34,8,39,13,46,0,8,0,0,0,0,0,31,0,0,0,0,0,37,51,13,43,0,1,0,0,37,36,0,0,0,0,0,0,0,0,0,0,0,0,0,0,0,0],"split_type":[0,0,0,0,0,0,0,0,0,0,0,0,0,0,0,0,0,0,0,0,0,0,0,0,0,0,0,0,0,0,0,0,0,0,0,0,0,0,0,0,0,0,0,0,0,0,0,0,0,0,0,0,0,0,0,0,0,0,0,0,0,0,0,0,0,0,0,0,0,0,0,0,0,0,0,0,0,0,0],"sum_hessian":[2.2099348E2,1.3927718E2,8.171631E1,2.4744764E1,1.1453241E2,6.0268295E1,2.1448015E1,2.0126305E1,4.6184616E0,5.9569443E1,5.4962967E1,5.165201E1,8.616282E0,1.0965929E1,1.0482086E1,1.865025E1,1.4760544E0,2.6881974E0,1.930264E0,2.8679428E1,3.0890013E1,4.4472553E1,1.0490413E1,1.9586097E0,4.96934E1,3.6859214E0,4.9303613E0,1.9081359E0,9.057794E0,9.029495E0,1.4525906E0,2.9323626E0,1.5717887E1,7.785256E0,2.0894173E1,9.708538E0,2.1181475E1,3.433034E1,1.0142211E1,8.517187E0,1.9732254E0,4.7272396E1,2.4210074E0,5.6875377E0,3.3702557E0,1.6961074E0,7.333388E0,5.378565E0,2.4066913E0,3.656637E0,1.7237535E1,8.49766E0,1.2108784E0,1.7309462E1,3.8720133E0,2.6774536E1,7.5558057E0,3.874593E0,6.2676177E0,1.4849313E0,7.032256E0,4.4044557E0,4.286794E1,1.4429756E0,3.935589E0,3.4344494E0,1.3875011E1,2.6819444E0,1.1900691E0,1.9687312E0,2.4805805E1,2.912099E0,4.643707E0,5.033216E0,1.2344016E0,2.4786975E0,1.9257584E0,1.9662597E0,4.090168E1],"tree_param":{"num_deleted":"0","num_feature":"54","num_nodes":"79","size_leaf_vector":"1"}},{"base_weights":[4.302893E-3,-5.057285E-1,1.976685E-1,-7.3321164E-1,3.5999507E-2,1.1280611E-1,8.768856E-1,-8.187607E-1,7.453471E-3,-2.151572E-2,3.7141338E-1,-1.4195563E-1,2.841195E-1,4.3989275E-2,6.2255823E-4,-4.068699E-2,-9.808109E-2,-1.3980442E-2,6.982673E-1,2.4822722E-1,-5.8681345E-1,-4.0677514E-2,5.496622E-1,-2.3676433E-2,1.3196926E-2,3.8110353E-2,-8.704035E-3,4.6432126E-1,-4.0574378E-1,1.4935831E-2,-7.218704E-1,3.4632626E-1,-3.4200153E-1,-1.913996E-1,7.289051E-1,7.5785565E-1,-1.10621125E-1,-2.9294685E-2,1.6183995E-2,-8.829886E-1,9.439487E-3,7.0287675E-1,-4.384764E-1,-5.458123E-1,1.4505037E-2,1.9782953E-2,-5.1385736E-1,-9.073544E-3,8.1905943E-1,4.142399E-2,-5.566607E-3,-2.2247246E-2,1.6178062E-2,-0E0,-4.22873E-2,3.9649155E-2,-7.4426713E-3,1.1233807E-2,-3.0933129E-2,-3.117394E-2,1.8677708E-2,1.4943262E-2,-3.3774737E-2,3.8512696E-2,-1.36705795E-2],"categories":[],"categories_nodes":[],"categories_segments":[],"categories_sizes":[],"default_left":[0,0,0,0,0,0,0,0,0,0,0,0,0,0,0,0,0,0,0,0,0,0,0,0,0,0,0,0,0,0,0,0,0,0,0,0,0,0,0,0,0,0,0,0,0,0,0,0,0,0,0,0,0,0,0,0,0,0,0,0,0,0,0,0,0],"id":14,"left_children":[1,3,5,7,9,11,13,15,-1,-1,17,19,21,-1,-1,-1,23,-1,25,27,29,31,33,-1,-1,-1,-1,35,37,-1,39,41,43,45,47,49,51,-1,-1,53,-1,55,57,59,-1,-1,61,-1,63,-1,-1,-1,-1,-1,-1,-1,-1,-1,-1,-1,-1,-1,-1,-1,-1],"loss_changes":[2.2409737E1,7.9574986E0,8.927591E0,4.141527E0,4.571878E0,6.813009E0,1.9678383E0,3.3483677E0,0E0,0E0,4.5402217E0,1.1549417E1,8.202E0,0E0,0E0,0E0,2.7120948E0,0E0,2.9649162E0,5.776631E0,4.925893E0,5.649408E0,7.5159817E0,0E0,0E0,0E0,0E0,5.3625493E0,3.3572278E0,0E0,5.201812E0,7.0969553E0,4.5383787E0,3.5774775E0,4.4176865E0,4.4115257E0,3.3148618E0,0E0,0E0,2.578022E0,0E0,3.9585357E0,2.5461984E0,5.3518953E0,0E0,0E0,3.6460247E0,0E0,4.9177437E0,0E0,0E0,0E0,0E0,0E0,0E0,0E0,0E0,0E0,0E0,0E0,0E0,0E0,0E0,0E0,0E0],"parents":[2147483647,0,0,1,1,2,2,3,3,4,4,5,5,6,6,7,7,10,10,11,11,12,12,16,16,18,18,19,19,20,20,21,21,22,22,27,27,28,28,30,30,31,31,32,32,33,33,34,34,35,35,36,36,39,39,41,41,42,42,43,43,46,46,48,48],"right_children":[2,4,6,8,10,12,14,16,-1,-1,18,20,22,-1,-1,-1,24,-1,26,28,30,32,34,-1,-1,-1,-1,36,38,-1,40,42,44,46,48,50,52,-1,-1,54,-1,56,58,60,-1,-1,62,-1,64,-1,-1,-1,-1,-1,-1,-1,-1,-1,-1,-1,-1,-1,-1,-1,-1],"split_conditions":[-2.7733552E-1,4.5747408E-1,9.8209155E-1,1.4450132E0,-3.0847967E-1,-1.939596E-1,3.5069692E-1,8.0779195E-1,7.453471E-3,-2.151572E-2,1.00364484E-1,2.1424077E-1,7.0988886E-2,4.3989275E-2,6.2255823E-4,-4.068699E-2,-6.8946916E-1,-1.3980442E-2,1.945317E0,5.377964E-1,-1.1337805E0,-3.912073E-1,-9.846408E-1,-2.3676433E-2,1.3196926E-2,3.8110353E-2,-8.704035E-3,1.2856883E0,-5.8643285E-2,1.4935831E-2,1.0796242E0,3.6420482E-1,1.0097846E0,-8.883945E-1,-1.2754735E0,4.7797242E-1,1.0723788E0,-2.9294685E-2,1.6183995E-2,-8.639608E-1,9.439487E-3,1.1714734E0,-6.875069E-1,6.3524926E-1,1.4505037E-2,1.9782953E-2,-1.10614106E-1,-9.073544E-3,1.2321098E0,4.142399E-2,-5.566607E-3,-2.2247246E-2,1.6178062E-2,-0E0,-4.22873E-2,3.9649155E-2,-7.4426713E-3,1.1233807E-2,-3.0933129E-2,-3.117394E-2,1.8677708E-2,1.4943262E-2,-3.3774737E-2,3.8512696E-2,-1.36705795E-2],"split_indices":[7,46,0,16,11,46,36,28,0,0,44,21,15,0,0,0,41,0,51,43,44,0,14,0,0,0,0,3,17,0,2,37,53,9,13,37,39,0,0,17,0,29,11,16,0,0,31,0,8,0,0,0,0,0,0,0,0,0,0,0,0,0,0,0,0],"split_type":[0,0,0,0,0,0,0,0,0,0,0,0,0,0,0,0,0,0,0,0,0,0,0,0,0,0,0,0,0,0,0,0,0,0,0,0,0,0,0,0,0,0,0,0,0,0,0,0,0,0,0,0,0,0,0,0,0,0,0,0,0,0,0,0,0],"sum_hessian":[2.2055486E2,5.8619617E1,1.6193523E2,4.0692604E1,1.7927011E1,1.4813097E2,1.3804261E1,3.77761E1,2.9165046E0,5.8721704E0,1.2054842E1,5.9214733E1,8.891624E1,1.0879399E1,2.924862E0,3.0604767E1,7.1713343E0,3.5938773E0,8.460964E0,3.2113304E1,2.7101427E1,4.097573E1,4.7940506E1,3.046768E0,4.124566E0,7.240691E0,1.2202735E0,2.5240295E1,6.8730097E0,2.4365506E0,2.4664877E1,1.732338E1,2.3652353E1,9.010126E0,3.8930378E1,1.6222466E1,9.017829E0,5.6551204E0,1.2178893E0,2.14964E1,3.1684752E0,1.2402164E1,4.9212146E0,1.9061605E1,4.5907483E0,2.1812084E0,6.8289175E0,2.716466E0,3.6213913E1,1.3072508E1,3.1499577E0,5.062629E0,3.9552E0,2.466035E0,1.9030367E1,9.940527E0,2.4616375E0,1.2452295E0,3.675985E0,1.7094631E1,1.9669738E0,1.1894702E0,5.639447E0,3.473164E1,1.4822737E0],"tree_param":{"num_deleted":"0","num_feature":"54","num_nodes":"65","size_leaf_vector":"1"}},{"base_weights":[-1.3692134E-2,-5.011186E-1,1.3658316E-1,-6.890917E-1,3.528448E-1,6.8991277E-3,7.066449E-1,-8.826466E-1,-9.947914E-2,3.470135E-2,-1.0470919E-2,2.7445033E-1,-2.3651057E-1,-3.21213E-1,9.138299E-1,-4.0896952E-2,-2.7305842E-4,4.602535E-1,-6.736792E-1,3.6563995E-1,-2.9131252E-2,7.073646E-2,-4.7336808E-1,1.148183E-2,-2.786069E-2,1.0477246E0,-0E0,6.603011E-1,-8.258747E-3,-3.715707E-2,4.818528E-3,6.623386E-1,8.907591E-3,-3.0803183E-1,5.206547E-1,-8.9265305E-1,-2.0612028E-1,1.1156102E0,-1.8437767E-4,-1.9205792E-2,2.0740233E-2,3.7770387E-2,-3.836194E-3,3.1636E-2,9.565457E-1,2.8332174E-1,-6.0233027E-1,1.8632444E-2,-5.441055E-1,-1.7419143E-2,7.2201234E-1,3.118178E-3,-4.5466207E-2,-5.5948335E-1,2.0990573E-1,5.169447E-2,-3.4411876E-3,2.6793327E-2,-1.2005682E-2,-2.1471155E-3,4.3924384E-2,2.5032086E-2,-8.8936E-3,5.7004276E-3,-3.5299975E-2,-3.406039E-2,1.0278727E-2,3.7980255E-2,-7.982838E-3,2.8138687E-3,-3.727388E-2,2.6187615E-2,-1.12689985E-2],"categories":[],"categories_nodes":[],"categories_segments":[],"categories_sizes":[],"default_left":[0,0,0,0,0,0,0,0,0,0,0,0,0,0,0,0,0,0,0,0,0,0,0,0,0,0,0,0,0,0,0,0,0,0,0,0,0,0,0,0,0,0,0,0,0,0,0,0,0,0,0,0,0,0,0,0,0,0,0,0,0,0,0,0,0,0,0,0,0,0,0,0,0],"id":15,"left_children":[1,3,5,7,9,11,13,15,17,-1,-1,19,21,23,25,-1,-1,27,29,31,-1,33,35,-1,-1,37,39,41,-1,-1,-1,43,45,47,49,51,53,55,-1,-1,-1,-1,-1,57,59,61,63,-1,65,-1,67,-1,-1,69,71,-1,-1,-1,-1,-1,-1,-1,-1,-1,-1,-1,-1,-1,-1,-1,-1,-1,-1],"loss_changes":[1.6807983E1,9.680939E0,1.2683786E1,4.6594925E0,4.164438E0,9.765015E0,8.033635E0,1.9067287E0,6.298877E0,0E0,0E0,7.101229E0,5.9030066E0,2.283015E0,3.3173618E0,0E0,0E0,1.900214E0,2.0224752E0,7.0266724E0,0E0,6.90525E0,4.0778217E0,0E0,0E0,2.023962E0,2.404675E0,1.9672263E0,0E0,0E0,0E0,6.463497E0,6.443654E0,4.7614307E0,4.622066E0,3.1779985E0,5.3288136E0,3.1975193E0,0E0,0E0,0E0,0E0,0E0,3.680141E0,2.1926308E0,4.5616417E0,2.518229E0,0E0,4.52804E0,0E0,3.3194342E0,0E0,0E0,4.128409E0,3.997198E0,0E0,0E0,0E0,0E0,0E0,0E0,0E0,0E0,0E0,0E0,0E0,0E0,0E0,0E0,0E0,0E0,0E0,0E0],"parents":[2147483647,0,0,1,1,2,2,3,3,4,4,5,5,6,6,7,7,8,8,11,11,12,12,13,13,14,14,17,17,18,18,19,19,21,21,22,22,25,25,26,26,27,27,31,31,32,32,33,33,34,34,35,35,36,36,37,37,43,43,44,44,45,45,46,46,48,48,50,50,53,53,54,54],"right_children":[2,4,6,8,10,12,14,16,18,-1,-1,20,22,24,26,-1,-1,28,30,32,-1,34,36,-1,-1,38,40,42,-1,-1,-1,44,46,48,50,52,54,56,-1,-1,-1,-1,-1,58,60,62,64,-1,66,-1,68,-1,-1,70,72,-1,-1,-1,-1,-1,-1,-1,-1,-1,-1,-1,-1,-1,-1,-1,-1,-1,-1],"split_conditions":[-3.8067108E-1,9.9769217E-1,7.093439E-1,5.348544E-1,1.4406312E-1,-3.1794563E-1,-9.4987E-1,1.649845E0,-3.4248152E-1,3.470135E-2,-1.0470919E-2,9.692453E-1,-2.627874E-1,-1.462723E0,7.627234E-1,-4.0896952E-2,-2.7305842E-4,1.0517397E0,5.42718E-1,8.695713E-2,-2.9131252E-2,1.3581023E-1,-3.8057187E-1,1.148183E-2,-2.786069E-2,8.2983595E-1,-4.3340722E-1,1.6780378E-1,-8.258747E-3,-3.715707E-2,4.818528E-3,-9.778958E-1,-3.939059E-1,-8.4722656E-1,-8.544885E-1,-1.0907674E0,3.3837682E-1,3.030174E-1,-1.8437767E-4,-1.9205792E-2,2.0740233E-2,3.7770387E-2,-3.836194E-3,-5.261225E-1,-1.9461902E0,-4.654537E-3,-5.62926E-1,1.8632444E-2,4.2119467E-1,-1.7419143E-2,2.222399E-1,3.118178E-3,-4.5466207E-2,4.7552282E-1,4.2491618E-1,5.169447E-2,-3.4411876E-3,2.6793327E-2,-1.2005682E-2,-2.1471155E-3,4.3924384E-2,2.5032086E-2,-8.8936E-3,5.7004276E-3,-3.5299975E-2,-3.406039E-2,1.0278727E-2,3.7980255E-2,-7.982838E-3,2.8138687E-3,-3.727388E-2,2.6187615E-2,-1.12689985E-2],"split_indices":[7,26,46,46,22,19,12,18,22,0,0,37,6,12,12,0,0,13,26,34,0,51,33,0,0,4,14,5,0,0,0,19,40,1,22,44,19,16,0,0,0,0,0,29,33,49,1,0,26,0,40,0,0,39,33,0,0,0,0,0,0,0,0,0,0,0,0,0,0,0,0,0,0],"split_type":[0,0,0,0,0,0,0,0,0,0,0,0,0,0,0,0,0,0,0,0,0,0,0,0,0,0,0,0,0,0,0,0,0,0,0,0,0,0,0,0,0,0,0,0,0,0,0,0,0,0,0,0,0,0,0,0,0,0,0,0,0,0,0,0,0,0,0,0,0,0,0,0,0],"sum_hessian":[2.2101537E2,5.044232E1,1.7057304E2,4.2174824E1,8.267499E0,1.4238574E2,2.8187296E1,3.0036572E1,1.2138252E1,4.1698627E0,4.097636E0,6.810447E1,7.428128E1,4.178847E0,2.400845E1,2.7128296E1,2.9082763E0,6.293814E0,5.844438E0,6.4507065E1,3.5973992E0,3.2998528E1,4.128275E1,1.4710107E0,2.7078362E0,2.0398441E1,3.6100082E0,5.0880284E0,1.2057856E0,4.6316447E0,1.2127932E0,3.3089905E1,3.1417162E1,1.8242468E1,1.475606E1,1.2317415E1,2.8965334E1,1.9179756E1,1.2186844E0,1.9409944E0,1.669014E0,3.677874E0,1.4101542E0,1.2109468E1,2.0980438E1,2.3345432E1,8.071729E0,3.378614E0,1.4863854E1,1.7279279E0,1.30281315E1,1.9409359E0,1.0376479E1,1.5302862E1,1.3662472E1,1.795725E1,1.222507E0,3.1665552E0,8.942913E0,1.2045853E0,1.9775852E1,1.4341197E1,9.004235E0,1.9583647E0,6.113364E0,1.1450984E1,3.4128704E0,1.1324901E1,1.7032309E0,5.7961135E0,9.506749E0,7.0885973E0,6.5738745E0],"tree_param":{"num_deleted":"0","num_feature":"54","num_nodes":"73","size_leaf_vector":"1"}},{"base_weights":[6.2876767E-3,1.8094862E-1,-4.122542E-1,6.742732E-1,1.8702911E-2,4.4791367E-2,-6.4205456E-1,7.9031414E-1,-1.8284899E-1,6.3033885E-1,-1.6664355E-1,4.821659E-1,-2.3183966E-1,-7.6773995E-1,1.8026155E-1,9.408179E-1,-0E0,-2.6243627E-2,1.4849741E-2,7.846623E-1,-1.4887587E-2,-4.1569015E-1,3.0633295E-1,-9.013207E-3,2.8711053E-2,2.702249E-1,-6.2628275E-1,-0E0,-8.812346E-1,2.4482226E-2,-1.525015E-2,1.0081344E0,-4.6933205E-3,1.0069475E0,1.3527882E-1,-7.660247E-1,-7.996109E-2,7.531369E-1,-5.9780526E-1,-1.7598525E-2,2.8048124E-2,-3.7357185E-2,7.934153E-3,1.89397E-2,-2.3479108E-2,-6.719658E-2,-1.0535715E0,7.33272E-3,4.8364107E-2,4.8417516E-2,-0E0,4.0701443E-1,-1.7104072E-2,1.196645E-2,-9.095669E-1,2.5542936E-1,-6.3203627E-1,1.0189486E0,-0E0,-7.5806135E-1,4.9870773E-3,1.5919048E-2,-2.1360338E-2,-4.8384074E-2,4.614123E-3,-1.0148855E-2,2.9297734E-2,-4.3872297E-2,6.1119357E-3,-8.671595E-3,3.0236969E-2,-3.389013E-2,2.7141476E-3,5.324437E-2,-0E0,1.8492334E-2,-1.3550813E-2,3.9216876E-3,-4.111373E-2],"categories":[],"categories_nodes":[],"categories_segments":[],"categories_sizes":[],"default_left":[0,0,0,0,0,0,0,0,0,0,0,0,0,0,0,0,0,0,0,0,0,0,0,0,0,0,0,0,0,0,0,0,0,0,0,0,0,0,0,0,0,0,0,0,0,0,0,0,0,0,0,0,0,0,0,0,0,0,0,0,0,0,0,0,0,0,0,0,0,0,0,0,0,0,0,0,0,0,0],"id":16,"left_children":[1,3,5,7,9,11,13,15,17,19,21,23,25,27,29,31,-1,-1,-1,33,-1,35,37,-1,-1,39,41,43,45,-1,-1,47,-1,49,51,53,55,57,59,-1,-1,-1,-1,-1,-1,61,63,-1,-1,-1,-1,65,-1,-1,67,69,71,73,75,77,-1,-1,-1,-1,-1,-1,-1,-1,-1,-1,-1,-1,-1,-1,-1,-1,-1,-1,-1],"loss_changes":[1.629504E1,1.243689E1,7.134268E0,4.5360203E0,1.4479608E1,3.503103E0,5.22896E0,4.3991356E0,2.5390115E0,5.618437E0,1.1949281E1,2.1167302E0,4.176554E0,3.3869076E0,2.62122E0,2.7385826E0,0E0,0E0,0E0,3.1098309E0,0E0,7.2717295E0,1.5973389E1,0E0,0E0,3.689149E0,3.020772E0,3.05006E0,4.246006E0,0E0,0E0,1.8703403E0,0E0,2.370493E0,2.2757642E0,5.8033886E0,7.733887E0,4.968875E0,2.044146E0,0E0,0E0,0E0,0E0,0E0,0E0,2.658574E0,3.2144642E0,0E0,0E0,0E0,0E0,2.468032E0,0E0,0E0,4.268839E0,6.0403156E0,2.126491E0,4.1852264E0,1.9579664E0,2.597631E0,0E0,0E0,0E0,0E0,0E0,0E0,0E0,0E0,0E0,0E0,0E0,0E0,0E0,0E0,0E0,0E0,0E0,0E0,0E0],"parents":[2147483647,0,0,1,1,2,2,3,3,4,4,5,5,6,6,7,7,8,8,9,9,10,10,11,11,12,12,13,13,14,14,15,15,19,19,21,21,22,22,25,25,26,26,27,27,28,28,31,31,33,33,34,34,35,35,36,36,37,37,38,38,45,45,46,46,51,51,54,54,55,55,56,56,57,57,58,58,59,59],"right_children":[2,4,6,8,10,12,14,16,18,20,22,24,26,28,30,32,-1,-1,-1,34,-1,36,38,-1,-1,40,42,44,46,-1,-1,48,-1,50,52,54,56,58,60,-1,-1,-1,-1,-1,-1,62,64,-1,-1,-1,-1,66,-1,-1,68,70,72,74,76,78,-1,-1,-1,-1,-1,-1,-1,-1,-1,-1,-1,-1,-1,-1,-1,-1,-1,-1,-1],"split_conditions":[8.395645E-2,-4.833113E-1,-2.8659014E-2,1.4628426E0,-1.0174451E0,-3.0716518E-1,1.6857626E0,9.054512E-1,-5.4445827E-1,-3.939059E-1,4.6744716E-1,-1.3432329E0,-2.031445E-1,-6.740733E-1,1.1522457E-1,7.8962386E-1,-0E0,-2.6243627E-2,1.4849741E-2,1.7954329E-1,-1.4887587E-2,1.0772275E-1,1.2355633E0,-9.013207E-3,2.8711053E-2,-2.7666888E-1,3.958466E-1,5.4201657E-1,-9.471371E-1,2.4482226E-2,-1.525015E-2,-3.262029E-1,-4.6933205E-3,1.8631259E0,1.3377005E-1,-9.602087E-1,4.2750683E-1,8.5326517E-1,3.1446505E-1,-1.7598525E-2,2.8048124E-2,-3.7357185E-2,7.934153E-3,1.89397E-2,-2.3479108E-2,2.9483604E-1,8.230895E-1,7.33272E-3,4.8364107E-2,4.8417516E-2,-0E0,-4.6428013E-1,-1.7104072E-2,1.196645E-2,1.811293E0,1.8134502E-1,8.162717E-1,7.029072E-1,-5.805451E-1,-9.64155E-1,4.9870773E-3,1.5919048E-2,-2.1360338E-2,-4.8384074E-2,4.614123E-3,-1.0148855E-2,2.9297734E-2,-4.3872297E-2,6.1119357E-3,-8.671595E-3,3.0236969E-2,-3.389013E-2,2.7141476E-3,5.324437E-2,-0E0,1.8492334E-2,-1.3550813E-2,3.9216876E-3,-4.111373E-2],"split_indices":[52,34,4,36,47,36,18,44,26,40,26,15,22,25,12,39,0,0,0,1,0,46,3,0,0,13,41,1,8,0,0,15,0,3,25,25,9,37,24,0,0,0,0,0,0,27,0,0,0,0,0,25,0,0,41,11,47,44,28,36,0,0,0,0,0,0,0,0,0,0,0,0,0,0,0,0,0,0,0],"split_type":[0,0,0,0,0,0,0,0,0,0,0,0,0,0,0,0,0,0,0,0,0,0,0,0,0,0,0,0,0,0,0,0,0,0,0,0,0,0,0,0,0,0,0,0,0,0,0,0,0,0,0,0,0,0,0,0,0,0,0,0,0,0,0,0,0,0,0,0,0,0,0,0,0,0,0,0,0,0,0],"sum_hessian":[2.1621802E2,1.5447284E2,6.1745182E1,3.494184E1,1.19531E2,2.12853E1,4.0459885E1,3.1292952E1,3.6488888E0,2.6047392E1,9.3483604E1,7.536854E0,1.3748445E1,3.5579212E1,4.880671E0,2.5959612E1,5.333339E0,1.9565789E0,1.69231E0,2.3359316E1,2.688075E0,6.1887127E1,3.1596476E1,1.2351683E0,6.3016853E0,6.27777E0,7.4706745E0,5.1072507E0,3.0471964E1,2.9535618E0,1.927109E0,2.4766016E1,1.1935966E0,1.5586856E1,7.7724605E0,2.758469E1,3.4302437E1,2.1750526E1,9.845949E0,1.9382203E0,4.33955E0,5.752468E0,1.7182064E0,3.182126E0,1.9251244E0,6.484416E0,2.3987547E1,4.5711336E0,2.0194881E1,1.3406882E1,2.1799738E0,6.061503E0,1.7109576E0,2.6890063E0,2.4895685E1,2.2290907E1,1.2011532E1,1.4985018E1,6.7655077E0,8.149277E0,1.6966729E0,3.1775737E0,3.3068426E0,2.2780146E1,1.2074016E0,1.713454E0,4.3480487E0,2.2723574E1,2.1721103E0,1.1797725E1,1.0493181E1,9.639835E0,2.371696E0,1.1514486E1,3.4705315E0,2.4568522E0,4.3086553E0,1.7228882E0,6.4263883E0],"tree_param":{"num_deleted":"0","num_feature":"54","num_nodes":"79","size_leaf_vector":"1"}},{"base_weights":[-6.6404636E-3,-3.1458184E-1,3.084021E-1,-4.4334123E-1,4.5433486E-1,4.3918356E-1,-5.3147274E-1,-5.799651E-1,2.0014277E-1,-2.9976782E-1,7.949049E-1,5.177632E-1,-3.6801967E-1,1.1856372E-2,-6.82122E-1,-1.9672735E-1,-8.4456646E-1,-1.9229138E-2,5.662895E-1,-2.4687728E-2,1.0970448E-2,4.0445555E-2,-0E0,2.4871011E-1,8.8602626E-1,-6.200998E-1,7.5663994E-3,-3.93685E-2,1.7701148E-3,3.944927E-1,-4.0378076E-1,8.211727E-3,-9.089754E-1,7.89024E-1,-6.1140712E-3,6.8220073E-1,2.1971012E-2,-1.4415547E-2,1.0257282E0,4.8167044E-3,-3.730868E-2,-1.6985184E-2,2.1339152E-2,-1.603828E-1,3.5875082E-2,1.5981542E-2,-5.723464E-1,1.093559E-1,-9.870665E-1,4.106521E-2,-3.17835E-3,3.6070794E-2,-6.59089E-2,-3.3513582E-1,3.873503E-1,-5.9455616E-4,4.7651228E-2,1.3995939E-2,-2.5342882E-2,-3.390063E-2,2.6304459E-3,-1.5441305E-2,2.2421949E-2,1.0439872E-3,-4.4328593E-2,1.735506E-2,-2.2831742E-2,4.650751E-3,-2.8806284E-2,-1.0790106E-2,2.5298359E-2],"categories":[],"categories_nodes":[],"categories_segments":[],"categories_sizes":[],"default_left":[0,0,0,0,0,0,0,0,0,0,0,0,0,0,0,0,0,0,0,0,0,0,0,0,0,0,0,0,0,0,0,0,0,0,0,0,0,0,0,0,0,0,0,0,0,0,0,0,0,0,0,0,0,0,0,0,0,0,0,0,0,0,0,0,0,0,0,0,0,0,0],"id":17,"left_children":[1,3,5,7,9,11,13,15,17,19,21,23,25,-1,27,29,31,-1,33,-1,-1,-1,-1,35,37,39,-1,-1,41,43,45,-1,47,49,-1,51,53,-1,55,-1,-1,-1,-1,57,-1,-1,59,61,63,-1,-1,-1,65,67,69,-1,-1,-1,-1,-1,-1,-1,-1,-1,-1,-1,-1,-1,-1,-1,-1],"loss_changes":[2.1853344E1,1.2058476E1,1.3031002E1,9.32357E0,5.617982E0,6.9811325E0,2.7991133E0,7.615427E0,5.721267E0,1.8726268E0,1.8607016E0,7.9500885E0,1.9767103E0,0E0,2.7082963E0,5.4240627E0,4.0393257E0,0E0,2.8989267E0,0E0,0E0,0E0,0E0,5.5028806E0,7.737444E0,2.1099644E0,0E0,0E0,2.216495E0,3.5798311E0,4.956802E0,0E0,4.2928658E0,2.2637458E0,0E0,2.7612467E0,6.0476985E0,0E0,3.4718094E0,0E0,0E0,0E0,0E0,2.4948092E0,0E0,0E0,4.2112455E0,1.9915775E0,2.5229073E0,0E0,0E0,0E0,2.2985156E0,3.8944597E0,3.6582603E0,0E0,0E0,0E0,0E0,0E0,0E0,0E0,0E0,0E0,0E0,0E0,0E0,0E0,0E0,0E0,0E0],"parents":[2147483647,0,0,1,1,2,2,3,3,4,4,5,5,6,6,7,7,8,8,9,9,10,10,11,11,12,12,14,14,15,15,16,16,18,18,23,23,24,24,25,25,28,28,29,29,30,30,32,32,33,33,35,35,36,36,38,38,43,43,46,46,47,47,48,48,52,52,53,53,54,54],"right_children":[2,4,6,8,10,12,14,16,18,20,22,24,26,-1,28,30,32,-1,34,-1,-1,-1,-1,36,38,40,-1,-1,42,44,46,-1,48,50,-1,52,54,-1,56,-1,-1,-1,-1,58,-1,-1,60,62,64,-1,-1,-1,66,68,70,-1,-1,-1,-1,-1,-1,-1,-1,-1,-1,-1,-1,-1,-1,-1,-1],"split_conditions":[-1.20774806E-1,8.954629E-1,1.8245864E0,6.744305E-1,-9.6646994E-1,6.5736806E-1,-1.0836496E0,-4.433446E-2,-1.5870838E-1,2.1430625E-1,5.113749E-1,2.0581117E-1,1.7697839E0,1.1856372E-2,-5.775422E-1,-4.7553208E-1,-1.0448006E0,-1.9229138E-2,3.1284866E-1,-2.4687728E-2,1.0970448E-2,4.0445555E-2,-0E0,-6.0981095E-1,-9.6395034E-1,-6.740733E-1,7.5663994E-3,-3.93685E-2,-2.9786882E-1,-3.4466084E-2,-4.9948493E-1,8.211727E-3,-8.5820895E-1,1.4149029E0,-6.1140712E-3,5.5861074E-1,4.4598337E-2,-1.4415547E-2,-1.0195088E0,4.8167044E-3,-3.730868E-2,-1.6985184E-2,2.1339152E-2,1.7619155E-1,3.5875082E-2,1.5981542E-2,4.6010068E-1,6.279154E-2,-7.881208E-1,4.106521E-2,-3.17835E-3,3.6070794E-2,-9.0393406E-1,-1.4607841E-1,-1.0910108E0,-5.9455616E-4,4.7651228E-2,1.3995939E-2,-2.5342882E-2,-3.390063E-2,2.6304459E-3,-1.5441305E-2,2.2421949E-2,1.0439872E-3,-4.4328593E-2,1.735506E-2,-2.2831742E-2,4.650751E-3,-2.8806284E-2,-1.0790106E-2,2.5298359E-2],"split_indices":[3,0,3,15,7,44,17,49,46,31,9,11,18,0,52,27,53,0,8,0,0,0,0,40,10,25,0,0,29,12,4,0,0,50,0,23,26,0,12,0,0,0,0,21,0,0,24,45,47,0,0,0,24,22,23,0,0,0,0,0,0,0,0,0,0,0,0,0,0,0,0],"split_type":[0,0,0,0,0,0,0,0,0,0,0,0,0,0,0,0,0,0,0,0,0,0,0,0,0,0,0,0,0,0,0,0,0,0,0,0,0,0,0,0,0,0,0,0,0,0,0,0,0,0,0,0,0,0,0,0,0,0,0,0,0,0,0,0,0,0,0,0,0,0,0],"sum_hessian":[2.1782074E2,1.10565186E2,1.0725555E2,9.6336876E1,1.4228314E1,9.459975E1,1.2655798E1,8.009502E1,1.6241861E1,4.331257E0,9.897058E0,8.7708885E1,6.8908653E0,1.2311922E0,1.1424605E1,3.575093E1,4.434408E1,5.2972503E0,1.0944611E1,3.1034095E0,1.2278475E0,7.9848533E0,1.9122041E0,5.46747E1,3.303418E1,4.6824393E0,2.2084262E0,7.797375E0,3.6272302E0,8.0812235E0,2.7669706E1,1.931833E0,4.241225E1,8.28581E0,2.6588E0,1.5829431E1,3.8845272E1,2.661351E0,3.037283E1,1.4652448E0,3.2171943E0,2.1412115E0,1.4860185E0,4.3918366E0,3.6893868E0,3.855438E0,2.381427E1,2.681615E0,3.9730637E1,6.8151426E0,1.4706676E0,1.2916142E1,2.913288E0,1.9446257E1,1.9399014E1,2.3988771E0,2.7973951E1,2.2086434E0,2.1831932E0,1.728206E1,6.532209E0,1.1935258E0,1.4880892E0,1.6958843E0,3.803475E1,1.4239382E0,1.48935E0,9.174255E0,1.0272001E1,4.1787577E0,1.5220257E1],"tree_param":{"num_deleted":"0","num_feature":"54","num_nodes":"71","size_leaf_vector":"1"}},{"base_weights":[7.7277236E-3,-4.1896975E-1,1.5138322E-1,-1.0993035E-2,-6.3545984E-1,2.3222773E-1,-5.686359E-1,-3.511205E-1,5.297051E-1,-7.437013E-1,1.3246387E-2,3.2477602E-1,-2.7498904E-1,-7.616675E-1,9.47263E-3,-7.6650566E-1,2.21083E-1,-1.1983659E-2,8.265931E-1,-8.8856554E-1,-0E0,4.8380294E-1,-0E0,-6.27819E-1,4.0489018E-1,-9.036695E-1,3.2687294E-3,-3.9897952E-2,3.7316005E-3,2.311139E-2,-1.033848E-2,4.542737E-2,-5.1998803E-3,-1.0442228E0,-7.987272E-2,-2.389272E-2,2.6316406E-2,7.75148E-1,2.183165E-1,-3.6354136E-1,5.7426155E-1,-7.742525E-1,9.207445E-3,-9.212702E-3,6.609216E-1,-4.4508602E-2,3.1509483E-3,-4.944118E-2,-8.996886E-4,-1.738636E-2,1.6932745E-2,9.732317E-2,8.7875324E-1,7.644095E-1,-0E0,3.510868E-1,-5.695785E-1,-9.06659E-3,7.9916245E-1,-9.3244195E-1,4.70067E-3,3.7567325E-2,-3.1922518E-3,-1.7686034E-2,2.2695621E-2,4.082186E-2,-3.8593446E-4,-0E0,3.9714944E-2,-1.4390301E-2,1.8037738E-2,2.8420627E-2,-8.128886E-3,1.360874E-2,-2.946502E-2,-5.5633863E-3,4.1533582E-2,6.740722E-3,-4.7477733E-2],"categories":[],"categories_nodes":[],"categories_segments":[],"categories_sizes":[],"default_left":[0,0,0,0,0,0,0,0,0,0,0,0,0,0,0,0,0,0,0,0,0,0,0,0,0,0,0,0,0,0,0,0,0,0,0,0,0,0,0,0,0,0,0,0,0,0,0,0,0,0,0,0,0,0,0,0,0,0,0,0,0,0,0,0,0,0,0,0,0,0,0,0,0,0,0,0,0,0,0],"id":18,"left_children":[1,3,5,7,9,11,13,15,17,19,-1,21,23,25,-1,27,29,-1,31,33,35,37,39,41,43,45,-1,-1,-1,-1,-1,-1,-1,47,49,-1,-1,51,53,55,57,59,-1,-1,61,-1,-1,-1,-1,-1,-1,63,65,67,69,71,73,-1,75,77,-1,-1,-1,-1,-1,-1,-1,-1,-1,-1,-1,-1,-1,-1,-1,-1,-1,-1,-1],"loss_changes":[1.3865209E1,4.82745E0,1.0320559E1,5.037007E0,4.7150974E0,7.6726E0,3.5024238E0,4.8526187E0,3.5026453E0,3.6050644E0,0E0,6.9652405E0,7.158686E0,2.3155336E0,0E0,2.0871372E0,2.0163705E0,0E0,2.6828322E0,2.9949322E0,4.498578E0,6.0957737E0,1.0707037E1,3.0583038E0,2.3541355E0,2.3830252E0,0E0,0E0,0E0,0E0,0E0,0E0,0E0,2.2797794E0,1.9813373E0,0E0,0E0,2.3191032E0,6.163911E0,5.440671E0,4.2854505E0,2.9567547E0,0E0,0E0,1.8618286E0,0E0,0E0,0E0,0E0,0E0,0E0,3.0465147E0,2.6168613E0,2.064762E0,6.4557743E0,2.1290808E0,3.680851E0,0E0,3.312316E0,3.7947721E0,0E0,0E0,0E0,0E0,0E0,0E0,0E0,0E0,0E0,0E0,0E0,0E0,0E0,0E0,0E0,0E0,0E0,0E0,0E0],"parents":[2147483647,0,0,1,1,2,2,3,3,4,4,5,5,6,6,7,7,8,8,9,9,11,11,12,12,13,13,15,15,16,16,18,18,19,19,20,20,21,21,22,22,23,23,24,24,25,25,33,33,34,34,37,37,38,38,39,39,40,40,41,41,44,44,51,51,52,52,53,53,54,54,55,55,56,56,58,58,59,59],"right_children":[2,4,6,8,10,12,14,16,18,20,-1,22,24,26,-1,28,30,-1,32,34,36,38,40,42,44,46,-1,-1,-1,-1,-1,-1,-1,48,50,-1,-1,52,54,56,58,60,-1,-1,62,-1,-1,-1,-1,-1,-1,64,66,68,70,72,74,-1,76,78,-1,-1,-1,-1,-1,-1,-1,-1,-1,-1,-1,-1,-1,-1,-1,-1,-1,-1,-1],"split_conditions":[-3.3209983E-1,-1.7067041E-2,1.8245864E0,7.778318E-1,1.864649E0,7.050137E-1,7.0894855E-1,5.817181E-2,-7.3847276E-1,5.403284E-1,1.3246387E-2,3.8012552E-1,4.534725E-1,2.7867687E-1,9.47263E-3,1.1937964E0,6.354838E-1,-1.1983659E-2,1.1912216E0,1.3351697E0,4.2119467E-1,-3.7172467E-1,-4.43492E-3,1.1516663E0,-2.7623144E-1,1.9708969E-1,3.2687294E-3,-3.9897952E-2,3.7316005E-3,2.311139E-2,-1.033848E-2,4.542737E-2,-5.1998803E-3,8.5503644E-1,6.6905946E-1,-2.389272E-2,2.6316406E-2,-6.321282E-1,-6.59168E-1,-9.6091E-1,-6.9236034E-1,1.1515721E0,9.207445E-3,-9.212702E-3,3.0696067E-1,-4.4508602E-2,3.1509483E-3,-4.944118E-2,-8.996886E-4,-1.738636E-2,1.6932745E-2,-4.6200582E-1,1.4325535E0,-7.643494E-1,-8.831681E-2,4.599832E-3,-8.299778E-1,-9.06659E-3,-1.08891E0,-7.0762414E-1,4.70067E-3,3.7567325E-2,-3.1922518E-3,-1.7686034E-2,2.2695621E-2,4.082186E-2,-3.8593446E-4,-0E0,3.9714944E-2,-1.4390301E-2,1.8037738E-2,2.8420627E-2,-8.128886E-3,1.360874E-2,-2.946502E-2,-5.5633863E-3,4.1533582E-2,6.740722E-3,-4.7477733E-2],"split_indices":[7,8,3,20,17,37,8,32,12,41,0,1,50,2,0,14,32,0,42,37,26,19,9,2,2,30,0,0,0,0,0,0,0,11,43,0,0,41,38,29,12,23,0,0,5,0,0,0,0,0,0,50,8,2,45,36,21,0,44,9,0,0,0,0,0,0,0,0,0,0,0,0,0,0,0,0,0,0,0],"split_type":[0,0,0,0,0,0,0,0,0,0,0,0,0,0,0,0,0,0,0,0,0,0,0,0,0,0,0,0,0,0,0,0,0,0,0,0,0,0,0,0,0,0,0,0,0,0,0,0,0,0,0,0,0,0,0,0,0,0,0,0,0,0,0,0,0,0,0,0,0,0,0,0,0,0,0,0,0,0,0],"sum_hessian":[2.197625E2,5.31122E1,1.666503E2,2.0174292E1,3.293791E1,1.5240697E2,1.4243335E1,1.3473112E1,6.701179E0,3.0505974E1,2.4319348E0,1.3044466E2,2.1962307E1,1.1814381E1,2.4289548E0,7.3352633E0,6.137849E0,1.6223778E0,5.078801E0,2.4824667E1,5.6813083E0,8.6503006E1,4.3941643E1,1.48935585E1,7.0687494E0,1.0115405E1,1.6989748E0,6.1020985E0,1.2331648E0,3.5912113E0,2.5466378E0,3.9270124E0,1.1517888E0,1.9646143E1,5.178524E0,3.234806E0,2.4465022E0,3.738731E1,4.9115696E1,2.7821486E1,1.6120157E1,1.3206269E1,1.687289E0,1.9453338E0,5.1234155E0,8.890565E0,1.2248404E0,1.7051798E1,2.594344E0,3.7096252E0,1.468899E0,6.238433E0,3.1148878E1,1.1147234E1,